Language model created by QuickLM on Tue Dec 15 23:48:28 EST 2015
Copyright (c) 1996-2010 Carnegie Mellon University and Alexander I. Rudnicky

The model is in standard ARPA format, designed by Doug Paul while he was at MITRE.

The code that was used to produce this language model is available in Open Source.
Please visit http://www.speech.cs.cmu.edu/tools/ for more information

The (fixed) discount mass is 0.5. The backoffs are computed using the ratio method.
This model based on a corpus of 47 sentences and 67 words

\data\
ngram 1=67
ngram 2=116
ngram 3=88

\1-grams:
-0.8890 </s> -0.3010
-0.8890 <s> -0.2355
-2.5611 A -0.2998
-2.5611 AGAIN -0.2410
-2.5611 ANYTHING -0.2410
-2.0840 ARE -0.2974
-2.2601 BACKWARD -0.2410
-2.2601 BEGIN -0.2938
-2.5611 BOTTLE -0.2410
-2.5611 BUSY -0.2410
-2.5611 CANCEL -0.2986
-2.5611 CHARITY'S -0.2998
-2.5611 CURRENT -0.2986
-2.5611 DISMISS -0.2410
-2.2601 DOING -0.2396
-2.5611 DOWN -0.2410
-2.5611 DUCK -0.2410
-2.5611 ENTER -0.2962
-2.2601 EXPLORATION -0.2410
-2.2601 FORWARD -0.2410
-2.0840 GO -0.2938
-2.5611 GREETINGS -0.2986
-2.5611 HAPPY -0.2998
-2.5611 HAVE -0.2998
-2.5611 HELLO -0.2410
-2.5611 HOW -0.2974
-2.5611 HUNTING -0.2410
-2.5611 INTRODUCE -0.2998
-2.5611 LEFT -0.2410
-2.5611 ME -0.2410
-1.9590 MIMIC -0.2410
-2.2601 MOVE -0.2962
-2.5611 MUTE -0.2410
-2.0840 NO -0.2382
-2.5611 NOTHING -0.2410
-2.5611 OFFICE -0.2410
-2.5611 OKAY -0.2410
-2.5611 POWER -0.2998
-2.5611 PROBLEM -0.2410
-2.5611 PROFESSOR -0.2410
-2.5611 REST -0.2410
-2.5611 RIGHT -0.2410
-2.5611 SHOW -0.2998
-2.5611 SHUT -0.2998
-2.5611 SNAP -0.2410
-2.5611 SPIN -0.2410
-2.5611 SPINNING -0.2410
-2.5611 SQUIRTLE -0.2410
-2.5611 START -0.2962
-2.0840 STOP -0.2938
-2.5611 SUCCESS -0.2410
-2.5611 SURE -0.2410
-2.5611 TAPE -0.2410
-2.2601 TASK -0.2410
-2.5611 THANKS -0.2410
-2.2601 TO -0.2986
-2.5611 TRY -0.2998
-2.2601 TURN -0.2986
-2.2601 TURTLEBOT -0.2410
-2.5611 UP -0.2410
-2.5611 WAVE -0.2986
-2.5611 WHAT -0.2974
-2.5611 WHATS -0.2998
-2.5611 YES -0.2410
-2.0840 YOU -0.2369
-2.5611 YOUR -0.2986
-2.5611 YOURSELF -0.2410

\2-grams:
-1.9731 <s> ARE 0.0000
-1.6721 <s> BEGIN 0.0000
-1.9731 <s> BOTTLE 0.0000
-1.9731 <s> CANCEL 0.0000
-1.9731 <s> DISMISS 0.0000
-1.9731 <s> DOING -0.1761
-1.9731 <s> DUCK 0.0000
-1.9731 <s> ENTER 0.0000
-1.4960 <s> GO 0.0000
-1.9731 <s> GREETINGS 0.0000
-1.9731 <s> HAPPY 0.0000
-1.9731 <s> HAVE 0.0000
-1.9731 <s> HELLO 0.0000
-1.9731 <s> HOW 0.0000
-1.9731 <s> INTRODUCE 0.0000
-1.6721 <s> MOVE 0.0000
-1.9731 <s> MUTE 0.0000
-1.4960 <s> NO 0.0000
-1.9731 <s> NOTHING 0.0000
-1.9731 <s> OKAY 0.0000
-1.9731 <s> POWER 0.0000
-1.9731 <s> SHOW 0.0000
-1.9731 <s> SNAP 0.0000
-1.9731 <s> SPIN 0.0000
-1.9731 <s> SPINNING 0.0000
-1.9731 <s> SQUIRTLE 0.0000
-1.9731 <s> START 0.0000
-1.4960 <s> STOP 0.0000
-1.9731 <s> SUCCESS 0.0000
-1.9731 <s> SURE 0.0000
-1.9731 <s> TAPE 0.0000
-1.9731 <s> TRY 0.0000
-1.6721 <s> TURN 0.0000
-1.9731 <s> TURTLEBOT 0.0000
-1.9731 <s> WAVE 0.0000
-1.9731 <s> WHAT 0.0000
-1.9731 <s> WHATS 0.0000
-1.9731 <s> YES 0.0000
-0.3010 A REST 0.0000
-0.3010 AGAIN </s> -0.3010
-0.3010 ANYTHING </s> -0.3010
-0.3010 ARE YOU 0.0000
-0.3010 BACKWARD </s> -0.3010
-0.6021 BEGIN EXPLORATION 0.0000
-0.6021 BEGIN MIMIC 0.0000
-0.3010 BOTTLE </s> -0.3010
-0.3010 BUSY </s> -0.3010
-0.3010 CANCEL EXPLORATION 0.0000
-0.3010 CHARITY'S OFFICE 0.0000
-0.3010 CURRENT TASK 0.0000
-0.3010 DISMISS </s> -0.3010
-0.6021 DOING </s> -0.3010
-0.6021 DOING ANYTHING 0.0000
-0.3010 DOWN </s> -0.3010
-0.3010 DUCK </s> -0.3010
-0.3010 ENTER MIMIC 0.0000
-0.3010 EXPLORATION </s> -0.3010
-0.3010 FORWARD </s> -0.3010
-0.7782 GO BACKWARD 0.0000
-0.7782 GO FORWARD 0.0000
-0.7782 GO TO -0.1761
-0.3010 GREETINGS TURTLEBOT 0.0000
-0.3010 HAPPY HUNTING 0.0000
-0.3010 HAVE A 0.0000
-0.3010 HELLO </s> -0.3010
-0.3010 HOW ARE 0.0000
-0.3010 HUNTING </s> -0.3010
-0.3010 INTRODUCE YOURSELF 0.0000
-0.3010 LEFT </s> -0.3010
-0.3010 ME </s> -0.3010
-0.3010 MIMIC </s> -0.3010
-0.6021 MOVE BACKWARD 0.0000
-0.6021 MOVE FORWARD 0.0000
-0.3010 MUTE </s> -0.3010
-0.7782 NO </s> -0.3010
-0.7782 NO PROBLEM 0.0000
-0.7782 NO THANKS 0.0000
-0.3010 NOTHING </s> -0.3010
-0.3010 OFFICE </s> -0.3010
-0.3010 OKAY </s> -0.3010
-0.3010 POWER SHUT 0.0000
-0.3010 PROBLEM </s> -0.3010
-0.3010 PROFESSOR </s> -0.3010
-0.3010 REST </s> -0.3010
-0.3010 RIGHT </s> -0.3010
-0.3010 SHOW ME 0.0000
-0.3010 SHUT DOWN 0.0000
-0.3010 SNAP </s> -0.3010
-0.3010 SPIN </s> -0.3010
-0.3010 SPINNING </s> -0.3010
-0.3010 SQUIRTLE </s> -0.3010
-0.3010 START MIMIC 0.0000
-0.7782 STOP CURRENT 0.0000
-0.7782 STOP MIMIC 0.0000
-0.7782 STOP YOUR 0.0000
-0.3010 SUCCESS </s> -0.3010
-0.3010 SURE </s> -0.3010
-0.3010 TAPE </s> -0.3010
-0.3010 TASK </s> -0.3010
-0.3010 THANKS </s> -0.3010
-0.6021 TO CHARITY'S 0.0000
-0.6021 TO PROFESSOR 0.0000
-0.3010 TRY AGAIN 0.0000
-0.6021 TURN LEFT 0.0000
-0.6021 TURN RIGHT 0.0000
-0.3010 TURTLEBOT </s> -0.3010
-0.3010 UP </s> -0.3010
-0.3010 WAVE TO -0.1761
-0.3010 WHAT ARE 0.0000
-0.3010 WHATS UP 0.0000
-0.3010 YES </s> -0.3010
-0.7782 YOU </s> -0.3010
-0.7782 YOU BUSY 0.0000
-0.7782 YOU DOING -0.1761
-0.3010 YOUR TASK 0.0000
-0.3010 YOURSELF </s> -0.3010

\3-grams:
-0.3010 <s> ARE YOU
-0.6021 <s> BEGIN EXPLORATION
-0.6021 <s> BEGIN MIMIC
-0.3010 <s> BOTTLE </s>
-0.3010 <s> CANCEL EXPLORATION
-0.3010 <s> DISMISS </s>
-0.3010 <s> DOING ANYTHING
-0.3010 <s> DUCK </s>
-0.3010 <s> ENTER MIMIC
-0.7782 <s> GO BACKWARD
-0.7782 <s> GO FORWARD
-0.7782 <s> GO TO
-0.3010 <s> GREETINGS TURTLEBOT
-0.3010 <s> HAPPY HUNTING
-0.3010 <s> HAVE A
-0.3010 <s> HELLO </s>
-0.3010 <s> HOW ARE
-0.3010 <s> INTRODUCE YOURSELF
-0.6021 <s> MOVE BACKWARD
-0.6021 <s> MOVE FORWARD
-0.3010 <s> MUTE </s>
-0.7782 <s> NO </s>
-0.7782 <s> NO PROBLEM
-0.7782 <s> NO THANKS
-0.3010 <s> NOTHING </s>
-0.3010 <s> OKAY </s>
-0.3010 <s> POWER SHUT
-0.3010 <s> SHOW ME
-0.3010 <s> SNAP </s>
-0.3010 <s> SPIN </s>
-0.3010 <s> SPINNING </s>
-0.3010 <s> SQUIRTLE </s>
-0.3010 <s> START MIMIC
-0.7782 <s> STOP CURRENT
-0.7782 <s> STOP MIMIC
-0.7782 <s> STOP YOUR
-0.3010 <s> SUCCESS </s>
-0.3010 <s> SURE </s>
-0.3010 <s> TAPE </s>
-0.3010 <s> TRY AGAIN
-0.6021 <s> TURN LEFT
-0.6021 <s> TURN RIGHT
-0.3010 <s> TURTLEBOT </s>
-0.3010 <s> WAVE TO
-0.3010 <s> WHAT ARE
-0.3010 <s> WHATS UP
-0.3010 <s> YES </s>
-0.3010 A REST </s>
-0.7782 ARE YOU </s>
-0.7782 ARE YOU BUSY
-0.7782 ARE YOU DOING
-0.3010 BEGIN EXPLORATION </s>
-0.3010 BEGIN MIMIC </s>
-0.3010 CANCEL EXPLORATION </s>
-0.3010 CHARITY'S OFFICE </s>
-0.3010 CURRENT TASK </s>
-0.3010 DOING ANYTHING </s>
-0.3010 ENTER MIMIC </s>
-0.3010 GO BACKWARD </s>
-0.3010 GO FORWARD </s>
-0.3010 GO TO CHARITY'S
-0.3010 GREETINGS TURTLEBOT </s>
-0.3010 HAPPY HUNTING </s>
-0.3010 HAVE A REST
-0.3010 HOW ARE YOU
-0.3010 INTRODUCE YOURSELF </s>
-0.3010 MOVE BACKWARD </s>
-0.3010 MOVE FORWARD </s>
-0.3010 NO PROBLEM </s>
-0.3010 NO THANKS </s>
-0.3010 POWER SHUT DOWN
-0.3010 SHOW ME </s>
-0.3010 SHUT DOWN </s>
-0.3010 START MIMIC </s>
-0.3010 STOP CURRENT TASK
-0.3010 STOP MIMIC </s>
-0.3010 STOP YOUR TASK
-0.3010 TO CHARITY'S OFFICE
-0.3010 TO PROFESSOR </s>
-0.3010 TRY AGAIN </s>
-0.3010 TURN LEFT </s>
-0.3010 TURN RIGHT </s>
-0.3010 WAVE TO PROFESSOR
-0.3010 WHAT ARE YOU
-0.3010 WHATS UP </s>
-0.3010 YOU BUSY </s>
-0.3010 YOU DOING </s>
-0.3010 YOUR TASK </s>

\end\

