Language model created by QuickLM on Tue Dec 15 02:24:42 EST 2015
Copyright (c) 1996-2010 Carnegie Mellon University and Alexander I. Rudnicky

The model is in standard ARPA format, designed by Doug Paul while he was at MITRE.

The code that was used to produce this language model is available in Open Source.
Please visit http://www.speech.cs.cmu.edu/tools/ for more information

The (fixed) discount mass is 0.5. The backoffs are computed using the ratio method.
This model based on a corpus of 44 sentences and 60 words

\data\
ngram 1=60
ngram 2=105
ngram 3=80

\1-grams:
-0.8829 </s> -0.3010
-0.8829 <s> -0.2341
-2.5263 ANYTHING -0.2401
-2.0492 ARE -0.2971
-2.2253 BACKWARD -0.2401
-2.2253 BEGIN -0.2932
-2.5263 BOTTLE -0.2401
-2.5263 BUSY -0.2401
-2.5263 CANCEL -0.2984
-2.5263 CHARITY'S -0.2997
-2.5263 CURRENT -0.2984
-2.5263 DISMISS -0.2401
-2.2253 DOING -0.2386
-2.5263 DOWN -0.2401
-2.5263 DUCK -0.2401
-2.5263 ENTER -0.2958
-2.2253 EXPLORATION -0.2401
-2.2253 FORWARD -0.2401
-2.0492 GO -0.2945
-2.5263 GREETINGS -0.2984
-2.5263 HAPPY -0.2997
-2.5263 HELLO -0.2401
-2.5263 HOW -0.2971
-2.5263 HUNTING -0.2401
-2.5263 INTRODUCE -0.2997
-2.5263 LEFT -0.2401
-2.5263 ME -0.2401
-1.9243 MIMIC -0.2401
-2.2253 MOVE -0.2958
-2.5263 MUTE -0.2401
-2.0492 NO -0.2371
-2.5263 NOTHING -0.2401
-2.5263 OFFICE -0.2401
-2.5263 OKAY -0.2401
-2.5263 POWER -0.2997
-2.5263 PROBLEM -0.2401
-2.5263 RIGHT -0.2401
-2.5263 SHOW -0.2997
-2.5263 SHUT -0.2997
-2.5263 SNAP -0.2401
-2.5263 SPIN -0.2401
-2.5263 SPINNING -0.2401
-2.5263 SQUIRTLE -0.2401
-2.5263 START -0.2958
-2.0492 STOP -0.2932
-2.5263 SUCCESS -0.2401
-2.5263 SURE -0.2401
-2.5263 TAPE -0.2401
-2.2253 TASK -0.2401
-2.5263 THANKS -0.2401
-2.5263 TO -0.2997
-2.2253 TURN -0.2984
-2.2253 TURTLEBOT -0.2401
-2.5263 UP -0.2401
-2.5263 WHAT -0.2971
-2.5263 WHATS -0.2997
-2.5263 YES -0.2401
-2.0492 YOU -0.2356
-2.5263 YOUR -0.2984
-2.5263 YOURSELF -0.2401

\2-grams:
-1.9445 <s> ARE 0.0000
-1.6435 <s> BEGIN 0.0000
-1.9445 <s> BOTTLE 0.0000
-1.9445 <s> CANCEL 0.0000
-1.9445 <s> DISMISS 0.0000
-1.9445 <s> DOING -0.1761
-1.9445 <s> DUCK 0.0000
-1.9445 <s> ENTER 0.0000
-1.4674 <s> GO 0.0000
-1.9445 <s> GREETINGS 0.0000
-1.9445 <s> HAPPY 0.0000
-1.9445 <s> HELLO 0.0000
-1.9445 <s> HOW 0.0000
-1.9445 <s> INTRODUCE 0.0000
-1.6435 <s> MOVE 0.0000
-1.9445 <s> MUTE 0.0000
-1.4674 <s> NO 0.0000
-1.9445 <s> NOTHING 0.0000
-1.9445 <s> OKAY 0.0000
-1.9445 <s> POWER 0.0000
-1.9445 <s> SHOW 0.0000
-1.9445 <s> SNAP 0.0000
-1.9445 <s> SPIN 0.0000
-1.9445 <s> SPINNING 0.0000
-1.9445 <s> SQUIRTLE 0.0000
-1.9445 <s> START 0.0000
-1.4674 <s> STOP 0.0000
-1.9445 <s> SUCCESS 0.0000
-1.9445 <s> SURE 0.0000
-1.9445 <s> TAPE 0.0000
-1.6435 <s> TURN 0.0000
-1.9445 <s> TURTLEBOT 0.0000
-1.9445 <s> WHAT 0.0000
-1.9445 <s> WHATS 0.0000
-1.9445 <s> YES 0.0000
-0.3010 ANYTHING </s> -0.3010
-0.3010 ARE YOU 0.0000
-0.3010 BACKWARD </s> -0.3010
-0.6021 BEGIN EXPLORATION 0.0000
-0.6021 BEGIN MIMIC 0.0000
-0.3010 BOTTLE </s> -0.3010
-0.3010 BUSY </s> -0.3010
-0.3010 CANCEL EXPLORATION 0.0000
-0.3010 CHARITY'S OFFICE 0.0000
-0.3010 CURRENT TASK 0.0000
-0.3010 DISMISS </s> -0.3010
-0.6021 DOING </s> -0.3010
-0.6021 DOING ANYTHING 0.0000
-0.3010 DOWN </s> -0.3010
-0.3010 DUCK </s> -0.3010
-0.3010 ENTER MIMIC 0.0000
-0.3010 EXPLORATION </s> -0.3010
-0.3010 FORWARD </s> -0.3010
-0.7782 GO BACKWARD 0.0000
-0.7782 GO FORWARD 0.0000
-0.7782 GO TO 0.0000
-0.3010 GREETINGS TURTLEBOT 0.0000
-0.3010 HAPPY HUNTING 0.0000
-0.3010 HELLO </s> -0.3010
-0.3010 HOW ARE 0.0000
-0.3010 HUNTING </s> -0.3010
-0.3010 INTRODUCE YOURSELF 0.0000
-0.3010 LEFT </s> -0.3010
-0.3010 ME </s> -0.3010
-0.3010 MIMIC </s> -0.3010
-0.6021 MOVE BACKWARD 0.0000
-0.6021 MOVE FORWARD 0.0000
-0.3010 MUTE </s> -0.3010
-0.7782 NO </s> -0.3010
-0.7782 NO PROBLEM 0.0000
-0.7782 NO THANKS 0.0000
-0.3010 NOTHING </s> -0.3010
-0.3010 OFFICE </s> -0.3010
-0.3010 OKAY </s> -0.3010
-0.3010 POWER SHUT 0.0000
-0.3010 PROBLEM </s> -0.3010
-0.3010 RIGHT </s> -0.3010
-0.3010 SHOW ME 0.0000
-0.3010 SHUT DOWN 0.0000
-0.3010 SNAP </s> -0.3010
-0.3010 SPIN </s> -0.3010
-0.3010 SPINNING </s> -0.3010
-0.3010 SQUIRTLE </s> -0.3010
-0.3010 START MIMIC 0.0000
-0.7782 STOP CURRENT 0.0000
-0.7782 STOP MIMIC 0.0000
-0.7782 STOP YOUR 0.0000
-0.3010 SUCCESS </s> -0.3010
-0.3010 SURE </s> -0.3010
-0.3010 TAPE </s> -0.3010
-0.3010 TASK </s> -0.3010
-0.3010 THANKS </s> -0.3010
-0.3010 TO CHARITY'S 0.0000
-0.6021 TURN LEFT 0.0000
-0.6021 TURN RIGHT 0.0000
-0.3010 TURTLEBOT </s> -0.3010
-0.3010 UP </s> -0.3010
-0.3010 WHAT ARE 0.0000
-0.3010 WHATS UP 0.0000
-0.3010 YES </s> -0.3010
-0.7782 YOU </s> -0.3010
-0.7782 YOU BUSY 0.0000
-0.7782 YOU DOING -0.1761
-0.3010 YOUR TASK 0.0000
-0.3010 YOURSELF </s> -0.3010

\3-grams:
-0.3010 <s> ARE YOU
-0.6021 <s> BEGIN EXPLORATION
-0.6021 <s> BEGIN MIMIC
-0.3010 <s> BOTTLE </s>
-0.3010 <s> CANCEL EXPLORATION
-0.3010 <s> DISMISS </s>
-0.3010 <s> DOING ANYTHING
-0.3010 <s> DUCK </s>
-0.3010 <s> ENTER MIMIC
-0.7782 <s> GO BACKWARD
-0.7782 <s> GO FORWARD
-0.7782 <s> GO TO
-0.3010 <s> GREETINGS TURTLEBOT
-0.3010 <s> HAPPY HUNTING
-0.3010 <s> HELLO </s>
-0.3010 <s> HOW ARE
-0.3010 <s> INTRODUCE YOURSELF
-0.6021 <s> MOVE BACKWARD
-0.6021 <s> MOVE FORWARD
-0.3010 <s> MUTE </s>
-0.7782 <s> NO </s>
-0.7782 <s> NO PROBLEM
-0.7782 <s> NO THANKS
-0.3010 <s> NOTHING </s>
-0.3010 <s> OKAY </s>
-0.3010 <s> POWER SHUT
-0.3010 <s> SHOW ME
-0.3010 <s> SNAP </s>
-0.3010 <s> SPIN </s>
-0.3010 <s> SPINNING </s>
-0.3010 <s> SQUIRTLE </s>
-0.3010 <s> START MIMIC
-0.7782 <s> STOP CURRENT
-0.7782 <s> STOP MIMIC
-0.7782 <s> STOP YOUR
-0.3010 <s> SUCCESS </s>
-0.3010 <s> SURE </s>
-0.3010 <s> TAPE </s>
-0.6021 <s> TURN LEFT
-0.6021 <s> TURN RIGHT
-0.3010 <s> TURTLEBOT </s>
-0.3010 <s> WHAT ARE
-0.3010 <s> WHATS UP
-0.3010 <s> YES </s>
-0.7782 ARE YOU </s>
-0.7782 ARE YOU BUSY
-0.7782 ARE YOU DOING
-0.3010 BEGIN EXPLORATION </s>
-0.3010 BEGIN MIMIC </s>
-0.3010 CANCEL EXPLORATION </s>
-0.3010 CHARITY'S OFFICE </s>
-0.3010 CURRENT TASK </s>
-0.3010 DOING ANYTHING </s>
-0.3010 ENTER MIMIC </s>
-0.3010 GO BACKWARD </s>
-0.3010 GO FORWARD </s>
-0.3010 GO TO CHARITY'S
-0.3010 GREETINGS TURTLEBOT </s>
-0.3010 HAPPY HUNTING </s>
-0.3010 HOW ARE YOU
-0.3010 INTRODUCE YOURSELF </s>
-0.3010 MOVE BACKWARD </s>
-0.3010 MOVE FORWARD </s>
-0.3010 NO PROBLEM </s>
-0.3010 NO THANKS </s>
-0.3010 POWER SHUT DOWN
-0.3010 SHOW ME </s>
-0.3010 SHUT DOWN </s>
-0.3010 START MIMIC </s>
-0.3010 STOP CURRENT TASK
-0.3010 STOP MIMIC </s>
-0.3010 STOP YOUR TASK
-0.3010 TO CHARITY'S OFFICE
-0.3010 TURN LEFT </s>
-0.3010 TURN RIGHT </s>
-0.3010 WHAT ARE YOU
-0.3010 WHATS UP </s>
-0.3010 YOU BUSY </s>
-0.3010 YOU DOING </s>
-0.3010 YOUR TASK </s>

\end\

