<?xml version="1.0"?>
<opencv_storage>
<cascade>
  <stageType>BOOST</stageType>
  <featureType>LBP</featureType>
  <height>16</height>
  <width>16</width>
  <stageParams>
    <boostType>GAB</boostType>
    <minHitRate>9.9900001287460327e-01</minHitRate>
    <maxFalseAlarm>5.0000000000000000e-01</maxFalseAlarm>
    <weightTrimRate>9.4999998807907104e-01</weightTrimRate>
    <maxDepth>1</maxDepth>
    <maxWeakCount>100</maxWeakCount></stageParams>
  <featureParams>
    <maxCatCount>256</maxCatCount>
    <featSize>1</featSize></featureParams>
  <stageNum>30</stageNum>
  <stages>
    <!-- stage 0 -->
    <_>
      <maxWeakCount>3</maxWeakCount>
      <stageThreshold>-4.1114369034767151e-01</stageThreshold>
      <weakClassifiers>
        <_>
          <internalNodes>
            0 -1 79 -801076096 1434485760 -188694540 356580004 35496
            -2136971792 1156906938 1431697343</internalNodes>
          <leafValues>
            -6.3023257255554199e-01 8.5555553436279297e-01</leafValues></_>
        <_>
          <internalNodes>
            0 -1 85 -805257088 -788488060 1359537153 -217991513
            -267860824 -1132028082 -699344168 -11546674</internalNodes>
          <leafValues>
            -4.9191346764564514e-01 7.6741683483123779e-01</leafValues></_>
        <_>
          <internalNodes>
            0 -1 112 -800878381 -254094251 134414347 1095467055
            -1672542005 -1671483425 1091511727 1881093951</internalNodes>
          <leafValues>
            -5.2154147624969482e-01 7.1100234985351562e-01</leafValues></_></weakClassifiers></_>
    <!-- stage 1 -->
    <_>
      <maxWeakCount>8</maxWeakCount>
      <stageThreshold>-8.5218375921249390e-01</stageThreshold>
      <weakClassifiers>
        <_>
          <internalNodes>
            0 -1 12 -801050432 1342203586 -869762040 -586658547
            1073791360 -1878757052 -108028706 -11011157</internalNodes>
          <leafValues>
            -3.2880699634552002e-01 8.4126985073089600e-01</leafValues></_>
        <_>
          <internalNodes>
            0 -1 126 -524091904 285388296 1970403167 1428265763
            -822749291 1851747814 -2049519617 -772286497</internalNodes>
          <leafValues>
            -5.1022523641586304e-01 6.6150301694869995e-01</leafValues></_>
        <_>
          <internalNodes>
            0 -1 230 -908068009 -671170715 -65551 -1833779204 -554172427
            -34803203 -285933600 -1146583920</internalNodes>
          <leafValues>
            -4.6394211053848267e-01 6.1408150196075439e-01</leafValues></_>
        <_>
          <internalNodes>
            0 -1 117 -637478799 -753741547 33558551 84344917 696767
            -1959567153 456147339 118178335</internalNodes>
          <leafValues>
            -5.5308181047439575e-01 5.6418460607528687e-01</leafValues></_>
        <_>
          <internalNodes>
            0 -1 222 700606259 1004149474 -1727981349 -552266736
            783040890 -1395998584 -1953766145 -810852677</internalNodes>
          <leafValues>
            -5.2289623022079468e-01 5.5122792720794678e-01</leafValues></_>
        <_>
          <internalNodes>
            0 -1 207 -170923360 1922200580 1409566848 1385701600
            -930903916 -108855294 -668235508 -257965258</internalNodes>
          <leafValues>
            -5.8906912803649902e-01 4.6055257320404053e-01</leafValues></_>
        <_>
          <internalNodes>
            0 -1 72 -1056780125 1359946001 1090552077 117768192
            -2138570561 -1996472319 -1593110773 2072770634</internalNodes>
          <leafValues>
            -5.6078082323074341e-01 5.1835495233535767e-01</leafValues></_>
        <_>
          <internalNodes>
            0 -1 191 -1038595024 -140844879 -599637991 -686224480
            -1442310032 -1441824630 -392066384 -1964037461</internalNodes>
          <leafValues>
            -5.6940531730651855e-01 5.3764820098876953e-01</leafValues></_></weakClassifiers></_>
    <!-- stage 2 -->
    <_>
      <maxWeakCount>7</maxWeakCount>
      <stageThreshold>-1.3306179046630859e+00</stageThreshold>
      <weakClassifiers>
        <_>
          <internalNodes>
            0 -1 192 2624512 -521617632 -554778636 -1059280044
            -151595404 -856365577 -4931628 -990857360</internalNodes>
          <leafValues>
            -5.1534736156463623e-01 7.5758957862854004e-01</leafValues></_>
        <_>
          <internalNodes>
            0 -1 8 -800260402 -246743316 -871699126 -103645497 268483246
            272791030 390543 1868560299</internalNodes>
          <leafValues>
            -4.9366867542266846e-01 6.2897574901580811e-01</leafValues></_>
        <_>
          <internalNodes>
            0 -1 245 -687867624 -556232057 856803611 -24858488
            -1551725996 -57835510 -1450581552 -1147879856</internalNodes>
          <leafValues>
            -5.9770464897155762e-01 4.8772230744361877e-01</leafValues></_>
        <_>
          <internalNodes>
            0 -1 241 45744419 -1315045118 677709211 -2003087284
            -257925701 -1467875199 -1054828385 -1682224934</internalNodes>
          <leafValues>
            -5.5529904365539551e-01 4.6218785643577576e-01</leafValues></_>
        <_>
          <internalNodes>
            0 -1 108 -771635149 -779923047 19137285 319097365 1342734515
            -16121723 -334975681 2133831551</internalNodes>
          <leafValues>
            -5.3827410936355591e-01 5.2159589529037476e-01</leafValues></_>
        <_>
          <internalNodes>
            0 -1 29 -595556214 -607315108 276833411 519934209
            -2130016082 -1458372447 -934606133 157492078</internalNodes>
          <leafValues>
            -5.0332349538803101e-01 5.0535827875137329e-01</leafValues></_>
        <_>
          <internalNodes>
            0 -1 128 781479428 -615508985 -331114051 -551728369
            -939325014 1920811137 -1417442392 -241961813</internalNodes>
          <leafValues>
            -5.2258193492889404e-01 4.6995848417282104e-01</leafValues></_></weakClassifiers></_>
    <!-- stage 3 -->
    <_>
      <maxWeakCount>10</maxWeakCount>
      <stageThreshold>-5.3424119949340820e-01</stageThreshold>
      <weakClassifiers>
        <_>
          <internalNodes>
            0 -1 17 -247138624 1363174562 -587924004 -790960544
            1344311432 12672 -705560581 2144075707</internalNodes>
          <leafValues>
            -2.0700308680534363e-01 7.9448992013931274e-01</leafValues></_>
        <_>
          <internalNodes>
            0 -1 162 1288571936 -1083232257 -49443 993988223 -989958191
            -2056442794 -134418444 -1749289166</internalNodes>
          <leafValues>
            -3.7300607562065125e-01 6.0138827562332153e-01</leafValues></_>
        <_>
          <internalNodes>
            0 -1 260 -134218249 -234957650 -276873266 -37831492 -2693132
            -1042817067 -336602892 -2116512620</internalNodes>
          <leafValues>
            -4.3897536396980286e-01 5.3621345758438110e-01</leafValues></_>
        <_>
          <internalNodes>
            0 -1 30 -632565112 1377937448 -1744824315 -777415540
            -1039760977 312152183 -805205857 -637286069</internalNodes>
          <leafValues>
            -4.8648348450660706e-01 4.9958199262619019e-01</leafValues></_>
        <_>
          <internalNodes>
            0 -1 62 -326376746 -228055812 -2132802318 -227513096
            -1931556626 -1258530817 -1465367336 -240482581</internalNodes>
          <leafValues>
            -4.0653309226036072e-01 5.6292414665222168e-01</leafValues></_>
        <_>
          <internalNodes>
            0 -1 222 169492227 319160908 -921562862 -620134262
            -1433796578 -1987573632 -1568566613 -1951702582</internalNodes>
          <leafValues>
            -6.1334502696990967e-01 3.6396732926368713e-01</leafValues></_>
        <_>
          <internalNodes>
            0 -1 75 -793513805 1362830259 87304876 1501234802 1141105593
            -285751321 356755101 -567023913</internalNodes>
          <leafValues>
            -3.7182608246803284e-01 6.2798666954040527e-01</leafValues></_>
        <_>
          <internalNodes>
            0 -1 92 -829525860 -908935022 1493438896 -1851938502
            -87777096 151019649 -1435772278 -779151626</internalNodes>
          <leafValues>
            -4.7604453563690186e-01 4.8159605264663696e-01</leafValues></_>
        <_>
          <internalNodes>
            0 -1 37 -454105526 -1213562746 1079118864 -2051144925
            -1966947967 -926416632 -1071570254 -872942945</internalNodes>
          <leafValues>
            -4.9391186237335205e-01 4.6808743476867676e-01</leafValues></_>
        <_>
          <internalNodes>
            0 -1 184 -1902476452 -757710767 352322388 -1862055936
            -1861451208 -528449528 -1819672296 -2012340176</internalNodes>
          <leafValues>
            -5.5107027292251587e-01 4.3201333284378052e-01</leafValues></_></weakClassifiers></_>
    <!-- stage 4 -->
    <_>
      <maxWeakCount>11</maxWeakCount>
      <stageThreshold>-1.4315376281738281e+00</stageThreshold>
      <weakClassifiers>
        <_>
          <internalNodes>
            0 -1 190 1120976896 639805220 1686093375 1191415603
            -134881451 -1099563019 1719140343 -2144235977</internalNodes>
          <leafValues>
            -3.5759493708610535e-01 7.3855310678482056e-01</leafValues></_>
        <_>
          <internalNodes>
            0 -1 131 -353440523 -159482001 -16843276 -324241988
            -461449254 -897843235 1474223536 -257886552</internalNodes>
          <leafValues>
            -4.1905319690704346e-01 5.5722475051879883e-01</leafValues></_>
        <_>
          <internalNodes>
            0 -1 3 1074719982 -112931400 -2147450009 -821699759
            1141944459 369860751 -1022291813 1969747887</internalNodes>
          <leafValues>
            -5.4481536149978638e-01 4.1953292489051819e-01</leafValues></_>
        <_>
          <internalNodes>
            0 -1 115 1895863825 -788295469 1560315229 287113481
            -1859059303 -1185918820 -2031777093 1329136503</internalNodes>
          <leafValues>
            -5.3897786140441895e-01 4.0059375762939453e-01</leafValues></_>
        <_>
          <internalNodes>
            0 -1 230 1624017297 -222134248 1364197887 -1925053808
            -629100384 -1416593269 -1814848780 -105361180</internalNodes>
          <leafValues>
            -5.1796340942382812e-01 4.2541509866714478e-01</leafValues></_>
        <_>
          <internalNodes>
            0 -1 51 1384247475 286916618 22056077 34669115 268686832
            -1658746725 369108408 -18359745</internalNodes>
          <leafValues>
            -4.2212840914726257e-01 4.8923355340957642e-01</leafValues></_>
        <_>
          <internalNodes>
            0 -1 239 -360053514 1478113431 318803410 -1423810406
            964888811 -903792500 -370605942 -1967447925</internalNodes>
          <leafValues>
            -4.5678007602691650e-01 4.4826596975326538e-01</leafValues></_>
        <_>
          <internalNodes>
            0 -1 228 -1374813936 -866208893 25403443 1997727888
            -259806672 -576485367 -393104476 -341116776</internalNodes>
          <leafValues>
            -5.7109332084655762e-01 3.6141267418861389e-01</leafValues></_>
        <_>
          <internalNodes>
            0 -1 258 -558446540 -531468265 -2138764739 -1433366336
            -804283595 -1694399964 -1832473928 -894910204</internalNodes>
          <leafValues>
            -5.4134899377822876e-01 3.8951927423477173e-01</leafValues></_>
        <_>
          <internalNodes>
            0 -1 191 -1568535739 -451870555 -1324924747 -650444534
            -655750432 -268271602 -904294368 -1492966781</internalNodes>
          <leafValues>
            -5.1954042911529541e-01 4.2458701133728027e-01</leafValues></_>
        <_>
          <internalNodes>
            0 -1 76 1090905114 1360217883 -1853798951 420564993 16842793
            -527396688 1319603630 -843416721</internalNodes>
          <leafValues>
            -4.8674517869949341e-01 4.4115149974822998e-01</leafValues></_></weakClassifiers></_>
    <!-- stage 5 -->
    <_>
      <maxWeakCount>11</maxWeakCount>
      <stageThreshold>-1.1071342229843140e+00</stageThreshold>
      <weakClassifiers>
        <_>
          <internalNodes>
            0 -1 226 774636560 708361400 -16877777 -109459207 909475637
            -1073942546 1065316213 -1456273349</internalNodes>
          <leafValues>
            -2.2561863064765930e-01 7.3150938749313354e-01</leafValues></_>
        <_>
          <internalNodes>
            0 -1 202 -747650816 1447141378 2122019464 -408878519
            -51056384 -1678184531 -16920364 -706491397</internalNodes>
          <leafValues>
            -3.9402341842651367e-01 5.2964860200881958e-01</leafValues></_>
        <_>
          <internalNodes>
            0 -1 229 -389353157 1582989339 -779970535 -770567671
            -1431715660 -662650869 -148577632 -1247629420</internalNodes>
          <leafValues>
            -4.6666425466537476e-01 4.1800114512443542e-01</leafValues></_>
        <_>
          <internalNodes>
            0 -1 84 -97408975 -799307433 -1425997805 -653811709
            -2011977297 -664858612 1092915359 1460867163</internalNodes>
          <leafValues>
            -4.4870242476463318e-01 4.5718774199485779e-01</leafValues></_>
        <_>
          <internalNodes>
            0 -1 40 -823464242 -414777216 -1803398178 1695097943
            -1041693206 868480 -239352374 -2054193053</internalNodes>
          <leafValues>
            -5.2832084894180298e-01 3.5267534852027893e-01</leafValues></_>
        <_>
          <internalNodes>
            0 -1 45 1353024640 -1279098107 -871852302 -1781419759
            -666069761 1384171648 516922047 31418194</internalNodes>
          <leafValues>
            -5.0909262895584106e-01 3.6102455854415894e-01</leafValues></_>
        <_>
          <internalNodes>
            0 -1 141 -788274245 -2051949151 -1805136487 -244206490
            739935471 -839016971 -1640345763 -42477802</internalNodes>
          <leafValues>
            -3.5267958045005798e-01 5.9084814786911011e-01</leafValues></_>
        <_>
          <internalNodes>
            0 -1 215 1499566585 813677307 -1569533769 954049278
            -1937404739 -629327985 1308905144 -1467111797</internalNodes>
          <leafValues>
            -3.2582098245620728e-01 6.0072547197341919e-01</leafValues></_>
        <_>
          <internalNodes>
            0 -1 189 -1068891716 -1340469241 -1073720227 -82493434
            549519423 -1433665524 -1188781345 -1967404534</internalNodes>
          <leafValues>
            -4.2654648423194885e-01 4.7027489542961121e-01</leafValues></_>
        <_>
          <internalNodes>
            0 -1 8 -800262726 -1337277796 285869088 -210022365 541473607
            1359480475 1610969354 2141143626</internalNodes>
          <leafValues>
            -5.3713113069534302e-01 3.6353960633277893e-01</leafValues></_>
        <_>
          <internalNodes>
            0 -1 130 891263192 2041053824 38868440 -1819179438 269197499
            -1458863992 -1601959752 36001314</internalNodes>
          <leafValues>
            -5.7238030433654785e-01 3.5654902458190918e-01</leafValues></_></weakClassifiers></_>
    <!-- stage 6 -->
    <_>
      <maxWeakCount>13</maxWeakCount>
      <stageThreshold>-1.3322730064392090e+00</stageThreshold>
      <weakClassifiers>
        <_>
          <internalNodes>
            0 -1 93 -2132349720 -2131956260 -286468368 -258932994
            -2001671946 -864616581 75252944 -1062670412</internalNodes>
          <leafValues>
            -1.2313003093004227e-01 7.5211811065673828e-01</leafValues></_>
        <_>
          <internalNodes>
            0 -1 196 -1024870401 -385957910 -687931649 -226820482
            -50337825 -167891109 -168364548 -68093764</internalNodes>
          <leafValues>
            -2.7905055880546570e-01 5.7321727275848389e-01</leafValues></_>
        <_>
          <internalNodes>
            0 -1 80 -118570789 -237785890 17171215 1359979327 -62093057
            -1329627155 -13685873 -61886753</internalNodes>
          <leafValues>
            -2.7773621678352356e-01 6.4566981792449951e-01</leafValues></_>
        <_>
          <internalNodes>
            0 -1 263 -84676352 1519756578 16836865 -1862211582
            1254256993 -1978040038 -1049804798 -834418266</internalNodes>
          <leafValues>
            -4.2718237638473511e-01 4.1907125711441040e-01</leafValues></_>
        <_>
          <internalNodes>
            0 -1 149 -525075917 -860794965 -1048490183 -504236383
            -920841185 -284827713 -713038481 -171048969</internalNodes>
          <leafValues>
            -3.8012006878852844e-01 5.1854062080383301e-01</leafValues></_>
        <_>
          <internalNodes>
            0 -1 117 -213861635 2115990895 174135833 -1928918193
            -1978683713 -557842625 -2096930977 1169015631</internalNodes>
          <leafValues>
            -4.0443694591522217e-01 4.5347571372985840e-01</leafValues></_>
        <_>
          <internalNodes>
            0 -1 29 1371050122 -1185904785 270556315 -1114602342
            -1989305858 302305670 -58164997 674561722</internalNodes>
          <leafValues>
            -4.5112764835357666e-01 3.8958984613418579e-01</leafValues></_>
        <_>
          <internalNodes>
            0 -1 122 -785919103 -159028217 -1120788717 -752240917
            -637802515 -163086364 1138045837 -290717710</internalNodes>
          <leafValues>
            -3.0636051297187805e-01 6.0133898258209229e-01</leafValues></_>
        <_>
          <internalNodes>
            0 -1 166 -319842733 1518092126 -65672 -1136984259
            -1084297260 -822612865 -18692 -1141199122</internalNodes>
          <leafValues>
            -3.5072177648544312e-01 4.9195048213005066e-01</leafValues></_>
        <_>
          <internalNodes>
            0 -1 243 -292809724 -374693884 -800337895 1064876244
            1213210979 -1332703232 -1969290599 -2100455317</internalNodes>
          <leafValues>
            -5.1167899370193481e-01 3.7511530518531799e-01</leafValues></_>
        <_>
          <internalNodes>
            0 -1 286 -96013804 2140798976 1107825168 -514682408
            -2147164032 -123232248 -1206062984 -933232640</internalNodes>
          <leafValues>
            -5.1380562782287598e-01 3.5416015982627869e-01</leafValues></_>
        <_>
          <internalNodes>
            0 -1 34 1244374030 -1865766220 50332169 -1417608905 55222319
            -1709373309 814809136 -145512561</internalNodes>
          <leafValues>
            -5.0917488336563110e-01 3.7089872360229492e-01</leafValues></_>
        <_>
          <internalNodes>
            0 -1 156 1246034687 -1282060154 735277937 373022050
            -1243516759 -1747976724 -2080235299 -1534353496</internalNodes>
          <leafValues>
            -3.4252014756202698e-01 5.5734473466873169e-01</leafValues></_></weakClassifiers></_>
    <!-- stage 7 -->
    <_>
      <maxWeakCount>13</maxWeakCount>
      <stageThreshold>-5.5732876062393188e-01</stageThreshold>
      <weakClassifiers>
        <_>
          <internalNodes>
            0 -1 188 720243732 -1346388941 -16777225 1044065328
            1325400052 -318787593 2122219517 -2135446217</internalNodes>
          <leafValues>
            -1.7006802558898926e-01 7.3270809650421143e-01</leafValues></_>
        <_>
          <internalNodes>
            0 -1 6 -905000274 -2144557330 -919658269 -1355838276
            1347076515 436168174 1594835022 -280509246</internalNodes>
          <leafValues>
            -3.7977439165115356e-01 4.7942438721656799e-01</leafValues></_>
        <_>
          <internalNodes>
            0 -1 208 -767901512 -2105409342 1367359637 -158449660
            -133586816 -1717026527 -2121096288 -1602189116</internalNodes>
          <leafValues>
            -4.6400332450866699e-01 3.7634494900703430e-01</leafValues></_>
        <_>
          <internalNodes>
            0 -1 35 -758197632 -799432203 -855041785 -117202869
            -1043779089 -1844896648 -2003922262 -16541271</internalNodes>
          <leafValues>
            -4.2957317829132080e-01 4.1265818476676941e-01</leafValues></_>
        <_>
          <internalNodes>
            0 -1 183 1514074366 1394029093 -783806241 -1717596093
            134887903 696401920 1074407914 163203709</internalNodes>
          <leafValues>
            -5.0789850950241089e-01 3.5373365879058838e-01</leafValues></_>
        <_>
          <internalNodes>
            0 -1 209 1107804917 1352687955 -1002355849 504591 -754964549
            -633012152 1644769675 -1708148585</internalNodes>
          <leafValues>
            -4.3678838014602661e-01 4.3796071410179138e-01</leafValues></_>
        <_>
          <internalNodes>
            0 -1 255 -1372975565 -970047454 1192448347 -738324952
            -1098973442 -819953869 -973257286 -743846758</internalNodes>
          <leafValues>
            -3.6776080727577209e-01 4.7502115368843079e-01</leafValues></_>
        <_>
          <internalNodes>
            0 -1 96 -378541345 -722052739 -26771855 -244834454
            1610587896 444430110 -1076058181 -80045654</internalNodes>
          <leafValues>
            -3.1036135554313660e-01 6.0043793916702271e-01</leafValues></_>
        <_>
          <internalNodes>
            0 -1 82 -681071887 -709107589 1719075517 1509904679
            355985339 -1656793155 1299166142 -643303653</internalNodes>
          <leafValues>
            -2.8967925906181335e-01 5.9902745485305786e-01</leafValues></_>
        <_>
          <internalNodes>
            0 -1 210 -359151317 -516716119 1958143763 -1758155457
            -964851798 1718058837 -713701763 -1356741369</internalNodes>
          <leafValues>
            -3.1286272406578064e-01 5.5019408464431763e-01</leafValues></_>
        <_>
          <internalNodes>
            0 -1 152 -746419831 -1725261910 1559674681 -33119574
            1156746424 -1437450314 -721795863 -336976246</internalNodes>
          <leafValues>
            -3.0875802040100098e-01 5.5499446392059326e-01</leafValues></_>
        <_>
          <internalNodes>
            0 -1 129 1090298102 -1864626037 268698076 -1661722340
            -522026333 -393607142 1937932476 -340090676</internalNodes>
          <leafValues>
            -4.4854125380516052e-01 4.0760505199432373e-01</leafValues></_>
        <_>
          <internalNodes>
            0 -1 261 -227028478 1379134446 -268775629 439003152
            2101300259 1988099965 -361638417 -937298701</internalNodes>
          <leafValues>
            -3.8751658797264099e-01 4.7106760740280151e-01</leafValues></_></weakClassifiers></_>
    <!-- stage 8 -->
    <_>
      <maxWeakCount>12</maxWeakCount>
      <stageThreshold>-1.1978920698165894e+00</stageThreshold>
      <weakClassifiers>
        <_>
          <internalNodes>
            0 -1 40 -1068833142 1078871144 -298135816 -511052113
            1088618634 71507456 -406958088 22254687</internalNodes>
          <leafValues>
            -1.6493313014507294e-01 7.1897387504577637e-01</leafValues></_>
        <_>
          <internalNodes>
            0 -1 87 -266219262 -235718032 -2039021470 -797112238
            -2132570079 846531857 302482505 -732694413</internalNodes>
          <leafValues>
            -3.4796544909477234e-01 5.2450841665267944e-01</leafValues></_>
        <_>
          <internalNodes>
            0 -1 5 -720899122 -941923433 1309605828 2001730572
            1396748498 4707351 -1153183057 995833203</internalNodes>
          <leafValues>
            -4.2014530301094055e-01 4.3755927681922913e-01</leafValues></_>
        <_>
          <internalNodes>
            0 -1 289 -230845184 -750824436 -99483888 -754239982
            -1573879632 201936848 -223021944 -645683620</internalNodes>
          <leafValues>
            -3.3018225431442261e-01 5.1131123304367065e-01</leafValues></_>
        <_>
          <internalNodes>
            0 -1 182 -624130018 -159252474 -971698080 -624815088
            -1475706484 -1207959552 -2004649112 -610393550</internalNodes>
          <leafValues>
            -4.3871662020683289e-01 3.9414894580841064e-01</leafValues></_>
        <_>
          <internalNodes>
            0 -1 113 -1073487353 -1072553307 -2145384384 -788414125
            555336712 1376323625 -620711785 -577250665</internalNodes>
          <leafValues>
            -4.5963764190673828e-01 4.0280660986900330e-01</leafValues></_>
        <_>
          <internalNodes>
            0 -1 280 1578618931 254823998 -1417762272 -1520047519
            1573876972 930117344 83954824 162251947</internalNodes>
          <leafValues>
            -4.0360805392265320e-01 4.4984883069992065e-01</leafValues></_>
        <_>
          <internalNodes>
            0 -1 164 -1606238110 -419790840 -803071792 -50560960
            1611270672 -934936576 -1043681128 -676667166</internalNodes>
          <leafValues>
            -5.1960241794586182e-01 3.4135642647743225e-01</leafValues></_>
        <_>
          <internalNodes>
            0 -1 21 -536426272 -715947964 -268411188 1671432656
            -1601650288 -2112880640 -1584662589 -450950645</internalNodes>
          <leafValues>
            -4.7534736990928650e-01 3.8674667477607727e-01</leafValues></_>
        <_>
          <internalNodes>
            0 -1 285 -693634128 -1172184028 720904800 -685086156
            -105872932 1824403254 -1796426584 -640965112</internalNodes>
          <leafValues>
            -3.6881199479103088e-01 5.1428669691085815e-01</leafValues></_>
        <_>
          <internalNodes>
            0 -1 36 1958985959 -782389505 571081512 1359933199
            1485636992 -1377871977 -1202745473 1917736669</internalNodes>
          <leafValues>
            -4.0625500679016113e-01 4.5958268642425537e-01</leafValues></_>
        <_>
          <internalNodes>
            0 -1 240 -736902972 1902848642 1118315177 1156343544
            -784610421 -558158017 -1171050328 -80753985</internalNodes>
          <leafValues>
            -3.4215503931045532e-01 5.5620557069778442e-01</leafValues></_></weakClassifiers></_>
    <!-- stage 9 -->
    <_>
      <maxWeakCount>13</maxWeakCount>
      <stageThreshold>-1.1537264585494995e+00</stageThreshold>
      <weakClassifiers>
        <_>
          <internalNodes>
            0 -1 161 72745476 1512619819 1702227755 -1791937789
            -268961968 1793519607 -269090820 3524023</internalNodes>
          <leafValues>
            -2.8256511688232422e-01 6.9784492254257202e-01</leafValues></_>
        <_>
          <internalNodes>
            0 -1 48 -256838416 -776839376 681820194 289085969 -744841985
            754390869 -1896887106 2113897811</internalNodes>
          <leafValues>
            -2.7964967489242554e-01 5.5254667997360229e-01</leafValues></_>
        <_>
          <internalNodes>
            0 -1 207 -693381248 -234249469 -1877700440 1938027015
            -666115903 -1056899071 -400311931 -236468249</internalNodes>
          <leafValues>
            -4.4625431299209595e-01 3.7513667345046997e-01</leafValues></_>
        <_>
          <internalNodes>
            0 -1 47 1359184643 269301379 -2009199041 227618419
            1426560019 -109101705 1429466507 -212336870</internalNodes>
          <leafValues>
            -3.3351838588714600e-01 4.8564311861991882e-01</leafValues></_>
        <_>
          <internalNodes>
            0 -1 168 1490942175 -89100417 243072991 -149262966
            -679557238 -772866397 -529030166 -1683313686</internalNodes>
          <leafValues>
            -2.6473501324653625e-01 5.7606017589569092e-01</leafValues></_>
        <_>
          <internalNodes>
            0 -1 269 -219758454 -259791246 816318504 1899440747
            -936653432 -1133451788 -2002354040 -930108213</internalNodes>
          <leafValues>
            -3.0062699317932129e-01 5.4114311933517456e-01</leafValues></_>
        <_>
          <internalNodes>
            0 -1 120 -64476453 -47239666 -1987563759 -2049751212
            747307235 -200339473 164104381 -988991921</internalNodes>
          <leafValues>
            -3.5828772187232971e-01 4.4418379664421082e-01</leafValues></_>
        <_>
          <internalNodes>
            0 -1 110 437768369 -586870502 25168013 860315659 -1861712988
            -1154940160 -363920369 1376207847</internalNodes>
          <leafValues>
            -4.4737955927848816e-01 3.8572153449058533e-01</leafValues></_>
        <_>
          <internalNodes>
            0 -1 257 -972942848 -1839955964 -897548007 -1181056448
            -2138423155 -2013069272 -2004201317 -2080419830</internalNodes>
          <leafValues>
            -4.6458443999290466e-01 3.6007013916969299e-01</leafValues></_>
        <_>
          <internalNodes>
            0 -1 19 -63561105 1928477550 1042294640 -785369462
            2132753891 -809533450 2086078315 -104636353</internalNodes>
          <leafValues>
            -3.6159747838973999e-01 4.8431324958801270e-01</leafValues></_>
        <_>
          <internalNodes>
            0 -1 55 -689264498 -87390486 -889386755 -2023064324
            -1007116134 -536993516 -940064100 -1887714150</internalNodes>
          <leafValues>
            -3.3617252111434937e-01 4.9002531170845032e-01</leafValues></_>
        <_>
          <internalNodes>
            0 -1 102 -893067135 302825510 69648 1475122003 865763752
            1116373000 -266475214 -416550795</internalNodes>
          <leafValues>
            -4.1415306925773621e-01 4.0012711286544800e-01</leafValues></_>
        <_>
          <internalNodes>
            0 -1 151 832696459 -777786847 -1413460416 -53756178
            -1814065918 -2095642797 -809767137 -1213923361</internalNodes>
          <leafValues>
            -3.4413802623748779e-01 4.8500847816467285e-01</leafValues></_></weakClassifiers></_>
    <!-- stage 10 -->
    <_>
      <maxWeakCount>12</maxWeakCount>
      <stageThreshold>-1.1229984760284424e+00</stageThreshold>
      <weakClassifiers>
        <_>
          <internalNodes>
            0 -1 246 2147418008 2058419762 -1275404430 -2032480710
            -270551584 -1208582923 -161872 -2136997840</internalNodes>
          <leafValues>
            -5.1591657102108002e-02 7.4516999721527100e-01</leafValues></_>
        <_>
          <internalNodes>
            0 -1 192 146309664 -153452317 827473968 -388988879
            -375187296 -2122219390 -273121112 -136124288</internalNodes>
          <leafValues>
            -4.1152346134185791e-01 4.2063251137733459e-01</leafValues></_>
        <_>
          <internalNodes>
            0 -1 162 -863485088 -1621686256 -1842051815 923336719
            -502845377 -1417510872 -880680800 -984903541</internalNodes>
          <leafValues>
            -4.1647207736968994e-01 3.6861476302146912e-01</leafValues></_>
        <_>
          <internalNodes>
            0 -1 28 -711259768 -103800745 -2012214499 -1893742847
            -1625775369 -1187384133 -375805569 1170572193</internalNodes>
          <leafValues>
            -4.0902778506278992e-01 3.9546251296997070e-01</leafValues></_>
        <_>
          <internalNodes>
            0 -1 276 -1404026880 -1198391230 1629782305 -1647835120
            -1299332657 -1307893759 -355743591 -1087913807</internalNodes>
          <leafValues>
            -4.3019655346870422e-01 3.7232035398483276e-01</leafValues></_>
        <_>
          <internalNodes>
            0 -1 83 -771704435 -782574737 -2111565411 388960927
            -888282129 -73458241 -2046648401 -68430387</internalNodes>
          <leafValues>
            -3.5082748532295227e-01 4.8690906167030334e-01</leafValues></_>
        <_>
          <internalNodes>
            0 -1 218 -357683717 -104935458 -1141211395 -239714305
            -1912857110 406175226 -1628004437 -2119352957</internalNodes>
          <leafValues>
            -3.4728974103927612e-01 4.8568806052207947e-01</leafValues></_>
        <_>
          <internalNodes>
            0 -1 253 -712015448 -156883422 -1409554888 -1264021786
            -33312600 438582840 -1331156824 -2098614647</internalNodes>
          <leafValues>
            -3.7044849991798401e-01 4.5936331152915955e-01</leafValues></_>
        <_>
          <internalNodes>
            0 -1 222 -1366657653 60469314 806617232 -1660583936
            -2142625751 -393838336 -1723099413 -1685380338</internalNodes>
          <leafValues>
            -4.6866393089294434e-01 3.7396723031997681e-01</leafValues></_>
        <_>
          <internalNodes>
            0 -1 256 -239287276 -1283424208 1098940672 -1812483006
            -702185334 8421419 75731082 -448714745</internalNodes>
          <leafValues>
            -5.2037918567657471e-01 3.4971198439598083e-01</leafValues></_>
        <_>
          <internalNodes>
            0 -1 182 1605159657 -260247874 -1614843908 -33882614
            -545354607 -168547088 -1409603934 -27052278</internalNodes>
          <leafValues>
            -3.4181872010231018e-01 5.5018126964569092e-01</leafValues></_>
        <_>
          <internalNodes>
            0 -1 239 -2002089220 -593319384 385236272 -1615157526
            615880696 -1984086791 -1317981701 -1212992630</internalNodes>
          <leafValues>
            -3.9991477131843567e-01 4.8850315809249878e-01</leafValues></_></weakClassifiers></_>
    <!-- stage 11 -->
    <_>
      <maxWeakCount>14</maxWeakCount>
      <stageThreshold>-5.2901083230972290e-01</stageThreshold>
      <weakClassifiers>
        <_>
          <internalNodes>
            0 -1 228 201852416 -1799430222 -285278346 1994178556 -65676
            -176914434 -1367933068 -2135913100</internalNodes>
          <leafValues>
            -1.8909090757369995e-01 6.9752806425094604e-01</leafValues></_>
        <_>
          <internalNodes>
            0 -1 150 -2012702126 -996549423 134547502 -666091431
            -1056329048 -1700790272 134810143 1042106459</internalNodes>
          <leafValues>
            -3.8871371746063232e-01 4.1847497224807739e-01</leafValues></_>
        <_>
          <internalNodes>
            0 -1 95 17095132 407244800 184621304 1033199892 42082555
            8815120 805325788 819265696</internalNodes>
          <leafValues>
            -5.2511650323867798e-01 2.8661897778511047e-01</leafValues></_>
        <_>
          <internalNodes>
            0 -1 75 -786173183 980627491 363170029 1597705571 127483
            -1896642585 495036063 -662727293</internalNodes>
          <leafValues>
            -3.6459577083587646e-01 4.1245764493942261e-01</leafValues></_>
        <_>
          <internalNodes>
            0 -1 227 -1154221330 2038497292 554228464 655855775
            -1333010252 696789000 -1999529032 855861010</internalNodes>
          <leafValues>
            -4.3956416845321655e-01 3.5332101583480835e-01</leafValues></_>
        <_>
          <internalNodes>
            0 -1 74 -477388784 -611934622 654204004 -761250424
            -1533042560 6485938 -1120563064 -38857070</internalNodes>
          <leafValues>
            -3.3880442380905151e-01 4.7228017449378967e-01</leafValues></_>
        <_>
          <internalNodes>
            0 -1 68 -1315594110 -1315208433 -1994882862 -1076537195
            -1358874369 -2097151592 -1348343062 612172359</internalNodes>
          <leafValues>
            -4.4240105152130127e-01 3.5730710625648499e-01</leafValues></_>
        <_>
          <internalNodes>
            0 -1 267 -647051240 2012350704 -462885500 -141908960
            -2085310288 1945532080 -1561820984 -357849921</internalNodes>
          <leafValues>
            -2.9821404814720154e-01 5.2413624525070190e-01</leafValues></_>
        <_>
          <internalNodes>
            0 -1 182 -4543778 -1142378890 -1078038798 -684179696
            -4735783 -840464 -604297568 -274901742</internalNodes>
          <leafValues>
            -3.0134016275405884e-01 4.9776491522789001e-01</leafValues></_>
        <_>
          <internalNodes>
            0 -1 155 -755319087 -134832344 1659362893 -34325326
            -1157755739 28642675 -1423040258 -30719797</internalNodes>
          <leafValues>
            -2.9706624150276184e-01 5.2985608577728271e-01</leafValues></_>
        <_>
          <internalNodes>
            0 -1 163 1716447008 -655334990 -519503615 1931333977
            2038505844 847909064 -1577024896 -1817476982</internalNodes>
          <leafValues>
            -5.7954019308090210e-01 2.8691837191581726e-01</leafValues></_>
        <_>
          <internalNodes>
            0 -1 72 -612109827 -227787169 262848455 1449523933
            -796673289 -769923589 1059762143 2000223738</internalNodes>
          <leafValues>
            -3.1501957774162292e-01 5.5486679077148438e-01</leafValues></_>
        <_>
          <internalNodes>
            0 -1 194 1109041360 1179947025 -2097143378 1579974812
            -1588363131 -1844445042 -1819055488 -1850566000</internalNodes>
          <leafValues>
            -5.8531558513641357e-01 3.0971434712409973e-01</leafValues></_>
        <_>
          <internalNodes>
            0 -1 123 -353334784 1941205802 -1133570383 -136237006
            -1901296962 594618197 -2030157926 -1784970718</internalNodes>
          <leafValues>
            -3.6845076084136963e-01 4.6074721217155457e-01</leafValues></_></weakClassifiers></_>
    <!-- stage 12 -->
    <_>
      <maxWeakCount>13</maxWeakCount>
      <stageThreshold>-6.8098747730255127e-01</stageThreshold>
      <weakClassifiers>
        <_>
          <internalNodes>
            0 -1 259 -990970112 -689506254 -1342313047 -823218502
            -1728285360 -285737612 -67717628 -1535076336</internalNodes>
          <leafValues>
            -1.4211885631084442e-01 7.3592048883438110e-01</leafValues></_>
        <_>
          <internalNodes>
            0 -1 64 -353698870 -935691586 -326437382 -765957210
            -1057573397 16678901 -2137283110 -256200166</internalNodes>
          <leafValues>
            -3.3166038990020752e-01 5.1612824201583862e-01</leafValues></_>
        <_>
          <internalNodes>
            0 -1 54 -803549183 -1870453873 -888760048 -217120611
            -2000162801 1485656330 -793126443 -879261445</internalNodes>
          <leafValues>
            -3.9101123809814453e-01 4.0051835775375366e-01</leafValues></_>
        <_>
          <internalNodes>
            0 -1 91 1620705914 -1794291512 -258715202 1594982681
            -1031074022 -2137505791 -125814552 -945036648</internalNodes>
          <leafValues>
            -4.0330386161804199e-01 3.6279806494712830e-01</leafValues></_>
        <_>
          <internalNodes>
            0 -1 267 -119226358 -143103961 610298957 -1560136644
            -784572288 490092348 -398036864 -1328890697</internalNodes>
          <leafValues>
            -3.7421029806137085e-01 4.0591356158256531e-01</leafValues></_>
        <_>
          <internalNodes>
            0 -1 272 -78133246 -203245051 2012014884 1532195615
            -2056730981 -231827666 -1502365302 -276828773</internalNodes>
          <leafValues>
            -3.2024502754211426e-01 5.2576082944869995e-01</leafValues></_>
        <_>
          <internalNodes>
            0 -1 139 -900841408 -930889395 -555328254 -846954349
            -522698749 1812562061 -1459769333 -869349644</internalNodes>
          <leafValues>
            -4.6536663174629211e-01 3.5325369238853455e-01</leafValues></_>
        <_>
          <internalNodes>
            0 -1 167 1819029783 -352420737 -1930560257 -354223238
            -268634881 -461897731 -21845344 -202720630</internalNodes>
          <leafValues>
            -3.6933821439743042e-01 4.4333276152610779e-01</leafValues></_>
        <_>
          <internalNodes>
            0 -1 99 -1028943758 1970437949 410238589 -545473411
            1476355806 -62427654 -319312131 645196818</internalNodes>
          <leafValues>
            -3.7148040533065796e-01 4.1585171222686768e-01</leafValues></_>
        <_>
          <internalNodes>
            0 -1 237 -798164552 -261379468 -1440551238 1546583726
            -267603780 1010707710 -387138420 -64229873</internalNodes>
          <leafValues>
            -3.2583451271057129e-01 4.6315884590148926e-01</leafValues></_>
        <_>
          <internalNodes>
            0 -1 31 -721711985 -1948942203 -497024597 -1311407854
            1369706719 343945317 1008423601 -169451237</internalNodes>
          <leafValues>
            -4.1381254792213440e-01 4.0116176009178162e-01</leafValues></_>
        <_>
          <internalNodes>
            0 -1 90 -828372230 -706026114 -1091021812 -4293506 131016876
            -957550598 -924186652 -541392902</internalNodes>
          <leafValues>
            -3.5002398490905762e-01 4.3106344342231750e-01</leafValues></_>
        <_>
          <internalNodes>
            0 -1 224 -803520480 -223313382 -1735041956 829673815
            571097821 402653464 -594701941 -1962815336</internalNodes>
          <leafValues>
            -3.8973399996757507e-01 4.0946403145790100e-01</leafValues></_></weakClassifiers></_>
    <!-- stage 13 -->
    <_>
      <maxWeakCount>14</maxWeakCount>
      <stageThreshold>-9.5638871192932129e-01</stageThreshold>
      <weakClassifiers>
        <_>
          <internalNodes>
            0 -1 164 168692736 716749504 1593630416 -1361514636
            1339977556 -529209484 -151226444 -990331100</internalNodes>
          <leafValues>
            -3.4339621663093567e-01 7.1185684204101562e-01</leafValues></_>
        <_>
          <internalNodes>
            0 -1 94 -319105732 917810475 -553975944 -260374646
            1149026294 -395567319 -1653586476 -88544376</internalNodes>
          <leafValues>
            -3.7817251682281494e-01 4.9555653333663940e-01</leafValues></_>
        <_>
          <internalNodes>
            0 -1 232 1383308665 -1812156492 -813697041 -1584345412
            -515925559 -688590217 -1476671288 -1129656108</internalNodes>
          <leafValues>
            -3.5637402534484863e-01 4.5420661568641663e-01</leafValues></_>
        <_>
          <internalNodes>
            0 -1 284 -366698336 -687210446 -694148048 326689328
            -1017249606 -1418837378 -1784968023 -1107582896</internalNodes>
          <leafValues>
            -3.4299179911613464e-01 4.6114879846572876e-01</leafValues></_>
        <_>
          <internalNodes>
            0 -1 234 -360576975 -229883700 -1323282288 278413913
            -1744199296 -629046522 -1429548664 -1465337702</internalNodes>
          <leafValues>
            -3.8717797398567200e-01 4.1629263758659363e-01</leafValues></_>
        <_>
          <internalNodes>
            0 -1 111 -1608802000 1372592517 1142410649 285348021
            -2146202999 2013958346 -509418578 -242527665</internalNodes>
          <leafValues>
            -4.8099699616432190e-01 3.3968409895896912e-01</leafValues></_>
        <_>
          <internalNodes>
            0 -1 220 -796851738 -2113564634 -534573037 -494440427
            -2147442450 -1560182648 -520031816 -399790045</internalNodes>
          <leafValues>
            -4.2203265428543091e-01 4.2895156145095825e-01</leafValues></_>
        <_>
          <internalNodes>
            0 -1 222 -1355057301 -67191048 -67160648 -682263376
            -1426165898 -370249739 -1296107521 -5626069</internalNodes>
          <leafValues>
            -3.6863058805465698e-01 4.6073168516159058e-01</leafValues></_>
        <_>
          <internalNodes>
            0 -1 2 -2113191326 219349297 582041809 -70166775 -2096877374
            1395668416 427843697 1893889103</internalNodes>
          <leafValues>
            -5.3192532062530518e-01 3.2313191890716553e-01</leafValues></_>
        <_>
          <internalNodes>
            0 -1 78 1370616471 -779205428 -617939139 -777754635
            969506984 -87073985 385992137 -552241161</internalNodes>
          <leafValues>
            -3.2369869947433472e-01 5.4066699743270874e-01</leafValues></_>
        <_>
          <internalNodes>
            0 -1 208 -259865920 -928902638 1243744983 -288820800
            -1970296176 -91355134 -50288488 -1595111196</internalNodes>
          <leafValues>
            -4.2797178030014038e-01 4.1166266798973083e-01</leafValues></_>
        <_>
          <internalNodes>
            0 -1 155 -664638659 -214286752 586059759 -5526352
            -1409315394 -1322228368 -1968512773 -58556230</internalNodes>
          <leafValues>
            -3.0877691507339478e-01 6.3209533691406250e-01</leafValues></_>
        <_>
          <internalNodes>
            0 -1 114 -250952572 -236536282 2145543968 -215308536
            -244149118 -1320947397 -216358104 -149723749</internalNodes>
          <leafValues>
            -2.9311940073966980e-01 5.7606148719787598e-01</leafValues></_>
        <_>
          <internalNodes>
            0 -1 131 -353055446 2033942489 -16843266 -206375432
            -847256325 -2005204995 -16861766 -290816366</internalNodes>
          <leafValues>
            -3.4551760554313660e-01 5.0988870859146118e-01</leafValues></_></weakClassifiers></_>
    <!-- stage 14 -->
    <_>
      <maxWeakCount>16</maxWeakCount>
      <stageThreshold>-1.0662219524383545e+00</stageThreshold>
      <weakClassifiers>
        <_>
          <internalNodes>
            0 -1 245 -1895915984 780058110 -1108562632 143177468
            -12656812 -428491404 -1216348556 -1798273968</internalNodes>
          <leafValues>
            -2.2568807005882263e-01 7.0101010799407959e-01</leafValues></_>
        <_>
          <internalNodes>
            0 -1 16 1389225131 -237284449 -1571943921 -489954750
            1355901693 -761847867 -1227886665 -86385185</internalNodes>
          <leafValues>
            -2.0951770246028900e-01 5.5611556768417358e-01</leafValues></_>
        <_>
          <internalNodes>
            0 -1 133 -213387841 1922069295 -1946308997 2028997787
            2099966563 -1267271053 459917310 -1148537142</internalNodes>
          <leafValues>
            -2.7932259440422058e-01 5.1458793878555298e-01</leafValues></_>
        <_>
          <internalNodes>
            0 -1 41 -1032914213 -194117590 585755382 -799014910
            -1666480449 1943854691 26980507 -228442086</internalNodes>
          <leafValues>
            -3.4524354338645935e-01 4.0684533119201660e-01</leafValues></_>
        <_>
          <internalNodes>
            0 -1 157 -502043903 1270013313 54661143 -89958381 -832757721
            -1732521784 -388435214 -1058158389</internalNodes>
          <leafValues>
            -4.3780651688575745e-01 3.1704065203666687e-01</leafValues></_>
        <_>
          <internalNodes>
            0 -1 254 -905253760 1075036675 -2063065053 -889044189
            -1678176247 -1004838880 -1810013431 -212871009</internalNodes>
          <leafValues>
            -4.1989520192146301e-01 3.4599256515502930e-01</leafValues></_>
        <_>
          <internalNodes>
            0 -1 117 -627051851 -628471398 1301316371 -654311081
            -2145736147 -1180006211 -667815366 1258704969</internalNodes>
          <leafValues>
            -4.1857880353927612e-01 3.3484846353530884e-01</leafValues></_>
        <_>
          <internalNodes>
            0 -1 241 -1509022549 -493354696 151672266 -1966976930
            1477036168 -1475706744 -1029125941 -1278293797</internalNodes>
          <leafValues>
            -3.9479705691337585e-01 3.7674105167388916e-01</leafValues></_>
        <_>
          <internalNodes>
            0 -1 249 -601993136 1496317964 1611354136 2115146216
            -1567969208 1518469512 -805201664 -1190985718</internalNodes>
          <leafValues>
            -3.8875809311866760e-01 3.7582391500473022e-01</leafValues></_>
        <_>
          <internalNodes>
            0 -1 184 -625022852 -1837100712 -1878982315 -1862179776
            973537808 -1098250208 -1425968404 -1953627990</internalNodes>
          <leafValues>
            -4.0552422404289246e-01 3.6275655031204224e-01</leafValues></_>
        <_>
          <internalNodes>
            0 -1 220 2121990264 -100447125 443523711 -1941198613
            -1875730434 -97443985 -1054234446 -1171788901</internalNodes>
          <leafValues>
            -3.2414525747299194e-01 4.4295477867126465e-01</leafValues></_>
        <_>
          <internalNodes>
            0 -1 229 -2108026569 1122898203 822284565 1784152340
            402956848 1318125665 -207918640 -1146876768</internalNodes>
          <leafValues>
            -5.8612871170043945e-01 2.6335397362709045e-01</leafValues></_>
        <_>
          <internalNodes>
            0 -1 108 -666836343 -1064003234 1197533972 -650042023
            1285139589 -618983937 -1507934434 -150077450</internalNodes>
          <leafValues>
            -3.7224704027175903e-01 4.1469529271125793e-01</leafValues></_>
        <_>
          <internalNodes>
            0 -1 271 1949996430 -492035017 -1725263859 1796717108
            1861916552 212901884 -1601335128 -1997558871</internalNodes>
          <leafValues>
            -3.2973229885101318e-01 4.6558973193168640e-01</leafValues></_>
        <_>
          <internalNodes>
            0 -1 86 -2086218716 -986542550 536243403 -1661287778
            -2026453836 -2058904204 -1619656100 -546638833</internalNodes>
          <leafValues>
            -3.5406661033630371e-01 4.3877586722373962e-01</leafValues></_>
        <_>
          <internalNodes>
            0 -1 281 269480809 467896594 -2130706149 -283684340
            184582834 -502792056 -1610278703 -2132408128</internalNodes>
          <leafValues>
            -3.9825680851936340e-01 3.9538326859474182e-01</leafValues></_></weakClassifiers></_>
    <!-- stage 15 -->
    <_>
      <maxWeakCount>15</maxWeakCount>
      <stageThreshold>-1.3570758104324341e+00</stageThreshold>
      <weakClassifiers>
        <_>
          <internalNodes>
            0 -1 166 -1401125888 687226716 -16843014 -386744326
            -1352741180 1157031030 -16861228 -256367968</internalNodes>
          <leafValues>
            -1.1756934970617294e-01 7.2802263498306274e-01</leafValues></_>
        <_>
          <internalNodes>
            0 -1 129 41029120 -1529036528 -267763336 -17112956
            -2146948540 176685457 -74760060 -206554460</internalNodes>
          <leafValues>
            -4.7994694113731384e-01 3.7999022006988525e-01</leafValues></_>
        <_>
          <internalNodes>
            0 -1 197 -351034887 -690050075 -83994737 -1143444872
            -699625858 -1263404043 -403467108 -205872948</internalNodes>
          <leafValues>
            -3.1569081544876099e-01 4.8190560936927795e-01</leafValues></_>
        <_>
          <internalNodes>
            0 -1 56 1897003677 1462939893 -358186117 288977406 822198994
            -685815873 -2087862337 -12922377</internalNodes>
          <leafValues>
            -2.6892912387847900e-01 5.5445432662963867e-01</leafValues></_>
        <_>
          <internalNodes>
            0 -1 242 -1442916336 -1286952150 -1878294517 -1144017906
            -2134802263 -2088042365 -402226549 -1934851904</internalNodes>
          <leafValues>
            -5.5969208478927612e-01 2.5999268889427185e-01</leafValues></_>
        <_>
          <internalNodes>
            0 -1 248 -626334372 -234344908 -294083591 -469044522
            -273186752 1146358546 -1942569784 -1734435784</internalNodes>
          <leafValues>
            -3.2302677631378174e-01 4.7354906797409058e-01</leafValues></_>
        <_>
          <internalNodes>
            0 -1 290 -740044272 -744765856 -9856232 -179882843
            -2043444848 -1114168718 -133326456 -1042552672</internalNodes>
          <leafValues>
            -3.5608896613121033e-01 4.6004855632781982e-01</leafValues></_>
        <_>
          <internalNodes>
            0 -1 33 1435169704 1493908511 -586499059 2076835407
            -946940426 1978517335 -118493813 -33620363</internalNodes>
          <leafValues>
            -3.7139692902565002e-01 4.2285826802253723e-01</leafValues></_>
        <_>
          <internalNodes>
            0 -1 123 -1293670239 -593113 -1133617255 -1088376783
            -1808916435 -1208930985 -1900146920 -147351304</internalNodes>
          <leafValues>
            -3.4714314341545105e-01 4.7276216745376587e-01</leafValues></_>
        <_>
          <internalNodes>
            0 -1 257 679362560 -366297040 -461307728 894755472
            -2037906952 -2146402240 -1062645348 -1359263511</internalNodes>
          <leafValues>
            -4.6405681967735291e-01 3.2356071472167969e-01</leafValues></_>
        <_>
          <internalNodes>
            0 -1 23 270008378 -1015008702 487591706 -172593122
            -2147414512 691011600 190382218 1904414331</internalNodes>
          <leafValues>
            -5.0978434085845947e-01 3.1272205710411072e-01</leafValues></_>
        <_>
          <internalNodes>
            0 -1 61 -492117316 -162545388 270532624 -225423152
            -1423867776 -1853357927 1805713564 -155283309</internalNodes>
          <leafValues>
            -3.7792003154754639e-01 4.3298169970512390e-01</leafValues></_>
        <_>
          <internalNodes>
            0 -1 109 -1767119064 -226457048 -1342881856 -223434190
            130299641 -2107284364 -252341116 -155870799</internalNodes>
          <leafValues>
            -3.2868868112564087e-01 4.5984843373298645e-01</leafValues></_>
        <_>
          <internalNodes>
            0 -1 143 -1333761055 -744364899 -63736780 1904469708
            -471948498 -1411678410 1872410610 -383261133</internalNodes>
          <leafValues>
            -3.8833948969841003e-01 4.0897887945175171e-01</leafValues></_>
        <_>
          <internalNodes>
            0 -1 124 -7746157 -157225422 1342619007 288554615 -779104991
            -1346470057 53907965 -775958697</internalNodes>
          <leafValues>
            -3.1266012787818909e-01 4.9358639121055603e-01</leafValues></_></weakClassifiers></_>
    <!-- stage 16 -->
    <_>
      <maxWeakCount>16</maxWeakCount>
      <stageThreshold>-5.9569424390792847e-01</stageThreshold>
      <weakClassifiers>
        <_>
          <internalNodes>
            0 -1 194 -1503908608 1858912100 -4440160 -1359290716
            -134318236 -286333449 -134824108 -185558352</internalNodes>
          <leafValues>
            -1.2568305432796478e-01 7.2446107864379883e-01</leafValues></_>
        <_>
          <internalNodes>
            0 -1 93 -1359074050 -2002489896 -16988560 -88424642
            -286103460 -319488135 -729922056 -117787462</internalNodes>
          <leafValues>
            -3.5356795787811279e-01 4.3456393480300903e-01</leafValues></_>
        <_>
          <internalNodes>
            0 -1 278 -209010412 -1224965828 1083279497 -1579253450
            -91428748 -1572207862 -1178025392 -1147364112</internalNodes>
          <leafValues>
            -4.4164532423019409e-01 3.1377917528152466e-01</leafValues></_>
        <_>
          <internalNodes>
            0 -1 81 -1023167173 -1197442526 -651122998 -785361312
            16884925 -19670221 -1554669141 -10102954</internalNodes>
          <leafValues>
            -3.1464001536369324e-01 4.5315507054328918e-01</leafValues></_>
        <_>
          <internalNodes>
            0 -1 160 -1324909286 -1181970024 331630683 696365713
            -348034479 -575628645 -530224667 -1882503094</internalNodes>
          <leafValues>
            -3.8342529535293579e-01 3.8901013135910034e-01</leafValues></_>
        <_>
          <internalNodes>
            0 -1 274 -1363699710 -1367178992 -909110815 -1439030144
            -93812275 -2092954624 -796013912 -1287927608</internalNodes>
          <leafValues>
            -3.8760411739349365e-01 3.9650672674179077e-01</leafValues></_>
        <_>
          <internalNodes>
            0 -1 191 -1364303274 -1394556491 -1877745613 -232914930
            -208510035 -74770240 -1295417144 -536638786</internalNodes>
          <leafValues>
            -4.3965202569961548e-01 3.3990091085433960e-01</leafValues></_>
        <_>
          <internalNodes>
            0 -1 87 -256117501 -1074791904 -1350621013 -1729766757
            -2132569741 -218819216 -1035490873 -1015572366</internalNodes>
          <leafValues>
            -3.6412614583969116e-01 4.3052807450294495e-01</leafValues></_>
        <_>
          <internalNodes>
            0 -1 178 -757345599 -1023769717 -274034779 -1037391187
            -1409488 -1074286709 -290538695 -555821573</internalNodes>
          <leafValues>
            -3.3017128705978394e-01 4.6455478668212891e-01</leafValues></_>
        <_>
          <internalNodes>
            0 -1 158 11152660 -109050232 -855484526 570427480
            -1852388752 193503386 -2083265624 -1087665656</internalNodes>
          <leafValues>
            -4.6724644303321838e-01 3.0536696314811707e-01</leafValues></_>
        <_>
          <internalNodes>
            0 -1 184 -356718275 -1191551055 -285213319 -663126854
            1067165354 -1682710536 -1248276556 -874807120</internalNodes>
          <leafValues>
            -2.7804705500602722e-01 5.3952288627624512e-01</leafValues></_>
        <_>
          <internalNodes>
            0 -1 149 -344088297 1281928251 -238170876 -958083450
            2067072033 1812323703 492817709 -1769515</internalNodes>
          <leafValues>
            -3.6144840717315674e-01 4.3544131517410278e-01</leafValues></_>
        <_>
          <internalNodes>
            0 -1 97 -1040191145 -323522609 729549352 -609595806
            -289485286 -1867943087 -209727056 -1157485622</internalNodes>
          <leafValues>
            -3.0632904171943665e-01 4.8108193278312683e-01</leafValues></_>
        <_>
          <internalNodes>
            0 -1 66 1074020536 -766942431 -460848952 1199804165
            1074512327 -1574796886 1296289249 1231770445</internalNodes>
          <leafValues>
            -5.4661148786544800e-01 2.8297728300094604e-01</leafValues></_>
        <_>
          <internalNodes>
            0 -1 116 -1856679206 -1569963981 -1006059520 1020579840
            553222284 -1433787885 814039267 273629601</internalNodes>
          <leafValues>
            -5.2326047420501709e-01 2.7321586012840271e-01</leafValues></_>
        <_>
          <internalNodes>
            0 -1 265 -1687421152 35361398 587729798 1803601944
            -926209835 -1711232337 -2001790453 1690518930</internalNodes>
          <leafValues>
            -4.5752039551734924e-01 3.1038093566894531e-01</leafValues></_></weakClassifiers></_>
    <!-- stage 17 -->
    <_>
      <maxWeakCount>18</maxWeakCount>
      <stageThreshold>-7.6051419973373413e-01</stageThreshold>
      <weakClassifiers>
        <_>
          <internalNodes>
            0 -1 226 237899025 717126904 -16879809 2045798648
            -1103790220 -1073811730 -1073852549 -1977931717</internalNodes>
          <leafValues>
            2.6528257876634598e-02 7.2030001878738403e-01</leafValues></_>
        <_>
          <internalNodes>
            0 -1 4 1122224590 -571315137 -184832295 -1141116999
            -689062478 -228363169 -1484847409 24624975</internalNodes>
          <leafValues>
            -2.4978776276111603e-01 4.6321004629135132e-01</leafValues></_>
        <_>
          <internalNodes>
            0 -1 112 -394006309 -662508199 1213413655 1917817391
            -1126202677 -18890785 1489964991 -122816577</internalNodes>
          <leafValues>
            -2.4299451708793640e-01 4.9356174468994141e-01</leafValues></_>
        <_>
          <internalNodes>
            0 -1 62 -837092406 -100698625 -788917006 -222662822
            -291573330 -1493248129 141411545 -336673286</internalNodes>
          <leafValues>
            -2.9751175642013550e-01 4.1487896442413330e-01</leafValues></_>
        <_>
          <internalNodes>
            0 -1 238 -1073636719 1500456763 21307429 -1993626717
            -851717121 -583123009 1605533851 -546312193</internalNodes>
          <leafValues>
            -3.1382057070732117e-01 4.3194794654846191e-01</leafValues></_>
        <_>
          <internalNodes>
            0 -1 141 -1734083911 -587133069 -1000059635 -802109884
            -1120728881 -1124622851 -1644011682 -77333410</internalNodes>
          <leafValues>
            -2.9368001222610474e-01 4.4039598107337952e-01</leafValues></_>
        <_>
          <internalNodes>
            0 -1 179 -1065188968 -287694700 197722258 -557005680
            -1701609296 -1606278616 1510648192 -1361595776</internalNodes>
          <leafValues>
            -3.6233231425285339e-01 3.4507644176483154e-01</leafValues></_>
        <_>
          <internalNodes>
            0 -1 119 -621675984 -1279281038 -210343782 1054593488
            -1426225195 -1434566670 -736198006 -1033648655</internalNodes>
          <leafValues>
            -3.1826272606849670e-01 4.1454812884330750e-01</leafValues></_>
        <_>
          <internalNodes>
            0 -1 257 -322043824 -1156444092 -2104983453 -1322659696
            -873721681 -2004871160 -1987444325 -1748301554</internalNodes>
          <leafValues>
            -3.9008146524429321e-01 3.4910738468170166e-01</leafValues></_>
        <_>
          <internalNodes>
            0 -1 89 102476416 289482337 -1795129139 -788303591 8520718
            1226866816 -1054127556 21228123</internalNodes>
          <leafValues>
            -5.5918580293655396e-01 2.4467407166957855e-01</leafValues></_>
        <_>
          <internalNodes>
            0 -1 177 -129493948 953192834 1915897478 222466583
            -125629621 -1164949434 -1405968214 -1547190065</internalNodes>
          <leafValues>
            -4.0168082714080811e-01 3.3641046285629272e-01</leafValues></_>
        <_>
          <internalNodes>
            0 -1 235 -358166503 -1090383726 1631590803 -661491582
            -1801221948 -73858932 -366426996 -1467447128</internalNodes>
          <leafValues>
            -3.6789721250534058e-01 4.0094700455665588e-01</leafValues></_>
        <_>
          <internalNodes>
            0 -1 20 -44693990 -174309120 286277658 -1780694646 65690
            1629171755 1099040003 343779842</internalNodes>
          <leafValues>
            -5.5856955051422119e-01 2.6431259512901306e-01</leafValues></_>
        <_>
          <internalNodes>
            0 -1 211 -798764480 1162871873 1153459201 1564492001
            -110608325 403177560 -1853314757 -15875911</internalNodes>
          <leafValues>
            -4.1492590308189392e-01 3.2084709405899048e-01</leafValues></_>
        <_>
          <internalNodes>
            0 -1 296 403338106 -1071633224 2051474000 -505082862
            -1939433342 102894878 317370540 -1915756337</internalNodes>
          <leafValues>
            -2.9729902744293213e-01 4.7548285126686096e-01</leafValues></_>
        <_>
          <internalNodes>
            0 -1 288 -139293276 1543665185 1022356800 437562722
            -1430747490 -1710739628 -2001158714 -1814323543</internalNodes>
          <leafValues>
            -2.5632166862487793e-01 5.0140589475631714e-01</leafValues></_>
        <_>
          <internalNodes>
            0 -1 213 -1629436240 1592410020 1475810997 -171673867
            -1898345327 -2114085 424676816 -56910800</internalNodes>
          <leafValues>
            -3.1620150804519653e-01 4.2220696806907654e-01</leafValues></_>
        <_>
          <internalNodes>
            0 -1 145 -1056319341 1462197127 1987221479 223835661
            -656594435 -549503489 -812738698 2116541878</internalNodes>
          <leafValues>
            -3.2906755805015564e-01 4.1364970803260803e-01</leafValues></_></weakClassifiers></_>
    <!-- stage 18 -->
    <_>
      <maxWeakCount>14</maxWeakCount>
      <stageThreshold>-4.1886207461357117e-01</stageThreshold>
      <weakClassifiers>
        <_>
          <internalNodes>
            0 -1 192 527872 -522125520 -823214212 -321213616 -422060428
            -419469449 -606220 -486607376</internalNodes>
          <leafValues>
            -1.0719131678342819e-01 7.2226130962371826e-01</leafValues></_>
        <_>
          <internalNodes>
            0 -1 244 551288832 -1431521068 -1299611185 -1694859012
            -434104220 -535166462 -1551007508 -1947556432</internalNodes>
          <leafValues>
            -4.4666263461112976e-01 4.0426534414291382e-01</leafValues></_>
        <_>
          <internalNodes>
            0 -1 94 -891882851 1683669105 805471546 -623243050
            -1610430336 -1472131072 -1727942162 -38098210</internalNodes>
          <leafValues>
            -3.7368640303611755e-01 4.0861141681671143e-01</leafValues></_>
        <_>
          <internalNodes>
            0 -1 100 -784075520 -1303386153 795494720 -1423527765
            -993989577 -2091410785 -1063877933 -1460704257</internalNodes>
          <leafValues>
            -4.1788855195045471e-01 3.5032922029495239e-01</leafValues></_>
        <_>
          <internalNodes>
            0 -1 155 -520443329 -767926432 -1291932130 -156586656
            1794737256 -356905488 -340915489 -70807622</internalNodes>
          <leafValues>
            -2.8813612461090088e-01 5.3853213787078857e-01</leafValues></_>
        <_>
          <internalNodes>
            0 -1 191 -1566152032 -1081810752 -250883955 -141983741
            -137708868 -739604471 -52178296 -342220662</internalNodes>
          <leafValues>
            -4.1266694664955139e-01 3.6443069577217102e-01</leafValues></_>
        <_>
          <internalNodes>
            0 -1 184 -1359034059 -51191811 1056943608 -1107595910
            -1080324768 -1414291463 -1114011856 -1749097735</internalNodes>
          <leafValues>
            -3.1604138016700745e-01 4.4548630714416504e-01</leafValues></_>
        <_>
          <internalNodes>
            0 -1 187 -89511143 -1091385740 -364545 -92643329 -467944239
            -1082183681 -1371873793 -134618881</internalNodes>
          <leafValues>
            -3.1946489214897156e-01 4.7262477874755859e-01</leafValues></_>
        <_>
          <internalNodes>
            0 -1 152 -1211975375 1979369106 2113830696 -37190048
            -327645981 -521486414 -805733358 -359313</internalNodes>
          <leafValues>
            -2.7057528495788574e-01 5.0804495811462402e-01</leafValues></_>
        <_>
          <internalNodes>
            0 -1 251 -1172266996 -84849602 855559417 11713259 -454102904
            -1846483196 -2066948984 -360665594</internalNodes>
          <leafValues>
            -3.6332148313522339e-01 4.0883418917655945e-01</leafValues></_>
        <_>
          <internalNodes>
            0 -1 57 -1834835935 -1207589408 226494558 2098659785
            -1835765067 -787237648 42053786 1542631634</internalNodes>
          <leafValues>
            -4.4049328565597534e-01 3.5787725448608398e-01</leafValues></_>
        <_>
          <internalNodes>
            0 -1 140 -181951280 -347731288 -1409475488 -1120226592
            -357753150 -2000285898 -2077286255 -566099511</internalNodes>
          <leafValues>
            -3.3197456598281860e-01 4.4429358839988708e-01</leafValues></_>
        <_>
          <internalNodes>
            0 -1 27 -1474254710 -803941416 1124173015 -571368048
            1074603223 391768075 -1301768272 1975197953</internalNodes>
          <leafValues>
            -5.0881546735763550e-01 3.3125138282775879e-01</leafValues></_>
        <_>
          <internalNodes>
            0 -1 15 1677974250 713081431 -2021604589 -404437741
            1349099264 1378917120 1644376113 -284477285</internalNodes>
          <leafValues>
            -5.1482480764389038e-01 3.0176767706871033e-01</leafValues></_></weakClassifiers></_>
    <!-- stage 19 -->
    <_>
      <maxWeakCount>17</maxWeakCount>
      <stageThreshold>-8.0810338258743286e-01</stageThreshold>
      <weakClassifiers>
        <_>
          <internalNodes>
            0 -1 121 2122240 41102 28360977 2158758 -1761130752
            2049920999 1088409061 42977271</internalNodes>
          <leafValues>
            -4.3362832069396973e-01 6.7517697811126709e-01</leafValues></_>
        <_>
          <internalNodes>
            0 -1 96 -1057758617 -156042825 1064730614 1899150318
            1014869513 -663259242 -556403024 -205913190</internalNodes>
          <leafValues>
            -1.8669895827770233e-01 5.4500931501388550e-01</leafValues></_>
        <_>
          <internalNodes>
            0 -1 136 -368606943 491296911 -1069988073 -918240179
            -937424851 411910280 -992687304 -95434258</internalNodes>
          <leafValues>
            -3.3238270878791809e-01 3.7845191359519958e-01</leafValues></_>
        <_>
          <internalNodes>
            0 -1 41 -1435841813 -554826846 820636260 -225279978
            -1540553059 -1571398038 -74219057 -10507366</internalNodes>
          <leafValues>
            -2.8299888968467712e-01 4.5063617825508118e-01</leafValues></_>
        <_>
          <internalNodes>
            0 -1 146 -1598969981 -252651613 -995973176 -615887636
            807267865 -35143697 -705724993 1607073791</internalNodes>
          <leafValues>
            -3.2256031036376953e-01 3.9518055319786072e-01</leafValues></_>
        <_>
          <internalNodes>
            0 -1 243 -1565243339 -1239545728 -1585332201 1905681151
            -1434451955 -1173733376 -1598020902 -638615349</internalNodes>
          <leafValues>
            -3.9866626262664795e-01 3.3321854472160339e-01</leafValues></_>
        <_>
          <internalNodes>
            0 -1 184 -828716176 -158564339 180488 2142326626 -1165655455
            -669349500 176751265 -1366319094</internalNodes>
          <leafValues>
            -3.4618073701858521e-01 3.6573293805122375e-01</leafValues></_>
        <_>
          <internalNodes>
            0 -1 270 -1778408368 1073865634 -1332534728 -1025916558
            -1060791808 -1982160889 -1475892460 1220538899</internalNodes>
          <leafValues>
            -4.7024613618850708e-01 2.7923038601875305e-01</leafValues></_>
        <_>
          <internalNodes>
            0 -1 59 -738730673 -1285368843 1316044879 -764181893
            -1761103440 -1692133475 259326635 -571205557</internalNodes>
          <leafValues>
            -2.6989707350730896e-01 4.8946279287338257e-01</leafValues></_>
        <_>
          <internalNodes>
            0 -1 42 -977362293 -223970766 1990651517 2034433290
            1895253358 -958644760 1991495483 -201620921</internalNodes>
          <leafValues>
            -2.3733600974082947e-01 5.4559075832366943e-01</leafValues></_>
        <_>
          <internalNodes>
            0 -1 127 -1462630784 312262929 -1287564647 -628051438
            -1610416108 -1844837984 -1818103127 -919809116</internalNodes>
          <leafValues>
            -4.5075029134750366e-01 3.0121505260467529e-01</leafValues></_>
        <_>
          <internalNodes>
            0 -1 56 -779029857 -780078091 602327805 428503517 632516286
            -551041129 -1796235284 -544554497</internalNodes>
          <leafValues>
            -2.6097267866134644e-01 5.3229093551635742e-01</leafValues></_>
        <_>
          <internalNodes>
            0 -1 247 289620753 286425088 -1845460970 903090248
            -1592477196 145915921 700833972 -1790451466</internalNodes>
          <leafValues>
            -3.9558845758438110e-01 3.4260362386703491e-01</leafValues></_>
        <_>
          <internalNodes>
            0 -1 192 786040365 -489647598 -2128330600 -1076322164
            -83213376 -645824502 -527463752 -1693267208</internalNodes>
          <leafValues>
            -4.6526414155960083e-01 2.9232454299926758e-01</leafValues></_>
        <_>
          <internalNodes>
            0 -1 287 -38539005 -890048088 1179567814 -1814204283
            -1563123208 1489684180 -1211822452 -873476706</internalNodes>
          <leafValues>
            -2.3907221853733063e-01 6.1114883422851562e-01</leafValues></_>
        <_>
          <internalNodes>
            0 -1 67 675325000 978369104 -922741507 487568184 -1341292388
            1502619681 -750425349 605360641</internalNodes>
          <leafValues>
            -4.8408374190330505e-01 2.9955366253852844e-01</leafValues></_>
        <_>
          <internalNodes>
            0 -1 144 -1337419117 -1064766845 -918439935 -1710758764
            -913346394 -57708338 955605007 887032451</internalNodes>
          <leafValues>
            -4.4838383793830872e-01 3.2951551675796509e-01</leafValues></_></weakClassifiers></_>
    <!-- stage 20 -->
    <_>
      <maxWeakCount>17</maxWeakCount>
      <stageThreshold>-9.6583527326583862e-01</stageThreshold>
      <weakClassifiers>
        <_>
          <internalNodes>
            0 -1 223 742261776 1061072826 -1090525377 -302535110
            -1359609995 1056899071 -1560281092 -2076951504</internalNodes>
          <leafValues>
            -2.6315790414810181e-01 6.7485326528549194e-01</leafValues></_>
        <_>
          <internalNodes>
            0 -1 120 -328724974 -66884018 1003175705 -2062350572
            1554975951 -1272996113 138521215 -732676532</internalNodes>
          <leafValues>
            -2.7261349558830261e-01 4.2785957455635071e-01</leafValues></_>
        <_>
          <internalNodes>
            0 -1 183 -64064810 1596002310 -1391423143 130916489
            539566735 -320756584 -754310661 151011487</internalNodes>
          <leafValues>
            -4.4096785783767700e-01 2.8592976927757263e-01</leafValues></_>
        <_>
          <internalNodes>
            0 -1 193 -1034630878 -258559778 25205214 1112672666
            -1954479504 -1039005695 -2113365780 1158885482</internalNodes>
          <leafValues>
            -5.3344827890396118e-01 2.2540435194969177e-01</leafValues></_>
        <_>
          <internalNodes>
            0 -1 101 1362545082 1486037299 1295781143 -1252376775
            1428263275 -74188838 -867938369 -75302915</internalNodes>
          <leafValues>
            -3.0279213190078735e-01 4.2899748682975769e-01</leafValues></_>
        <_>
          <internalNodes>
            0 -1 249 -967144912 -33025024 1921319637 2055739546
            -1072357356 1434624208 -1333161920 -1161617301</internalNodes>
          <leafValues>
            -4.2833653092384338e-01 3.1619635224342346e-01</leafValues></_>
        <_>
          <internalNodes>
            0 -1 118 -601577807 -214110298 -339747079 -145929704
            -1072660321 -1451752144 -1724939812 -207764742</internalNodes>
          <leafValues>
            -2.1638010442256927e-01 5.8379328250885010e-01</leafValues></_>
        <_>
          <internalNodes>
            0 -1 241 705572115 -1442054124 -2079829605 -1360527160
            1350752459 -2004770646 -1064777063 -1160790007</internalNodes>
          <leafValues>
            -4.6076554059982300e-01 2.9431855678558350e-01</leafValues></_>
        <_>
          <internalNodes>
            0 -1 113 -115609041 -838803291 -2102996652 -745717047
            -1472495046 -578170727 1511379025 2144332283</internalNodes>
          <leafValues>
            -3.9204576611518860e-01 3.5251179337501526e-01</leafValues></_>
        <_>
          <internalNodes>
            0 -1 276 -1606893308 -214682312 -894429254 -7942170
            -1174603795 -835543235 -1510599428 -147395</internalNodes>
          <leafValues>
            -3.1992441415786743e-01 4.0844407677650452e-01</leafValues></_>
        <_>
          <internalNodes>
            0 -1 217 -933241712 -1734638115 1150065925 1568178579
            -519667533 -1529347859 -1727508414 1377551498</internalNodes>
          <leafValues>
            -3.8513001799583435e-01 3.5628435015678406e-01</leafValues></_>
        <_>
          <internalNodes>
            0 -1 175 1645251088 -938573790 -804646633 1855087114
            -771094525 -796479470 1151928938 852701706</internalNodes>
          <leafValues>
            -5.5349278450012207e-01 2.3537646234035492e-01</leafValues></_>
        <_>
          <internalNodes>
            0 -1 39 -98512193 -692267530 -1563629441 -126320036
            -51466806 -2097771203 -1704604537 -67380110</internalNodes>
          <leafValues>
            -2.5476551055908203e-01 5.2992844581604004e-01</leafValues></_>
        <_>
          <internalNodes>
            0 -1 154 -89458192 -426072561 -1650320621 -564438145
            -1439227154 -21336261 -1419521029 -1432683570</internalNodes>
          <leafValues>
            -2.6062592864036560e-01 5.2808773517608643e-01</leafValues></_>
        <_>
          <internalNodes>
            0 -1 280 -1760302669 874070292 278801 25182230 1135380734
            428364416 1233731748 106935210</internalNodes>
          <leafValues>
            -4.0701133012771606e-01 3.5398876667022705e-01</leafValues></_>
        <_>
          <internalNodes>
            0 -1 112 -1873831293 1452396993 1780649277 -1609072633
            -1732114227 -75497264 1761879464 1812525590</internalNodes>
          <leafValues>
            -4.5165625214576721e-01 3.1741541624069214e-01</leafValues></_>
        <_>
          <internalNodes>
            0 -1 250 -736960448 270454824 -1852750544 537497616
            -100495360 546439378 -937906808 8643307</internalNodes>
          <leafValues>
            -5.0133627653121948e-01 2.6288974285125732e-01</leafValues></_></weakClassifiers></_>
    <!-- stage 21 -->
    <_>
      <maxWeakCount>18</maxWeakCount>
      <stageThreshold>-9.4833815097808838e-01</stageThreshold>
      <weakClassifiers>
        <_>
          <internalNodes>
            0 -1 24 -436531708 -2146549786 1862167136 2100418 913775926
            70266676 342120192 213787</internalNodes>
          <leafValues>
            -2.4669604003429413e-01 6.8455785512924194e-01</leafValues></_>
        <_>
          <internalNodes>
            0 -1 76 1359324682 1362154555 20681818 1371101089 84002187
            -2047960043 -962484314 -676375437</internalNodes>
          <leafValues>
            -2.9918691515922546e-01 4.6070069074630737e-01</leafValues></_>
        <_>
          <internalNodes>
            0 -1 277 -654056526 1426424482 -2130509696 -1392303998
            -1842639724 -2113331072 -1467023232 72721251</internalNodes>
          <leafValues>
            -4.4526344537734985e-01 3.2647874951362610e-01</leafValues></_>
        <_>
          <internalNodes>
            0 -1 173 1613611775 -2063554845 1848917602 -744362186
            -244693074 -13013193 -466591946 -1512708761</internalNodes>
          <leafValues>
            -3.0158227682113647e-01 4.5626515150070190e-01</leafValues></_>
        <_>
          <internalNodes>
            0 -1 1 -487795994 13135488 -2111646464 1661026579 21704515
            1451886593 1103974500 1363239504</internalNodes>
          <leafValues>
            -5.5090576410293579e-01 2.6062983274459839e-01</leafValues></_>
        <_>
          <internalNodes>
            0 -1 72 -754781789 -1014763073 -979890047 188900302
            -897539710 -55140175 270569555 -94121769</internalNodes>
          <leafValues>
            -3.7615972757339478e-01 3.7157607078552246e-01</leafValues></_>
        <_>
          <internalNodes>
            0 -1 264 -740439304 1208025134 1719173664 1382761624
            -1329085808 423130148 690664064 1527377931</internalNodes>
          <leafValues>
            -3.2512247562408447e-01 4.1811713576316833e-01</leafValues></_>
        <_>
          <internalNodes>
            0 -1 59 -744237279 -223161434 -1892332030 322152033
            1469558824 883201811 896894875 1966592983</internalNodes>
          <leafValues>
            -3.2194998860359192e-01 4.0994665026664734e-01</leafValues></_>
        <_>
          <internalNodes>
            0 -1 293 1389602826 91293184 1038048052 818394750 109534936
            -1522256700 1163232440 1348570763</internalNodes>
          <leafValues>
            -3.2787448167800903e-01 4.2898613214492798e-01</leafValues></_>
        <_>
          <internalNodes>
            0 -1 182 -567359041 -386863118 268332652 -5849178 -289624104
            -302993680 -1971610414 -988825838</internalNodes>
          <leafValues>
            -2.7877900004386902e-01 4.7307530045509338e-01</leafValues></_>
        <_>
          <internalNodes>
            0 -1 103 -171719550 1647100491 1751863316 425757048
            1261746346 -2039837792 1081327926 -1722595189</internalNodes>
          <leafValues>
            -3.0629447102546692e-01 4.8204910755157471e-01</leafValues></_>
        <_>
          <internalNodes>
            0 -1 199 1649477696 -1323887741 314671745 894768388
            -939515174 -1577033728 -1310610538 914683531</internalNodes>
          <leafValues>
            -4.7097206115722656e-01 3.1796541810035706e-01</leafValues></_>
        <_>
          <internalNodes>
            0 -1 26 -192428438 1442843204 82156130 1361652507
            -1405541248 1292992802 -1000041742 386640015</internalNodes>
          <leafValues>
            -3.2784357666969299e-01 4.6159920096397400e-01</leafValues></_>
        <_>
          <internalNodes>
            0 -1 198 -988764576 -1067778046 285217044 -1874427053
            -1055878604 403210368 -1520246726 1141609039</internalNodes>
          <leafValues>
            -3.8447967171669006e-01 3.5853630304336548e-01</leafValues></_>
        <_>
          <internalNodes>
            0 -1 107 -240795600 -877136489 1705811839 -779292859
            -211582835 -543465985 -174815105 1915412255</internalNodes>
          <leafValues>
            -3.1934541463851929e-01 4.4012829661369324e-01</leafValues></_>
        <_>
          <internalNodes>
            0 -1 165 -862002158 -261058465 21037110 1381368070
            1904943249 -805109562 -2096987972 -881737693</internalNodes>
          <leafValues>
            -4.4310942292213440e-01 3.3234027028083801e-01</leafValues></_>
        <_>
          <internalNodes>
            0 -1 291 -760113056 1633428023 642790272 288319900
            1214966467 1074977845 -1485441368 1363752138</internalNodes>
          <leafValues>
            -3.7129607796669006e-01 3.7670969963073730e-01</leafValues></_>
        <_>
          <internalNodes>
            0 -1 181 -529816901 -954096093 -387939004 -123427142
            -1020370673 -388333963 -839621518 -2312193</internalNodes>
          <leafValues>
            -2.9468736052513123e-01 5.0641179084777832e-01</leafValues></_></weakClassifiers></_>
    <!-- stage 22 -->
    <_>
      <maxWeakCount>19</maxWeakCount>
      <stageThreshold>-6.4955747127532959e-01</stageThreshold>
      <weakClassifiers>
        <_>
          <internalNodes>
            0 -1 13 -361840062 720031930 564799528 254072570 1162617924
            117432254 1143280756 1194058291</internalNodes>
          <leafValues>
            5.8548010885715485e-02 7.1152919530868530e-01</leafValues></_>
        <_>
          <internalNodes>
            0 -1 53 349567623 1357282943 -1039227127 1879715871
            -2071264877 -168321641 -816861225 -209434809</internalNodes>
          <leafValues>
            -2.2890950739383698e-01 4.6454420685768127e-01</leafValues></_>
        <_>
          <internalNodes>
            0 -1 212 -420745750 640118759 -684494974 1902321639
            -134751083 -990806025 -721435676 901490167</internalNodes>
          <leafValues>
            -3.4265175461769104e-01 3.5108685493469238e-01</leafValues></_>
        <_>
          <internalNodes>
            0 -1 221 -376348377 12018442 -1867954737 -1049888778
            -1216894977 173580141 -185088825 -751311361</internalNodes>
          <leafValues>
            -3.1114807724952698e-01 3.9523166418075562e-01</leafValues></_>
        <_>
          <internalNodes>
            0 -1 43 -882519848 1349340168 1332201994 1494229084
            -333306176 1227882608 1909691530 -215499890</internalNodes>
          <leafValues>
            -2.9210710525512695e-01 4.1638064384460449e-01</leafValues></_>
        <_>
          <internalNodes>
            0 -1 117 -759500035 -636869692 412155995 -1016462467
            260614311 2021916732 -805254567 1441057628</internalNodes>
          <leafValues>
            -3.2542905211448669e-01 3.5685518383979797e-01</leafValues></_>
        <_>
          <internalNodes>
            0 -1 205 -789536496 -500633935 -1208189069 -1113444719
            -1082744896 -4424496 -319431264 -1175343526</internalNodes>
          <leafValues>
            -3.1397345662117004e-01 4.0279114246368408e-01</leafValues></_>
        <_>
          <internalNodes>
            0 -1 135 -1068789726 -396227136 1801463402 -638761237
            -2025785950 102377715 -1422812197 -131079013</internalNodes>
          <leafValues>
            -2.3077428340911865e-01 5.1394456624984741e-01</leafValues></_>
        <_>
          <internalNodes>
            0 -1 282 -87309370 1374552582 1818926814 -1828100414
            -1041063295 -1783483028 -1443434342 -175135826</internalNodes>
          <leafValues>
            -2.0315502583980560e-01 5.8783775568008423e-01</leafValues></_>
        <_>
          <internalNodes>
            0 -1 220 1511067902 -99410389 1648047907 -2044744145
            -1875592197 1928937342 -886441811 -206853281</internalNodes>
          <leafValues>
            -2.6483097672462463e-01 4.6200308203697205e-01</leafValues></_>
        <_>
          <internalNodes>
            0 -1 69 1369106184 1127453454 -1590906481 2071197111
            26792152 -2132098645 -1056771239 -247742368</internalNodes>
          <leafValues>
            -3.6721184849739075e-01 3.5794490575790405e-01</leafValues></_>
        <_>
          <internalNodes>
            0 -1 236 -240287606 2143042283 2080323298 -1075136257
            -1695696693 -1259041362 -1196839704 -936991576</internalNodes>
          <leafValues>
            -2.8750738501548767e-01 4.2445215582847595e-01</leafValues></_>
        <_>
          <internalNodes>
            0 -1 71 1359409711 -637696229 -881906820 -739075121
            1160217826 -276970051 1165489939 -542442857</internalNodes>
          <leafValues>
            -2.3559467494487762e-01 5.3732240200042725e-01</leafValues></_>
        <_>
          <internalNodes>
            0 -1 201 -420091322 -667714661 -1078055223 240053066
            -1275946489 2075893695 -617104455 -1988888517</internalNodes>
          <leafValues>
            -3.3797943592071533e-01 3.7949803471565247e-01</leafValues></_>
        <_>
          <internalNodes>
            0 -1 153 -122539969 246413099 866253759 233906442 1979658231
            -1614807041 95511911 -68432683</internalNodes>
          <leafValues>
            -3.4107822179794312e-01 3.7925696372985840e-01</leafValues></_>
        <_>
          <internalNodes>
            0 -1 283 -303389558 1153101379 1325202857 1317840622
            -178813728 72623524 379486350 -397562869</internalNodes>
          <leafValues>
            -2.9637956619262695e-01 4.3831744790077209e-01</leafValues></_>
        <_>
          <internalNodes>
            0 -1 158 499525620 -682556925 -796864056 419575842
            -1476326575 -662558528 -209522552 -160756222</internalNodes>
          <leafValues>
            -4.2519178986549377e-01 3.0954131484031677e-01</leafValues></_>
        <_>
          <internalNodes>
            0 -1 273 1517009312 134258816 1073991688 -159127422
            -1073706368 1342300481 270799232 7496643</internalNodes>
          <leafValues>
            -5.4833841323852539e-01 2.5066021084785461e-01</leafValues></_>
        <_>
          <internalNodes>
            0 -1 271 -155471186 -604297552 136782032 -684871882
            1811124142 -2064941258 -1073618753 -1682444565</internalNodes>
          <leafValues>
            -2.5988283753395081e-01 5.5078631639480591e-01</leafValues></_></weakClassifiers></_>
    <!-- stage 23 -->
    <_>
      <maxWeakCount>18</maxWeakCount>
      <stageThreshold>-9.7945296764373779e-01</stageThreshold>
      <weakClassifiers>
        <_>
          <internalNodes>
            0 -1 10 1076273806 613327370 717795084 -1980854337 89109717
            591886255 -984136696 -344526886</internalNodes>
          <leafValues>
            4.5364890247583389e-02 7.4109381437301636e-01</leafValues></_>
        <_>
          <internalNodes>
            0 -1 196 -496109579 -925991299 -671154185 -495386627
            -536877416 -587419686 -679483668 -342301520</internalNodes>
          <leafValues>
            -3.0229619145393372e-01 4.4809827208518982e-01</leafValues></_>
        <_>
          <internalNodes>
            0 -1 148 -393311529 -658273307 -1482412505 -572765618
            -1084323285 -276865025 -26067164 -860954114</internalNodes>
          <leafValues>
            -2.7315190434455872e-01 4.7800055146217346e-01</leafValues></_>
        <_>
          <internalNodes>
            0 -1 50 -630194571 322643495 -814930179 -1841582513
            1601635556 -747116683 427912597 -1089095749</internalNodes>
          <leafValues>
            -2.5802370905876160e-01 4.5101347565650940e-01</leafValues></_>
        <_>
          <internalNodes>
            0 -1 133 -964699505 -95255569 183267195 -220172901 900461285
            -1101088003 -1897670870 -74806562</internalNodes>
          <leafValues>
            -2.8879714012145996e-01 4.3048125505447388e-01</leafValues></_>
        <_>
          <internalNodes>
            0 -1 262 -1609977 1610084187 -1996525946 78155522 -17934553
            -306380801 -1078740088 -1063199534</internalNodes>
          <leafValues>
            -2.9927480220794678e-01 3.9300903677940369e-01</leafValues></_>
        <_>
          <internalNodes>
            0 -1 120 -1902023603 -62028659 109129081 -820444618
            -1736343351 -1341914744 189401544 1141647897</internalNodes>
          <leafValues>
            -4.0826672315597534e-01 2.9763349890708923e-01</leafValues></_>
        <_>
          <internalNodes>
            0 -1 183 -835192582 1396616103 -1610732682 -1898010065
            1614511999 1858006903 -1993643269 -122459355</internalNodes>
          <leafValues>
            -3.3165946602821350e-01 3.8204601407051086e-01</leafValues></_>
        <_>
          <internalNodes>
            0 -1 63 -1039488466 -963444008 1376410204 -1068103296
            42467793 -1031585658 -1551131860 -715230862</internalNodes>
          <leafValues>
            -5.6747955083847046e-01 2.2659392654895782e-01</leafValues></_>
        <_>
          <internalNodes>
            0 -1 252 -864132318 562692647 639650700 706530 -918335437
            -532327896 -776895734 -1471420741</internalNodes>
          <leafValues>
            -4.4321450591087341e-01 2.6390787959098816e-01</leafValues></_>
        <_>
          <internalNodes>
            0 -1 14 1607870238 1944600667 -61960027 -1516625786
            1481052228 -743996919 -52205545 -302029546</internalNodes>
          <leafValues>
            -3.5745856165885925e-01 3.3625864982604980e-01</leafValues></_>
        <_>
          <internalNodes>
            0 -1 137 1225298155 -2082409567 -860422220 -935133395
            1209762962 -4721089 -1201193485 -466367324</internalNodes>
          <leafValues>
            -3.0380764603614807e-01 4.0851348638534546e-01</leafValues></_>
        <_>
          <internalNodes>
            0 -1 222 716317538 462079616 1090846733 -677820280 713181191
            -1199044224 -1434436653 166404314</internalNodes>
          <leafValues>
            -6.7673355340957642e-01 2.0888137817382812e-01</leafValues></_>
        <_>
          <internalNodes>
            0 -1 266 -365768033 -789040380 -448123622 1089869114
            -756439547 275315024 -536046432 -367818086</internalNodes>
          <leafValues>
            -3.1487348675727844e-01 4.1282805800437927e-01</leafValues></_>
        <_>
          <internalNodes>
            0 -1 11 69399268 -531619601 -1048540409 178295489 1076044035
            1169883242 -120550912 -764183544</internalNodes>
          <leafValues>
            -4.7452720999717712e-01 2.7440169453620911e-01</leafValues></_>
        <_>
          <internalNodes>
            0 -1 113 -776756473 -561846443 1243931601 -1330860351
            -2094773742 1133431289 -779765024 1984887768</internalNodes>
          <leafValues>
            -4.0480211377143860e-01 3.3676832914352417e-01</leafValues></_>
        <_>
          <internalNodes>
            0 -1 138 -502985013 688078790 -1171813733 1045363435
            -1232124475 -1612770465 922658691 -1571944542</internalNodes>
          <leafValues>
            -3.6434605717658997e-01 3.7731415033340454e-01</leafValues></_>
        <_>
          <internalNodes>
            0 -1 292 -1317012947 823127863 1974406195 537192137
            -974915527 -293678979 2016843162 -786574706</internalNodes>
          <leafValues>
            -2.4171744287014008e-01 5.1584982872009277e-01</leafValues></_></weakClassifiers></_>
    <!-- stage 24 -->
    <_>
      <maxWeakCount>18</maxWeakCount>
      <stageThreshold>-6.5704607963562012e-01</stageThreshold>
      <weakClassifiers>
        <_>
          <internalNodes>
            0 -1 230 349974483 -823197835 -1073744131 -1896415233
            -1099432076 -579998849 -1224755212 -1509681996</internalNodes>
          <leafValues>
            4.8000000417232513e-02 7.3799997568130493e-01</leafValues></_>
        <_>
          <internalNodes>
            0 -1 191 578702417 -390434819 -1090523393 1999309109
            -16875660 -1 -1074151436 -2026790745</internalNodes>
          <leafValues>
            -3.5703277587890625e-01 3.9074862003326416e-01</leafValues></_>
        <_>
          <internalNodes>
            0 -1 18 549912270 752717481 -929987376 683886786 570532147
            -1297510220 1640047523 1803637657</internalNodes>
          <leafValues>
            -4.8988652229309082e-01 2.5343453884124756e-01</leafValues></_>
        <_>
          <internalNodes>
            0 -1 98 -412101249 -47132587 1208177526 1748011262
            -771151233 1923093170 1347050866 1829380270</internalNodes>
          <leafValues>
            -3.5719025135040283e-01 3.3809846639633179e-01</leafValues></_>
        <_>
          <internalNodes>
            0 -1 73 -1698176215 -623978275 1560652808 2001707245
            -2002196306 -1680030240 1655764003 -486086468</internalNodes>
          <leafValues>
            -3.3603549003601074e-01 3.5895776748657227e-01</leafValues></_>
        <_>
          <internalNodes>
            0 -1 60 -646840547 469235578 1669230299 1591950195
            -522769657 -128463662 1750445817 -1706696717</internalNodes>
          <leafValues>
            -3.0181476473808289e-01 4.3712210655212402e-01</leafValues></_>
        <_>
          <internalNodes>
            0 -1 81 -406744603 -794232032 1585325902 -114286688
            -2079145473 -273359950 1207378312 -680282297</internalNodes>
          <leafValues>
            -3.0144685506820679e-01 4.2809104919433594e-01</leafValues></_>
        <_>
          <internalNodes>
            0 -1 46 -1191082357 939581795 776833057 -1802896793
            -1456535725 282446049 -1945873289 158796647</internalNodes>
          <leafValues>
            -4.7462159395217896e-01 2.6318958401679993e-01</leafValues></_>
        <_>
          <internalNodes>
            0 -1 142 1523042387 1246482126 1256284975 975490883
            -905028852 -4460545 -26496110 -1439698227</internalNodes>
          <leafValues>
            -3.2031524181365967e-01 3.8085025548934937e-01</leafValues></_>
        <_>
          <internalNodes>
            0 -1 187 713175861 -138001851 532765325 470831446 -869130160
            -1320681335 -1006632927 556090871</internalNodes>
          <leafValues>
            -5.9655594825744629e-01 2.1153393387794495e-01</leafValues></_>
        <_>
          <internalNodes>
            0 -1 294 1400634961 1441513834 1224819043 328151111
            -865627068 -2075295655 97248052 1091186730</internalNodes>
          <leafValues>
            -4.2346858978271484e-01 3.0057853460311890e-01</leafValues></_>
        <_>
          <internalNodes>
            0 -1 170 347345693 182317653 1459709012 -1424084312
            -519919607 1804742330 -526317488 1136353464</internalNodes>
          <leafValues>
            -4.2826649546623230e-01 3.0616036057472229e-01</leafValues></_>
        <_>
          <internalNodes>
            0 -1 7 -1371166018 -431314646 609768470 888785929 -718825727
            -359038784 -1465782271 2103662934</internalNodes>
          <leafValues>
            -4.2785441875457764e-01 2.9684808850288391e-01</leafValues></_>
        <_>
          <internalNodes>
            0 -1 39 -869436685 -697665296 -884122889 1512738390
            165781091 263523382 40890855 -622737690</internalNodes>
          <leafValues>
            -3.0607065558433533e-01 4.1175320744514465e-01</leafValues></_>
        <_>
          <internalNodes>
            0 -1 117 -74450721 -963239450 -2015065512 -538031273
            -1685078083 -1631600705 -482870499 -248587313</internalNodes>
          <leafValues>
            -2.3267774283885956e-01 5.1784288883209229e-01</leafValues></_>
        <_>
          <internalNodes>
            0 -1 192 740206195 -665157171 -1048419790 -166293297
            -637303635 -930389853 -1995797856 -274009576</internalNodes>
          <leafValues>
            -3.7705576419830322e-01 3.3615976572036743e-01</leafValues></_>
        <_>
          <internalNodes>
            0 -1 157 -801835737 176722081 -2084170597 -308166237
            -952545457 -116669296 1137051906 1090077935</internalNodes>
          <leafValues>
            -4.3130370974540710e-01 3.5031098127365112e-01</leafValues></_>
        <_>
          <internalNodes>
            0 -1 104 -198449127 -1025772398 1026525224 -987975823
            -1053676781 -56922602 -1081472625 -340820451</internalNodes>
          <leafValues>
            -3.1199681758880615e-01 4.1705515980720520e-01</leafValues></_></weakClassifiers></_>
    <!-- stage 25 -->
    <_>
      <maxWeakCount>17</maxWeakCount>
      <stageThreshold>-8.0228209495544434e-01</stageThreshold>
      <weakClassifiers>
        <_>
          <internalNodes>
            0 -1 188 49941556 801030066 -9 1010412593 1325006708
            1879043583 2130673524 -2131692233</internalNodes>
          <leafValues>
            -2.3828920722007751e-01 6.9128412008285522e-01</leafValues></_>
        <_>
          <internalNodes>
            0 -1 245 -1895899201 -1090585090 -1108496453 1788788732
            -21113003 -152125955 -1241518095 -1081020496</internalNodes>
          <leafValues>
            -3.5207664966583252e-01 4.1526466608047485e-01</leafValues></_>
        <_>
          <internalNodes>
            0 -1 22 -556766369 -128551513 1074064907 403973506
            1082589953 2048213123 -1157012713 -31536513</internalNodes>
          <leafValues>
            -3.5151034593582153e-01 3.8385912775993347e-01</leafValues></_>
        <_>
          <internalNodes>
            0 -1 200 1954289428 -1366960380 -1795004882 210899329
            -873715456 1722528689 -1143323221 616098959</internalNodes>
          <leafValues>
            -4.9088534712791443e-01 2.4347560107707977e-01</leafValues></_>
        <_>
          <internalNodes>
            0 -1 149 674341683 -2133192641 -922178527 -390707572
            -1590361823 -817200967 -787295596 1510326985</internalNodes>
          <leafValues>
            -4.4628617167472839e-01 2.6450863480567932e-01</leafValues></_>
        <_>
          <internalNodes>
            0 -1 180 36277496 -1618495214 671166829 -1225846198
            1170927225 -460815773 545415019 752094532</internalNodes>
          <leafValues>
            -5.5128264427185059e-01 2.1563188731670380e-01</leafValues></_>
        <_>
          <internalNodes>
            0 -1 32 1401213164 1141003229 -315735122 1321904549 63525312
