<?xml version="1.0"?>
<opencv_storage>
<cascade>
  <stageType>BOOST</stageType>
  <featureType>LBP</featureType>
  <height>16</height>
  <width>16</width>
  <stageParams>
    <boostType>GAB</boostType>
    <minHitRate>9.9500000476837158e-01</minHitRate>
    <maxFalseAlarm>5.0000000000000000e-01</maxFalseAlarm>
    <weightTrimRate>9.4999998807907104e-01</weightTrimRate>
    <maxDepth>1</maxDepth>
    <maxWeakCount>100</maxWeakCount></stageParams>
  <featureParams>
    <maxCatCount>256</maxCatCount>
    <featSize>1</featSize></featureParams>
  <stageNum>31</stageNum>
  <stages>
    <!-- stage 0 -->
    <_>
      <maxWeakCount>3</maxWeakCount>
      <stageThreshold>-5.9740585088729858e-01</stageThreshold>
      <weakClassifiers>
        <_>
          <internalNodes>
            0 -1 55 -725303168 -545722394 341838848 -537002113
            1163952264 1464975143 340794506 -67633153</internalNodes>
          <leafValues>
            -6.2718445062637329e-01 8.3553302288055420e-01</leafValues></_>
        <_>
          <internalNodes>
            0 -1 86 -570363688 1466049570 1471022260 -939529345
            1426115712 491888918 1431641503 -1</internalNodes>
          <leafValues>
            -6.1728829145431519e-01 6.9861251115798950e-01</leafValues></_>
        <_>
          <internalNodes>
            0 -1 73 -746613630 393478294 1065299969 1900909167
            1098846091 426783098 1710691243 1476358367</internalNodes>
          <leafValues>
            -6.2789255380630493e-01 6.4706689119338989e-01</leafValues></_></weakClassifiers></_>
    <!-- stage 1 -->
    <_>
      <maxWeakCount>5</maxWeakCount>
      <stageThreshold>-5.6031209230422974e-01</stageThreshold>
      <weakClassifiers>
        <_>
          <internalNodes>
            0 -1 36 -790564672 1346427976 -566208033 -538968097
            -254754688 20736 -553713665 -35131429</internalNodes>
          <leafValues>
            -5.7397693395614624e-01 7.5574010610580444e-01</leafValues></_>
        <_>
          <internalNodes>
            0 -1 11 -202901505 2137914251 1051684739 1621198211
            -87363682 -219807761 2120162700 4523623</internalNodes>
          <leafValues>
            -5.0422173738479614e-01 6.6443896293640137e-01</leafValues></_>
        <_>
          <internalNodes>
            0 -1 27 -5446446 -610603378 -132119552 -4097 335921386
            -1904976394 -584728167 -1581057</internalNodes>
          <leafValues>
            -5.3136384487152100e-01 6.5352112054824829e-01</leafValues></_>
        <_>
          <internalNodes>
            0 -1 151 -780087024 1393688916 -1248767988 -108822237
            1090563747 159432834 -1701633617 -34604145</internalNodes>
          <leafValues>
            -5.9630459547042847e-01 5.1899307966232300e-01</leafValues></_>
        <_>
          <internalNodes>
            0 -1 110 -662187390 1619218434 118784 2005921955 -1744076658
            -1878491135 654553170 -15209853</internalNodes>
          <leafValues>
            -5.9767425060272217e-01 5.3025734424591064e-01</leafValues></_></weakClassifiers></_>
    <!-- stage 2 -->
    <_>
      <maxWeakCount>5</maxWeakCount>
      <stageThreshold>-5.1020085811614990e-01</stageThreshold>
      <weakClassifiers>
        <_>
          <internalNodes>
            0 -1 12 -815019358 824282886 2113867583 1067437631
            1095180431 67391232 1970787791 1393009951</internalNodes>
          <leafValues>
            -4.3119266629219055e-01 7.0480436086654663e-01</leafValues></_>
        <_>
          <internalNodes>
            0 -1 72 -503258456 -1659469432 2569 -914005880 1381336202
            -1867865583 1111800715 -34092158</internalNodes>
          <leafValues>
            -5.3717637062072754e-01 5.6494176387786865e-01</leafValues></_>
        <_>
          <internalNodes>
            0 -1 170 -1322278741 814352512 161743408 990337423
            -243085176 -1315307520 -114786060 -10769717</internalNodes>
          <leafValues>
            -5.0725275278091431e-01 5.7711559534072876e-01</leafValues></_>
        <_>
          <internalNodes>
            0 -1 110 -50608118 -683046392 1368391714 1969336473
            -1056517874 1162739712 1984143458 -8653381</internalNodes>
          <leafValues>
            -5.5437350273132324e-01 4.8932918906211853e-01</leafValues></_>
        <_>
          <internalNodes>
            0 -1 2 -708972598 1464927623 -2147286261 -944160767
            -636370273 -536800813 -106954737 1195590407</internalNodes>
          <leafValues>
            -5.5675196647644043e-01 4.7609174251556396e-01</leafValues></_></weakClassifiers></_>
    <!-- stage 3 -->
    <_>
      <maxWeakCount>6</maxWeakCount>
      <stageThreshold>-5.9734570980072021e-01</stageThreshold>
      <weakClassifiers>
        <_>
          <internalNodes>
            0 -1 145 1363538368 1433887861 153418996 1568667639
            1213213824 -2114093067 -581924453 -536880645</internalNodes>
          <leafValues>
            -3.9328277111053467e-01 6.5623497962951660e-01</leafValues></_>
        <_>
          <internalNodes>
            0 -1 80 -751075318 -749769783 -411164128 -76595573 775594639
            1157592999 -935353601 -71567713</internalNodes>
          <leafValues>
            -3.9902272820472717e-01 6.4636409282684326e-01</leafValues></_>
        <_>
          <internalNodes>
            0 -1 123 -223868782 -92274301 881852498 -74248046
            -2147352402 1345060992 814450847 -202948421</internalNodes>
          <leafValues>
            -5.3258019685745239e-01 5.2272266149520874e-01</leafValues></_>
        <_>
          <internalNodes>
            0 -1 108 -756288894 -718560382 596305429 1936424888
            -825230450 -235007945 621589963 -145772113</internalNodes>
          <leafValues>
            -4.0129393339157104e-01 6.6044658422470093e-01</leafValues></_>
        <_>
          <internalNodes>
            0 -1 117 -1283773978 -851378011 285343875 -771948155
            -1060402757 533120 -1853629813 -80762077</internalNodes>
          <leafValues>
            -5.3191906213760376e-01 5.3648853302001953e-01</leafValues></_>
        <_>
          <internalNodes>
            0 -1 78 -743716438 -652048576 -1066522478 1406176521
            -1290305316 -863041727 -954986277 -1023221229</internalNodes>
          <leafValues>
            -4.2845591902732849e-01 6.1123526096343994e-01</leafValues></_></weakClassifiers></_>
    <!-- stage 4 -->
    <_>
      <maxWeakCount>7</maxWeakCount>
      <stageThreshold>-3.9151844382286072e-01</stageThreshold>
      <weakClassifiers>
        <_>
          <internalNodes>
            0 -1 168 -1100242816 -2137254899 574005986 -1432507448
            -1215625336 1145376778 -1302888535 -677399073</internalNodes>
          <leafValues>
            -3.2071712613105774e-01 6.6232466697692871e-01</leafValues></_>
        <_>
          <internalNodes>
            0 -1 32 1708097827 922992931 -1073659623 520565107
            2017993103 7409670 -523347713 857062367</internalNodes>
          <leafValues>
            -5.9242260456085205e-01 4.5311161875724792e-01</leafValues></_>
        <_>
          <internalNodes>
            0 -1 90 -637674120 -781483794 -1004330099 -574680948
            -930706264 -1958215135 17713615 -607656153</internalNodes>
          <leafValues>
            -4.8494794964790344e-01 4.8803797364234924e-01</leafValues></_>
        <_>
          <internalNodes>
            0 -1 75 -1148999990 2030764552 135705 -647787837 76251530
            -1400897304 327889051 -607139445</internalNodes>
          <leafValues>
            -4.8487511277198792e-01 4.8311868309974670e-01</leafValues></_>
        <_>
          <internalNodes>
            0 -1 150 1281148410 1521029634 1342259260 2098855943
            1145078268 167772416 -1735382533 -7655390</internalNodes>
          <leafValues>
            -4.8743516206741333e-01 4.8865145444869995e-01</leafValues></_>
        <_>
          <internalNodes>
            0 -1 180 -191725568 -208459182 -340947368 -721084062
            -1526619974 -2044453300 549039823 -609496913</internalNodes>
          <leafValues>
            -3.9639943838119507e-01 6.5585780143737793e-01</leafValues></_>
        <_>
          <internalNodes>
            0 -1 93 -792017720 -716144192 1439111583 1997202452
            -795684358 -2104489856 -1381461558 -2007953406</internalNodes>
          <leafValues>
            -5.4178738594055176e-01 4.6023783087730408e-01</leafValues></_></weakClassifiers></_>
    <!-- stage 5 -->
    <_>
      <maxWeakCount>7</maxWeakCount>
      <stageThreshold>-5.6476509571075439e-01</stageThreshold>
      <weakClassifiers>
        <_>
          <internalNodes>
            0 -1 25 -495991808 -13774 -872437487 -4097 241124480
            1466892288 1442252036 1610603517</internalNodes>
          <leafValues>
            -4.7862067818641663e-01 5.9208792448043823e-01</leafValues></_>
        <_>
          <internalNodes>
            0 -1 170 -4216662 -1327289759 711802485 -1153978501
            -452992868 -1548417925 -570962180 -6305061</internalNodes>
          <leafValues>
            -3.5847926139831543e-01 6.0512083768844604e-01</leafValues></_>
        <_>
          <internalNodes>
            0 -1 68 -564201573 -258480486 -1878719439 -1340070120
            -800711489 -240599017 -1312341461 806336035</internalNodes>
          <leafValues>
            -5.1935166120529175e-01 4.7811070084571838e-01</leafValues></_>
        <_>
          <internalNodes>
            0 -1 87 -1579768 1653473538 -1354694632 -1244720998
            -894951320 269090824 -1859973061 -68707829</internalNodes>
          <leafValues>
            -5.0584614276885986e-01 4.8674207925796509e-01</leafValues></_>
        <_>
          <internalNodes>
            0 -1 144 1648334782 1904427039 295764296 483132043 730016683
            1778458816 983237291 -48250146</internalNodes>
          <leafValues>
            -6.0566037893295288e-01 3.6643019318580627e-01</leafValues></_>
        <_>
          <internalNodes>
            0 -1 83 -1564366014 -1258254016 6828160 -251309481
            -1069357940 -2113925104 105091069 -1849955381</internalNodes>
          <leafValues>
            -5.1116067171096802e-01 4.5892524719238281e-01</leafValues></_>
        <_>
          <internalNodes>
            0 -1 168 -532182656 -770572028 268533779 -1575383011
            -1333188664 -1258274812 -478003063 -89656289</internalNodes>
          <leafValues>
            -5.1995557546615601e-01 4.7866296768188477e-01</leafValues></_></weakClassifiers></_>
    <!-- stage 6 -->
    <_>
      <maxWeakCount>7</maxWeakCount>
      <stageThreshold>-5.4979497194290161e-01</stageThreshold>
      <weakClassifiers>
        <_>
          <internalNodes>
            0 -1 143 -974148338 -804027382 303288324 1362575489 12878400
            688384 894989100 2040484779</internalNodes>
          <leafValues>
            -6.1081081628799438e-01 5.4764825105667114e-01</leafValues></_>
        <_>
          <internalNodes>
            0 -1 7 -725174584 1598699905 -2063596407 -648945449
            -623935346 12 -519724807 2133041931</internalNodes>
          <leafValues>
            -5.3976368904113770e-01 4.2435690760612488e-01</leafValues></_>
        <_>
          <internalNodes>
            0 -1 74 -578100536 -503185406 -1874800456 -620675013
            -398335870 -2134540160 176193 -884754357</internalNodes>
          <leafValues>
            -4.6932190656661987e-01 4.7666198015213013e-01</leafValues></_>
        <_>
          <internalNodes>
            0 -1 185 -785131494 1996728458 352360501 421069354
            -2034853141 1748843630 -25167873 -268435721</internalNodes>
          <leafValues>
            -4.2959594726562500e-01 5.4565662145614624e-01</leafValues></_>
        <_>
          <internalNodes>
            0 -1 131 -52496141 -1663413749 -803155692 680571714
            -934072113 1887649795 1929779723 575889971</internalNodes>
          <leafValues>
            -5.9686690568923950e-01 3.7918755412101746e-01</leafValues></_>
        <_>
          <internalNodes>
            0 -1 163 -24403136 -710538522 127345268 -644167809
            -714747255 -978476319 1179223788 -1409315348</internalNodes>
          <leafValues>
            -4.1270098090171814e-01 5.9090763330459595e-01</leafValues></_>
        <_>
          <internalNodes>
            0 -1 193 -1186946544 1392516608 2104632449 -1870582687
            -325081927 -1783427133 -1198516837 -1549021205</internalNodes>
          <leafValues>
            -4.0303611755371094e-01 5.6989204883575439e-01</leafValues></_></weakClassifiers></_>
    <!-- stage 7 -->
    <_>
      <maxWeakCount>8</maxWeakCount>
      <stageThreshold>-4.5766213536262512e-01</stageThreshold>
      <weakClassifiers>
        <_>
          <internalNodes>
            0 -1 69 -419474558 1425957391 -1073777289 813593948
            1475867554 1364277085 1609917877 -201335299</internalNodes>
          <leafValues>
            -2.2201834619045258e-01 6.5026175975799561e-01</leafValues></_>
        <_>
          <internalNodes>
            0 -1 172 -69026294 -662162920 1680081136 1910891171
            -1094745153 -1254146690 1975455581 -4211201</internalNodes>
          <leafValues>
            -3.4573814272880554e-01 5.5454516410827637e-01</leafValues></_>
        <_>
          <internalNodes>
            0 -1 56 -218392894 -252655438 69357608 17156070 -1681929304
            211820910 -790644822 -145752421</internalNodes>
          <leafValues>
            -4.0412327647209167e-01 5.3305476903915405e-01</leafValues></_>
        <_>
          <internalNodes>
            0 -1 88 -1285955398 -1093343602 -784695288 -171856354
            -2038131158 806386794 -250443509 -68423717</internalNodes>
          <leafValues>
            -3.9446321129798889e-01 5.5574494600296021e-01</leafValues></_>
        <_>
          <internalNodes>
            0 -1 71 -536092438 -770932725 1114139 1526894675 682155
            -1978138492 1208161983 -618822209</internalNodes>
          <leafValues>
            -4.8248890042304993e-01 4.5885148644447327e-01</leafValues></_>
        <_>
          <internalNodes>
            0 -1 62 -715132278 -170062640 -1700262640 -73691910
            -1464904304 -1059963160 -322271239 -83134497</internalNodes>
          <leafValues>
            -3.4222513437271118e-01 6.6550016403198242e-01</leafValues></_>
        <_>
          <internalNodes>
            0 -1 24 -581110449 -61751159 -1879045371 1024083968
            -238970693 -1199046520 -1061647476 1073828422</internalNodes>
          <leafValues>
            -4.8660212755203247e-01 4.7938299179077148e-01</leafValues></_>
        <_>
          <internalNodes>
            0 -1 112 -924141030 1918436065 1778589704 1351286913
            1938017158 -1945892733 1506578283 -48719701</internalNodes>
          <leafValues>
            -4.9390679597854614e-01 4.7528624534606934e-01</leafValues></_></weakClassifiers></_>
    <!-- stage 8 -->
    <_>
      <maxWeakCount>7</maxWeakCount>
      <stageThreshold>-7.1667140722274780e-01</stageThreshold>
      <weakClassifiers>
        <_>
          <internalNodes>
            0 -1 125 -1202143072 -67416964 160959120 -1951533315
            201856700 -40872578 -1615085905 -1145108513</internalNodes>
          <leafValues>
            -1.6942474246025085e-01 7.0190638303756714e-01</leafValues></_>
        <_>
          <internalNodes>
            0 -1 123 -507360974 -85376875 289735568 -178835389
            1074397824 -794680313 -1298509138 -174628549</internalNodes>
          <leafValues>
            -4.5523652434349060e-01 4.7808927297592163e-01</leafValues></_>
        <_>
          <internalNodes>
            0 -1 153 -2036292886 -1463222200 470483614 -164920149
            21140922 -1332688252 177146027 -173145269</internalNodes>
          <leafValues>
            -4.5347970724105835e-01 4.8456886410713196e-01</leafValues></_>
        <_>
          <internalNodes>
            0 -1 108 -523245950 -752688384 -1484065276 -209502491
            -942757906 -797535211 -712059446 -370419314</internalNodes>
          <leafValues>
            -3.6780077219009399e-01 6.0890084505081177e-01</leafValues></_>
        <_>
          <internalNodes>
            0 -1 141 -373295414 -915526936 -470326351 -740652452
            -738994742 598690856 -1677770241 -2373681</internalNodes>
          <leafValues>
            -3.8939628005027771e-01 6.4623492956161499e-01</leafValues></_>
        <_>
          <internalNodes>
            0 -1 194 -792476956 -746304512 1219742440 -718141114
            -1489329992 -1049221390 -1609912950 -1968209489</internalNodes>
          <leafValues>
            -3.6051434278488159e-01 6.3488131761550903e-01</leafValues></_>
        <_>
          <internalNodes>
            0 -1 174 -1163416918 -720223578 208473092 -1781775261
            1003711406 -447121949 -1311264869 -1140870657</internalNodes>
          <leafValues>
            -3.6885178089141846e-01 6.2812334299087524e-01</leafValues></_></weakClassifiers></_>
    <!-- stage 9 -->
    <_>
      <maxWeakCount>8</maxWeakCount>
      <stageThreshold>-6.7721754312515259e-01</stageThreshold>
      <weakClassifiers>
        <_>
          <internalNodes>
            0 -1 147 1061107682 -806387717 -1577046 65250286 732984816
            1064775667 -69732901 -1089339941</internalNodes>
          <leafValues>
            -2.3965351283550262e-01 6.3691991567611694e-01</leafValues></_>
        <_>
          <internalNodes>
            0 -1 113 -101974494 1610514218 -1463817694 2147155965
            -4575358 1580932875 809496754 -577503235</internalNodes>
          <leafValues>
            -4.4023427367210388e-01 4.9596565961837769e-01</leafValues></_>
        <_>
          <internalNodes>
            0 -1 143 -436226962 -453593090 -134218132 -201327111
            -2033413440 -253757489 -136316932 -203423809</internalNodes>
          <leafValues>
            -3.4317976236343384e-01 5.9775203466415405e-01</leafValues></_>
        <_>
          <internalNodes>
            0 -1 117 -1390470898 -215529280 -1929105143 1536151624
            -720700654 -1857780728 -1625134385 -82198877</internalNodes>
          <leafValues>
            -5.4036784172058105e-01 4.1309246420860291e-01</leafValues></_>
        <_>
          <internalNodes>
            0 -1 110 -155789118 -494735186 -1233668760 -177475408
            -1408762458 -460327419 -799679470 -218104326</internalNodes>
          <leafValues>
            -4.3223679065704346e-01 5.1933753490447998e-01</leafValues></_>
        <_>
          <internalNodes>
            0 -1 120 -238162760 202745181 16810493 222668939 -713029484
            330467335 -796322161 -608460374</internalNodes>
          <leafValues>
            -6.3278800249099731e-01 3.5338601469993591e-01</leafValues></_>
        <_>
          <internalNodes>
            0 -1 189 -8805750 2068740608 1797655200 855854199
            -2142396278 -266429004 -189805687 -68440413</internalNodes>
          <leafValues>
            -3.7544825673103333e-01 5.8202737569808960e-01</leafValues></_>
        <_>
          <internalNodes>
            0 -1 168 -1370845976 -1333264052 -2097119080 -659505150
            -1760911224 1348468742 -720789362 -1577332278</internalNodes>
          <leafValues>
            -4.5893254876136780e-01 4.6872168779373169e-01</leafValues></_></weakClassifiers></_>
    <!-- stage 10 -->
    <_>
      <maxWeakCount>8</maxWeakCount>
      <stageThreshold>-6.2241023778915405e-01</stageThreshold>
      <weakClassifiers>
        <_>
          <internalNodes>
            0 -1 156 1526202376 -540224300 -92559663 870575572 502825148
            -1657743236 -18887426 -18121347</internalNodes>
          <leafValues>
            -1.5492957830429077e-01 6.6201895475387573e-01</leafValues></_>
        <_>
          <internalNodes>
            0 -1 121 -2675932 -273454302 -546098605 -12584269 1808859693
            204515125 -11272225 -8390658</internalNodes>
          <leafValues>
            -3.6380231380462646e-01 5.1441806554794312e-01</leafValues></_>
        <_>
          <internalNodes>
            0 -1 80 859021322 -607147063 662663720 -210764069 926658945
            -999294993 -104869671 -79954241</internalNodes>
          <leafValues>
            -4.1607102751731873e-01 4.6443617343902588e-01</leafValues></_>
        <_>
          <internalNodes>
            0 -1 170 -508708824 815966753 -277057935 -1145197702
            -989876092 -1556247366 -536875312 -270537777</internalNodes>
          <leafValues>
            -4.2932200431823730e-01 4.5578926801681519e-01</leafValues></_>
        <_>
          <internalNodes>
            0 -1 76 -1488115328 -242151407 -1946513103 -1252942869
            805851818 808140908 -124632189 -116759317</internalNodes>
          <leafValues>
            -5.5862635374069214e-01 3.6821386218070984e-01</leafValues></_>
        <_>
          <internalNodes>
            0 -1 137 -1022029182 1942405252 537424275 1082951686
            -2012553047 -498489292 553664752 -1419865908</internalNodes>
          <leafValues>
            -4.5052623748779297e-01 4.5919656753540039e-01</leafValues></_>
        <_>
          <internalNodes>
            0 -1 147 285365094 197198299 -2119678502 193036461
            -1736383088 -341685621 -1414551829 -1076254261</internalNodes>
          <leafValues>
            -4.4245678186416626e-01 4.6731492877006531e-01</leafValues></_>
        <_>
          <internalNodes>
            0 -1 86 -136754979 397880555 -406911433 1207955327 530115768
            -570990316 -678490337 1467973631</internalNodes>
          <leafValues>
            -4.2868512868881226e-01 5.5013537406921387e-01</leafValues></_></weakClassifiers></_>
    <!-- stage 11 -->
    <_>
      <maxWeakCount>9</maxWeakCount>
      <stageThreshold>-1.0445339679718018e+00</stageThreshold>
      <weakClassifiers>
        <_>
          <internalNodes>
            0 -1 139 1874553066 2054945523 1065303593 1002388080
            717163583 1799323005 930554144 -75556017</internalNodes>
          <leafValues>
            -3.2515338063240051e-01 5.7894736528396606e-01</leafValues></_>
        <_>
          <internalNodes>
            0 -1 125 -2013265728 -103446960 -1952406504 -1719012927
            201331376 -92272090 -1411765445 -1146656179</internalNodes>
          <leafValues>
            -4.4497892260551453e-01 4.0840613842010498e-01</leafValues></_>
        <_>
          <internalNodes>
            0 -1 105 585800088 -2086098414 195001337 -762264705 84051430
            454505239 116787455 -471083541</internalNodes>
          <leafValues>
            -3.6134520173072815e-01 4.8731657862663269e-01</leafValues></_>
        <_>
          <internalNodes>
            0 -1 115 1901548395 2147284357 536302859 2138553727
            1970481451 1609848224 -143329439 -537399873</internalNodes>
          <leafValues>
            -3.2783159613609314e-01 5.7608366012573242e-01</leafValues></_>
        <_>
          <internalNodes>
            0 -1 170 -1097889622 629146129 1262511684 39014735
            -2126413606 -937133920 -15629108 -551821078</internalNodes>
          <leafValues>
            -5.2324223518371582e-01 3.8441133499145508e-01</leafValues></_>
        <_>
          <internalNodes>
            0 -1 155 -461142612 1437325853 -2113697607 -582769658
            1286310330 -1800576758 -34805592 -854620063</internalNodes>
          <leafValues>
            -4.7395518422126770e-01 3.7943601608276367e-01</leafValues></_>
        <_>
          <internalNodes>
            0 -1 184 -38806854 -238392594 -1529343317 -126261156
            -186652949 -2041633722 -18363154 -90461209</internalNodes>
          <leafValues>
            -2.7898707985877991e-01 6.6478204727172852e-01</leafValues></_>
        <_>
          <internalNodes>
            0 -1 111 -1178714390 1238570696 1883584034 2002010433
            -1975384054 411638408 436296050 -11929916</internalNodes>
          <leafValues>
            -5.6451457738876343e-01 3.7491112947463989e-01</leafValues></_>
        <_>
          <internalNodes>
            0 -1 81 -681590590 -816488093 632031488 -43595 -1216806206
            255846327 1194306427 -71387145</internalNodes>
          <leafValues>
            -4.4559517502784729e-01 4.8420670628547668e-01</leafValues></_></weakClassifiers></_>
    <!-- stage 12 -->
    <_>
      <maxWeakCount>8</maxWeakCount>
      <stageThreshold>-7.5080436468124390e-01</stageThreshold>
      <weakClassifiers>
        <_>
          <internalNodes>
            0 -1 127 67339424 854073792 -1734182280 -620724092 19973296
            -802157035 1602919338 -83095536</internalNodes>
          <leafValues>
            -2.5000000000000000e-01 5.9134614467620850e-01</leafValues></_>
        <_>
          <internalNodes>
            0 -1 59 -570959062 -182035216 -1740099320 -241892224
            1841005462 3145826 -173741381 -16449</internalNodes>
          <leafValues>
            -2.8612625598907471e-01 5.9594684839248657e-01</leafValues></_>
        <_>
          <internalNodes>
            0 -1 91 734580736 -205459928 169875504 -481693649 1290280848
            390612718 -574710117 -70518797</internalNodes>
          <leafValues>
            -4.2027533054351807e-01 4.7933572530746460e-01</leafValues></_>
        <_>
          <internalNodes>
            0 -1 176 -1705739224 -753893688 -838819976 -8352291
            -1073778774 -33559315 -1649803298 -1075057523</internalNodes>
          <leafValues>
            -3.7231239676475525e-01 5.1124989986419678e-01</leafValues></_>
        <_>
          <internalNodes>
            0 -1 151 -1314874112 969020688 -83031804 -19488383 180626954
            27477143 -1325458711 -35735837</internalNodes>
          <leafValues>
            -6.9145357608795166e-01 2.6130443811416626e-01</leafValues></_>
        <_>
          <internalNodes>
            0 -1 157 -1742061560 -1844379234 -2112845658 2100756753
            -2142240750 28230280 -2001311558 -339041744</internalNodes>
          <leafValues>
            -4.7414106130599976e-01 4.0187069773674011e-01</leafValues></_>
        <_>
          <internalNodes>
            0 -1 118 1246412184 -344873320 1087992412 -1013792356
            -188420496 1474953377 -947330972 -25115975</internalNodes>
          <leafValues>
            -4.8127609491348267e-01 4.3346652388572693e-01</leafValues></_>
        <_>
          <internalNodes>
            0 -1 95 -1413476776 -775192493 -1027580979 -1080411848
            -1048292694 1092882508 -523614200 -1792126183</internalNodes>
          <leafValues>
            -4.4953638315200806e-01 4.4181627035140991e-01</leafValues></_></weakClassifiers></_>
    <!-- stage 13 -->
    <_>
      <maxWeakCount>10</maxWeakCount>
      <stageThreshold>-6.3098126649856567e-01</stageThreshold>
      <weakClassifiers>
        <_>
          <internalNodes>
            0 -1 16 -140579192 -171704438 -545268083 -141562017
            1207952028 1090589952 -704653841 1465234383</internalNodes>
          <leafValues>
            -1.9090908765792847e-01 6.3684213161468506e-01</leafValues></_>
        <_>
          <internalNodes>
            0 -1 125 -925327360 -613720724 999956680 -1969226005
            348660892 -49154753 -1078280257 -4489929</internalNodes>
          <leafValues>
            -3.9624089002609253e-01 4.5935449004173279e-01</leafValues></_>
        <_>
          <internalNodes>
            0 -1 89 394090970 -1267887606 1324891316 -677683105
            269226365 -1341036391 998872351 -1260949014</internalNodes>
          <leafValues>
            -4.5288091897964478e-01 3.8638061285018921e-01</leafValues></_>
        <_>
          <internalNodes>
            0 -1 53 -234901878 -565526101 926308 1520574311 -1951421550
            55037191 134197711 -671625225</internalNodes>
          <leafValues>
            -3.8567176461219788e-01 4.5836704969406128e-01</leafValues></_>
        <_>
          <internalNodes>
            0 -1 128 -796778876 -379898 -1295354632 -81458929
            -2111260056 -1762185380 -372761569 -68204245</internalNodes>
          <leafValues>
            -3.7132772803306580e-01 4.9476927518844604e-01</leafValues></_>
        <_>
          <internalNodes>
            0 -1 42 -1063530258 -196296344 -1210862884 -549429142
            33602464 -1020984985 1619250376 -16621409</internalNodes>
          <leafValues>
            -4.2289572954177856e-01 4.4881066679954529e-01</leafValues></_>
        <_>
          <internalNodes>
            0 -1 29 -28321905 -273737943 -1920874231 -464525140
            -1867452841 1514601922 -319086591 1088774150</internalNodes>
          <leafValues>
            -6.1782234907150269e-01 3.0241015553474426e-01</leafValues></_>
        <_>
          <internalNodes>
            0 -1 159 -576518144 -1027332174 -1174639288 286570568
            1617108 -1761968192 -2080494185 -1160805201</internalNodes>
          <leafValues>
            -4.1683828830718994e-01 4.7383892536163330e-01</leafValues></_>
        <_>
          <internalNodes>
            0 -1 109 -71592574 -805597213 1979334463 -549810244 -4457798
            2147169215 1534824763 -608193539</internalNodes>
          <leafValues>
            -3.7975928187370300e-01 4.8925748467445374e-01</leafValues></_>
        <_>
          <internalNodes>
            0 -1 78 -1950372566 -101527904 -2115032946 -56144117
            522128797 -1943072817 -1921109505 -18050347</internalNodes>
          <leafValues>
            -4.3947574496269226e-01 4.7553068399429321e-01</leafValues></_></weakClassifiers></_>
    <!-- stage 14 -->
    <_>
      <maxWeakCount>10</maxWeakCount>
      <stageThreshold>-6.6915541887283325e-01</stageThreshold>
      <weakClassifiers>
        <_>
          <internalNodes>
            0 -1 35 -34866752 -639507887 -1084260524 89505637 -692081467
            155471365 1442149596 1163352013</internalNodes>
          <leafValues>
            -2.7590513229370117e-01 5.5525237321853638e-01</leafValues></_>
        <_>
          <internalNodes>
            0 -1 101 -897135741 -234096160 -277611633 -94716097
            873437577 -161590345 -941849395 -101721889</internalNodes>
          <leafValues>
            -2.6163053512573242e-01 5.6101900339126587e-01</leafValues></_>
        <_>
          <internalNodes>
            0 -1 92 1028247570 1427509328 -288861092 1607017916
            -1370967394 1482358920 272404911 2066424766</internalNodes>
          <leafValues>
            -4.8775303363800049e-01 3.4021285176277161e-01</leafValues></_>
        <_>
          <internalNodes>
            0 -1 123 1435124496 13193295 -251590208 -578808832
            1433873678 -266198400 -1154483782 -554085589</internalNodes>
          <leafValues>
            -4.7123101353645325e-01 3.4696912765502930e-01</leafValues></_>
        <_>
          <internalNodes>
            0 -1 171 -144969992 -261210782 -929267849 -788321329
            929050500 -1074761857 536690687 -1</internalNodes>
          <leafValues>
            -3.9862692356109619e-01 4.6282112598419189e-01</leafValues></_>
        <_>
          <internalNodes>
            0 -1 87 2102176104 -1294061986 1232404540 2135383804
            -522534750 1955884927 -537696161 -147665</internalNodes>
          <leafValues>
            -3.8805720210075378e-01 4.5117157697677612e-01</leafValues></_>
        <_>
          <internalNodes>
            0 -1 39 -168848146 -123336960 -2116278691 -72636460
            -376721174 172098442 96838826 -69214277</internalNodes>
          <leafValues>
            -3.1703811883926392e-01 5.6716108322143555e-01</leafValues></_>
        <_>
          <internalNodes>
            0 -1 62 -1235136320 1658727538 142657616 1004121200
            -198328288 1033795322 -79654990 -72689701</internalNodes>
          <leafValues>
            -3.9694839715957642e-01 4.5565429329872131e-01</leafValues></_>
        <_>
          <internalNodes>
            0 -1 150 88491894 1963365790 -1744170736 -578207438
            -1706954290 -1190076312 581448460 -87359104</internalNodes>
          <leafValues>
            -4.3666681647300720e-01 4.0929216146469116e-01</leafValues></_>
        <_>
          <internalNodes>
            0 -1 44 -85789359 -544209792 -1860922975 -1953824352
            -125145746 -1868887333 -527210496 8274502</internalNodes>
          <leafValues>
            -5.8321756124496460e-01 3.1014022231101990e-01</leafValues></_></weakClassifiers></_>
    <!-- stage 15 -->
    <_>
      <maxWeakCount>9</maxWeakCount>
      <stageThreshold>-6.5322977304458618e-01</stageThreshold>
      <weakClassifiers>
        <_>
          <internalNodes>
            0 -1 147 418585056 144917137 -790383990 60924546 986776032
            788922754 952300251 823261323</internalNodes>
          <leafValues>
            -6.8733155727386475e-01 4.7736781835556030e-01</leafValues></_>
        <_>
          <internalNodes>
            0 -1 142 -134220074 -67126540 1342129886 2002778457
            -1409315384 926342653 -252643904 -10785</internalNodes>
          <leafValues>
            -2.9284963011741638e-01 5.5983138084411621e-01</leafValues></_>
        <_>
          <internalNodes>
            0 -1 117 -1073759930 -445157404 -1221712991 -805994507
            -142615733 -1034754201 -1750602837 -545521805</internalNodes>
          <leafValues>
            -3.8139465451240540e-01 4.1196170449256897e-01</leafValues></_>
        <_>
          <internalNodes>
            0 -1 79 -1152306222 -783687448 -1001233574 291726273
            2030276522 -1878381927 1712431055 -622075669</internalNodes>
          <leafValues>
            -4.2855939269065857e-01 3.9493173360824585e-01</leafValues></_>
        <_>
          <internalNodes>
            0 -1 158 -256360752 -189220764 -536998793 -575197393
            -2085942212 -981998466 -115313491 -539289173</internalNodes>
          <leafValues>
            -3.5947760939598083e-01 5.1976931095123291e-01</leafValues></_>
        <_>
          <internalNodes>
            0 -1 178 -216366928 1101145700 -1359694282 -1056498579
            -1083900188 1427705852 -1090779238 -271646599</internalNodes>
          <leafValues>
            -4.0737265348434448e-01 4.6643832325935364e-01</leafValues></_>
        <_>
          <internalNodes>
            0 -1 133 -744303870 1646563856 -1003972163 1833448026
            -226454368 -232153054 1623853969 2001725388</internalNodes>
          <leafValues>
            -5.3942984342575073e-01 3.2887446880340576e-01</leafValues></_>
        <_>
          <internalNodes>
            0 -1 156 1260940840 -238939512 282199376 -360057664
            -1920944070 -645881701 -1135636257 1051396893</internalNodes>
          <leafValues>
            -5.4386681318283081e-01 3.4317684173583984e-01</leafValues></_>
        <_>
          <internalNodes>
            0 -1 22 -261715137 573252779 527761005 1869950583 1423757054
            -463634697 1150490370 -1634474927</internalNodes>
          <leafValues>
            -4.2298936843872070e-01 4.4614478945732117e-01</leafValues></_></weakClassifiers></_>
    <!-- stage 16 -->
    <_>
      <maxWeakCount>9</maxWeakCount>
      <stageThreshold>-1.0895707607269287e+00</stageThreshold>
      <weakClassifiers>
        <_>
          <internalNodes>
            0 -1 173 -981430654 27273290 -2138303809 -1379033891
            -1211806219 2146877431 2147450879 1576402807</internalNodes>
          <leafValues>
            -2.1293199062347412e-01 5.6633383035659790e-01</leafValues></_>
        <_>
          <internalNodes>
            0 -1 110 -328861042 -1568343382 1635252386 -985665479
            -1643659381 1984953991 1517674186 -109052425</internalNodes>
          <leafValues>
            -3.4667667746543884e-01 4.1102397441864014e-01</leafValues></_>
        <_>
          <internalNodes>
            0 -1 74 -16057686 -968719862 1738572188 -148307654
            -1982535292 -1341193845 -781025032 -206057882</internalNodes>
          <leafValues>
            -3.7795123457908630e-01 4.0660718083381653e-01</leafValues></_>
        <_>
          <internalNodes>
            0 -1 113 1608235792 1218990852 562823779 529678541
            1954758529 1359626688 1559591568 -41157203</internalNodes>
          <leafValues>
            -4.4874149560928345e-01 3.6183205246925354e-01</leafValues></_>
        <_>
          <internalNodes>
            0 -1 34 -70265334 -14809047 1678256497 241371275 -530519821
            169039010 -2002247507 1786462223</internalNodes>
          <leafValues>
            -4.8829606175422668e-01 3.2447451353073120e-01</leafValues></_>
        <_>
          <internalNodes>
            0 -1 124 -671293126 452505586 -2037677320 -1813446674
            1666354330 401780582 -2143607621 -43181</internalNodes>
          <leafValues>
            -3.7643358111381531e-01 4.0675562620162964e-01</leafValues></_>
        <_>
          <internalNodes>
            0 -1 148 -720904982 -805289856 982220950 2030121034
            -1999598972 1626552566 1208756315 -357891281</internalNodes>
          <leafValues>
            -4.3199554085731506e-01 3.9394962787628174e-01</leafValues></_>
        <_>
          <internalNodes>
            0 -1 78 -1231352406 -732913590 71860439 -568889261 805833673
            134742017 -1038432617 -603994905</internalNodes>
          <leafValues>
            -4.1539239883422852e-01 4.1959840059280396e-01</leafValues></_>
        <_>
          <internalNodes>
            0 -1 123 1889565246 -523288558 -1893334572 -3982768 2296824
            -939351391 -1428685894 -206675320</internalNodes>
          <leafValues>
            -4.4044098258018494e-01 3.7241786718368530e-01</leafValues></_></weakClassifiers></_>
    <!-- stage 17 -->
    <_>
      <maxWeakCount>10</maxWeakCount>
      <stageThreshold>-1.0189086198806763e+00</stageThreshold>
      <weakClassifiers>
        <_>
          <internalNodes>
            0 -1 14 -458576352 -404029509 -855670431 -151126025 72844480
            1298074951 -993132480 -268446347</internalNodes>
          <leafValues>
            -3.5416665673255920e-01 5.3178691864013672e-01</leafValues></_>
        <_>
          <internalNodes>
            0 -1 104 -200102537 -2138139297 -308076684 538102018
            344617039 576874628 1267222603 -202487473</internalNodes>
          <leafValues>
            -4.6687507629394531e-01 3.4650030732154846e-01</leafValues></_>
        <_>
          <internalNodes>
            0 -1 135 1006604382 1405980895 -1062984685 2041532666
            1088226362 114901009 2013811566 -1097473365</internalNodes>
          <leafValues>
            -4.6422451734542847e-01 3.3126986026763916e-01</leafValues></_>
        <_>
          <internalNodes>
            0 -1 83 -1427882038 1397013717 92943136 1232053041
            -2108982342 453126209 970650527 -742524481</internalNodes>
          <leafValues>
            -4.3656161427497864e-01 3.6472120881080627e-01</leafValues></_>
        <_>
          <internalNodes>
            0 -1 144 -424151233 1940353015 -1074061142 532643839
            -1548084453 2134605823 -1086592005 -12583041</internalNodes>
          <leafValues>
            -3.6039102077484131e-01 4.4263920187950134e-01</leafValues></_>
        <_>
          <internalNodes>
            0 -1 61 -238116586 -774614950 1279533067 -19677786
            -1056822878 137435169 -1333284309 -581457617</internalNodes>
          <leafValues>
            -4.6536532044410706e-01 3.5278856754302979e-01</leafValues></_>
        <_>
          <internalNodes>
            0 -1 70 -1837043494 -1279866206 -1086400513 -538460444
            -1331188296 -269484289 1700134241 -540036024</internalNodes>
          <leafValues>
            -3.6938601732254028e-01 4.5931553840637207e-01</leafValues></_>
        <_>
          <internalNodes>
            0 -1 112 -1427168726 -654179581 895693331 -2020978651
            -385645376 347874178 352905554 -1962897304</internalNodes>
          <leafValues>
            -5.6309896707534790e-01 2.9483568668365479e-01</leafValues></_>
        <_>
          <internalNodes>
            0 -1 152 -1647051376 425314696 294208396 59629735 1804276608
            714088673 -1065309957 -266819445</internalNodes>
          <leafValues>
            -5.1002895832061768e-01 3.3842185139656067e-01</leafValues></_>
        <_>
          <internalNodes>
            0 -1 26 -542116957 -1750667745 800045023 2147478015
            -676331579 1171765074 361723207 -35127527</internalNodes>
          <leafValues>
            -3.8735690712928772e-01 4.4685915112495422e-01</leafValues></_></weakClassifiers></_>
    <!-- stage 18 -->
    <_>
      <maxWeakCount>9</maxWeakCount>
      <stageThreshold>-4.9410375952720642e-01</stageThreshold>
      <weakClassifiers>
        <_>
          <internalNodes>
            0 -1 97 -357106057 -1330642945 -160812170 577950258
            2143256414 351764279 1879013181 909523767</internalNodes>
          <leafValues>
            -3.5042735934257507e-01 5.4221063852310181e-01</leafValues></_>
        <_>
          <internalNodes>
            0 -1 153 266481275 -1595888032 536827519 -17891329 102177787
            -235833639 503256381 -46383233</internalNodes>
          <leafValues>
            -3.7420305609703064e-01 4.1464141011238098e-01</leafValues></_>
        <_>
          <internalNodes>
            0 -1 165 -494944385 1954021119 -897916954 818065355
            -537422555 -514066585 2139086678 -1023639692</internalNodes>
          <leafValues>
            -3.4977313876152039e-01 4.6853440999984741e-01</leafValues></_>
        <_>
          <internalNodes>
            0 -1 117 -1350598673 569864164 1067594667 -134145 -545289345
            -749475889 -1614283029 -8536133</internalNodes>
          <leafValues>
            -3.1901621818542480e-01 5.0307720899581909e-01</leafValues></_>
        <_>
          <internalNodes>
            0 -1 3 792540991 -1491159559 2138873849 -1237521435
            1592913271 -1217007905 -570845387 -37692716</internalNodes>
          <leafValues>
            -3.7388759851455688e-01 4.4883343577384949e-01</leafValues></_>
        <_>
          <internalNodes>
            0 -1 111 -1476444502 1118125561 93839200 1578689129
            -522495741 1485836376 1216961651 -381320971</internalNodes>
          <leafValues>
            -5.5526924133300781e-01 3.1498143076896667e-01</leafValues></_>
        <_>
          <internalNodes>
            0 -1 33 -444075030 1574028674 536874129 -1262136996
            1408632757 1383088803 -1322187663 1675521743</internalNodes>
          <leafValues>
            -5.8390349149703979e-01 2.8823098540306091e-01</leafValues></_>
        <_>
          <internalNodes>
            0 -1 23 -1001729153 -199884714 201901159 -537459465
            -1590263760 -1305903008 1933979518 -126652889</internalNodes>
          <leafValues>
            -4.0685170888900757e-01 4.2824074625968933e-01</leafValues></_>
        <_>
          <internalNodes>
            0 -1 170 -1076545493 45484593 -1344904599 708343813
            -459689580 -1304299031 1795741844 -70517789</internalNodes>
          <leafValues>
            -4.8656535148620605e-01 4.0244156122207642e-01</leafValues></_></weakClassifiers></_>
    <!-- stage 19 -->
    <_>
      <maxWeakCount>10</maxWeakCount>
      <stageThreshold>-6.2676244974136353e-01</stageThreshold>
      <weakClassifiers>
        <_>
          <internalNodes>
            0 -1 147 155655138 794912139 -13112596 14877517 866203120
            2088308529 1539805766 772901345</internalNodes>
          <leafValues>
            -6.2531644105911255e-01 4.7869482636451721e-01</leafValues></_>
        <_>
          <internalNodes>
            0 -1 107 -1233293449 1962252287 -4460548 854605420
            2139092855 654278643 2147483516 -449</internalNodes>
          <leafValues>
            -3.6414214968681335e-01 4.1866615414619446e-01</leafValues></_>
        <_>
          <internalNodes>
            0 -1 60 796610042 381687193 219483352 2130820481 1110314078
            1980440841 507054907 -20305841</internalNodes>
          <leafValues>
            -4.4144183397293091e-01 3.7022247910499573e-01</leafValues></_>
        <_>
          <internalNodes>
            0 -1 6 241456981 -1394838421 2097463775 -288956018
            -278458089 -475880697 -89492956 -1398739424</internalNodes>
          <leafValues>
            -4.3354067206382751e-01 3.5813030600547791e-01</leafValues></_>
        <_>
          <internalNodes>
            0 -1 149 -1914970667 -1067466388 -1919118128 10023913
            -1672503279 142775223 -393563485 -1717071830</internalNodes>
          <leafValues>
            -4.4691282510757446e-01 3.5899859666824341e-01</leafValues></_>
        <_>
          <internalNodes>
            0 -1 164 -1170473025 -1090801802 116850359 347517475
            -1220953575 -1489846981 -180888172 -551913957</internalNodes>
          <leafValues>
            -3.5156261920928955e-01 4.5324245095252991e-01</leafValues></_>
        <_>
          <internalNodes>
            0 -1 46 -1090049626 1627468725 -1869084233 814756949
            1100054502 -1321961309 1368933328 -255146819</internalNodes>
          <leafValues>
            -5.2380639314651489e-01 3.2932215929031372e-01</leafValues></_>
        <_>
          <internalNodes>
            0 -1 90 -1679945540 1142010664 -1364262867 -1792585332
            -274593478 95592707 -2086000461 1560240951</internalNodes>
          <leafValues>
            -5.7008945941925049e-01 2.8472039103507996e-01</leafValues></_>
        <_>
          <internalNodes>
            0 -1 122 603158272 1619306764 -517339280 1388696218
            420545792 187870859 219611265 -56890386</internalNodes>
          <leafValues>
            -6.3272917270660400e-01 2.2456975281238556e-01</leafValues></_>
        <_>
          <internalNodes>
            0 -1 125 149972710 460441706 -1727838786 730449109 337140316
            -793760512 1069453263 456920864</internalNodes>
          <leafValues>
            -5.8467471599578857e-01 2.7818387746810913e-01</leafValues></_></weakClassifiers></_>
    <!-- stage 20 -->
    <_>
      <maxWeakCount>11</maxWeakCount>
      <stageThreshold>-6.5806591510772705e-01</stageThreshold>
      <weakClassifiers>
        <_>
          <internalNodes>
            0 -1 106 310931968 1465825281 1073409843 2067757560
            -609714768 1509578580 1930719740 876508127</internalNodes>
          <leafValues>
            -3.5849055647850037e-01 5.0020688772201538e-01</leafValues></_>
        <_>
          <internalNodes>
            0 -1 18 -1543248150 -749371101 -532597379 -1852604331
            -190332221 285822980 1611855873 1599529498</internalNodes>
          <leafValues>
            -4.6523377299308777e-01 3.0350032448768616e-01</leafValues></_>
        <_>
          <internalNodes>
            0 -1 175 831253820 -789003692 70068361 221513612 -34093072
            -101484551 -185798676 -35828623</internalNodes>
          <leafValues>
            -3.6548554897308350e-01 3.7713977694511414e-01</leafValues></_>
        <_>
          <internalNodes>
            0 -1 99 -120269134 -1597456242 -477950969 -1474657774
            1178690327 1645940879 -1177808893 853163577</internalNodes>
          <leafValues>
            -6.1348336935043335e-01 2.1624265611171722e-01</leafValues></_>
        <_>
          <internalNodes>
            0 -1 186 2126235904 302344563 -524448741 7915794 -897458356
            1745012895 -192329576 -1447917205</internalNodes>
          <leafValues>
            -4.6414238214492798e-01 2.6517635583877563e-01</leafValues></_>
        <_>
          <internalNodes>
            0 -1 94 -410160688 509571194 612267343 1436358638
            -1976891362 -1938120742 1199474106 -1545617154</internalNodes>
          <leafValues>
            -3.5657936334609985e-01 3.8932791352272034e-01</leafValues></_>
        <_>
          <internalNodes>
            0 -1 177 -1807889918 117855734 1694834827 -381576465
            -381577058 -112713444 -1116876356 -1417599682</internalNodes>
          <leafValues>
            -3.7725836038589478e-01 3.9374426007270813e-01</leafValues></_>
        <_>
          <internalNodes>
            0 -1 136 1997205370 1099802645 18295869 700793257 1766349121
            -2102663028 -1054793662 -437679930</internalNodes>
          <leafValues>
            -4.3671929836273193e-01 3.2927581667900085e-01</leafValues></_>
        <_>
          <internalNodes>
            0 -1 54 -298977734 -7121088 402719164 1911266253 26182023
            462096483 -257704396 -1040516413</internalNodes>
          <leafValues>
            -3.8474330306053162e-01 4.0063765645027161e-01</leafValues></_>
        <_>
          <internalNodes>
            0 -1 181 1255007158 -253182306 -2098255748 1349793366
            -297813704 1914630839 -1284022370 -1141987150</internalNodes>
          <leafValues>
            -3.5052007436752319e-01 4.3604531884193420e-01</leafValues></_>
        <_>
          <internalNodes>
            0 -1 67 1810602879 -403849621 -139790348 1573385986
            -278938385 -8519706 -299108368 -1066009550</internalNodes>
          <leafValues>
            -3.4973600506782532e-01 4.4418594241142273e-01</leafValues></_></weakClassifiers></_>
    <!-- stage 21 -->
    <_>
      <maxWeakCount>11</maxWeakCount>
      <stageThreshold>-7.4424791336059570e-01</stageThreshold>
      <weakClassifiers>
        <_>
          <internalNodes>
            0 -1 143 -1533168370 -491745056 1154153728 1355059553
            8421952 613196360 269431042 1884974363</internalNodes>
          <leafValues>
            -7.1731448173522949e-01 4.4276776909828186e-01</leafValues></_>
        <_>
          <internalNodes>
            0 -1 134 -480857760 -781307862 -201711618 -349250690
            125158058 -1099048715 -1363524695 -896647472</internalNodes>
          <leafValues>
            -2.9087647795677185e-01 4.4464579224586487e-01</leafValues></_>
        <_>
          <internalNodes>
            0 -1 116 -4065319 1493240608 -59253281 -1342193665
            -1371267651 -21681449 -11153827 -1076363305</internalNodes>
          <leafValues>
            -3.4260037541389465e-01 3.9756506681442261e-01</leafValues></_>
        <_>
          <internalNodes>
            0 -1 161 2128523584 -631265618 1733803831 -2055164065
            106881611 -1558204801 1121445867 -1145510468</internalNodes>
          <leafValues>
            -3.3325842022895813e-01 3.9803427457809448e-01</leafValues></_>
        <_>
          <internalNodes>
            0 -1 185 -649871356 1887570062 83948849 827819670 -632762208
            -1979558582 1887686324 -304161617</internalNodes>
          <leafValues>
            -4.3651977181434631e-01 3.0040639638900757e-01</leafValues></_>
        <_>
          <internalNodes>
            0 -1 30 -947259914 1575555462 -2058740920 474663185
            -1450866051 -2489942 2130746945 1084301924</internalNodes>
          <leafValues>
            -4.8659873008728027e-01 3.0866321921348572e-01</leafValues></_>
        <_>
          <internalNodes>
            0 -1 88 -1593208245 492631630 292225026 1542450707
            -2099476805 427359466 -2138322913 -539773611</internalNodes>
          <leafValues>
            -3.5697117447853088e-01 4.2360004782676697e-01</leafValues></_>
        <_>
          <internalNodes>
            0 -1 57 -389154090 2040858112 1679049028 1970873995
            1230811895 525933585 -39784883 -2771553</internalNodes>
          <leafValues>
            -3.5829433798789978e-01 4.2687430977821350e-01</leafValues></_>
        <_>
          <internalNodes>
            0 -1 174 -1506876422 -287792918 82362453 2026865699
            243556599 -439787392 50417792 -1142971856</internalNodes>
          <leafValues>
            -3.7768772244453430e-01 4.0019133687019348e-01</leafValues></_>
        <_>
          <internalNodes>
            0 -1 100 -422938977 -2079321130 -1066296841 771787153
            -183275088 682106929 704979216 525467796</internalNodes>
          <leafValues>
            -5.3591233491897583e-01 2.8447875380516052e-01</leafValues></_>
        <_>
          <internalNodes>
            0 -1 87 -581042502 -94573604 226232602 801529789 1247339010
            290667 -1641838245 -2638401</internalNodes>
          <leafValues>
            -3.8152995705604553e-01 3.9986935257911682e-01</leafValues></_></weakClassifiers></_>
    <!-- stage 22 -->
    <_>
      <maxWeakCount>12</maxWeakCount>
      <stageThreshold>-7.6623034477233887e-01</stageThreshold>
      <weakClassifiers>
        <_>
          <internalNodes>
            0 -1 138 451911372 -21021478 2147220552 2140929629 250429203
            389364849 1649112916 803175509</internalNodes>
          <leafValues>
            -4.1883766651153564e-01 4.8340663313865662e-01</leafValues></_>
        <_>
          <internalNodes>
            0 -1 126 -539176932 273875408 -1415533416 1901461681
            453280574 -1668767512 348179087 1574823324</internalNodes>
          <leafValues>
            -4.2344039678573608e-01 3.0945873260498047e-01</leafValues></_>
        <_>
          <internalNodes>
            0 -1 15 1960568558 -145588235 -1242074891 -1082131457
            -555232798 1933918336 -710545974 1439169325</internalNodes>
          <leafValues>
            -3.6746656894683838e-01 3.9484012126922607e-01</leafValues></_>
        <_>
          <internalNodes>
            0 -1 164 -268764486 -13648078 1604844795 1456185910
            -214179175 -415627856 121304409 -573642787</internalNodes>
          <leafValues>
            -2.6448234915733337e-01 5.0253969430923462e-01</leafValues></_>
        <_>
          <internalNodes>
            0 -1 52 -1550886881 -1508796387 1132680081 -1266583399
            1132036778 134243218 1368188699 -376899411</internalNodes>
          <leafValues>
            -3.6488392949104309e-01 3.6052468419075012e-01</leafValues></_>
        <_>
          <internalNodes>
            0 -1 84 1893709226 -978354108 185077176 -1900472229
            1837107692 1044448322 1118966568 -142892605</internalNodes>
          <leafValues>
            -3.8745814561843872e-01 3.5365611314773560e-01</leafValues></_>
        <_>
          <internalNodes>
            0 -1 190 1615921236 1368606865 269484279 281228187
            -364182326 -66999762 1800063914 -879820245</internalNodes>
          <leafValues>
            -3.5239228606224060e-01 3.7454429268836975e-01</leafValues></_>
        <_>
          <internalNodes>
            0 -1 187 -29636686 2133552806 808055029 477957313 1046664140
            -446357515 1308436861 -87312897</internalNodes>
          <leafValues>
            -2.7385428547859192e-01 4.8986682295799255e-01</leafValues></_>
        <_>
          <internalNodes>
            0 -1 80 1079083018 620781767 1848217696 1357205909
            1029939913 1112185997 1344381689 951833243</internalNodes>
          <leafValues>
            -6.1801296472549438e-01 2.3284347355365753e-01</leafValues></_>
        <_>
          <internalNodes>
            0 -1 13 2000254237 -463326097 -16814529 -1578250 -1082689666
            738096949 -537459696 -53560268</internalNodes>
          <leafValues>
            -3.7046167254447937e-01 4.1164985299110413e-01</leafValues></_>
        <_>
          <internalNodes>
            0 -1 127 1964359761 1130897732 -1733404610 -585726700
            -1223448653 -1456107588 -1360912456 -618865910</internalNodes>
          <leafValues>
            -3.4990248084068298e-01 4.2159631848335266e-01</leafValues></_>
        <_>
          <internalNodes>
            0 -1 17 579414114 -1018048104 -669975145 -611827478
            1142092005 994052355 -1072379584 -1165303679</internalNodes>
          <leafValues>
            -5.0042879581451416e-01 2.9840621352195740e-01</leafValues></_></weakClassifiers></_>
    <!-- stage 23 -->
    <_>
      <maxWeakCount>11</maxWeakCount>
      <stageThreshold>-6.7851638793945312e-01</stageThreshold>
      <weakClassifiers>
        <_>
          <internalNodes>
            0 -1 114 -1476457688 1740588981 259991536 2139051895
            -1073756412 1061097391 268384255 805261311</internalNodes>
          <leafValues>
            -4.1600000858306885e-01 4.8320001363754272e-01</leafValues></_>
        <_>
          <internalNodes>
            0 -1 86 1983642365 532577466 -810087303 1342143359
            -1115623952 936616383 -1256776417 -403177601</internalNodes>
          <leafValues>
            -3.2761183381080627e-01 3.9540660381317139e-01</leafValues></_>
        <_>
          <internalNodes>
            0 -1 31 -314638910 -2029271853 39338966 -511294616
            1434470437 1077346545 1084457168 1156293090</internalNodes>
          <leafValues>
            -4.9473688006401062e-01 2.6163759827613831e-01</leafValues></_>
        <_>
          <internalNodes>
            0 -1 167 -1051601648 1916967194 -129856105 35685904
            688434297 1841602765 -2002550230 947638347</internalNodes>
          <leafValues>
            -5.1965957880020142e-01 2.4984185397624969e-01</leafValues></_>
        <_>
          <internalNodes>
            0 -1 63 -812853193 2046427070 -819180869 -611639704
            1209718939 -677055105 -1081520966 467391855</internalNodes>
          <leafValues>
            -3.0442646145820618e-01 4.6020442247390747e-01</leafValues></_>
        <_>
          <internalNodes>
            0 -1 20 -970026378 1522733910 -1506336517 -1605009270
            33663862 236322828 1107756037 -1465800541</internalNodes>
          <leafValues>
            -5.1732653379440308e-01 2.5049221515655518e-01</leafValues></_>
        <_>
          <internalNodes>
            0 -1 10 771959087 -1922126444 -92391562 -428087608
            -1653002257 -1106395655 -797566717 -307712332</internalNodes>
          <leafValues>
            -3.4490540623664856e-01 3.9860144257545471e-01</leafValues></_>
        <_>
          <internalNodes>
            0 -1 163 -336857150 -714699784 664236655 1379028711
            -149040388 -961167247 1574013996 -1105269539</internalNodes>
          <leafValues>
            -3.3316344022750854e-01 4.2011919617652893e-01</leafValues></_>
        <_>
          <internalNodes>
            0 -1 38 -278460046 588415700 591397425 1967199202 1886503832
            -501894996 -1432198725 -1431158600</internalNodes>
          <leafValues>
            -3.3420148491859436e-01 4.2696395516395569e-01</leafValues></_>
        <_>
          <internalNodes>
            0 -1 89 -445941266 887685510 1477785844 -694414543 84431309
            -1810694124 -26736325 -1146465589</internalNodes>
          <leafValues>
            -4.2988058924674988e-01 3.3103889226913452e-01</leafValues></_>
        <_>
          <internalNodes>
            0 -1 129 -1364170992 -1367084657 -1205779599 -1190902878
            -251617539 -398553079 -2027714544 -1067393024</internalNodes>
          <leafValues>
            -5.0575667619705200e-01 2.9543492197990417e-01</leafValues></_></weakClassifiers></_>
    <!-- stage 24 -->
    <_>
      <maxWeakCount>12</maxWeakCount>
      <stageThreshold>-6.9914418458938599e-01</stageThreshold>
      <weakClassifiers>
        <_>
          <internalNodes>
            0 -1 140 -1703298509 -1845494791 -1090520207 -1876230534
            1702241554 544568681 1476097815 1078649471</internalNodes>
          <leafValues>
            -2.7922970056533813e-01 5.2925646305084229e-01</leafValues></_>
        <_>
          <internalNodes>
            0 -1 176 -1375720944 319838352 -989819844 187065613
            858471146 350847104 -2012611111 700403917</internalNodes>
          <leafValues>
            -5.5139070749282837e-01 2.6045015454292297e-01</leafValues></_>
        <_>
          <internalNodes>
            0 -1 113 -195559646 339882148 949997682 147407242
            -1524036606 1477517472 1080455346 1400924901</internalNodes>
          <leafValues>
            -6.4728981256484985e-01 2.0981651544570923e-01</leafValues></_>
        <_>
          <internalNodes>
            0 -1 4 1059597087 -1826425901 1346472639 -793992262
            2023873279 -473708912 -490225993 -124745876</internalNodes>
          <leafValues>
            -3.5535758733749390e-01 3.5476887226104736e-01</leafValues></_>
        <_>
          <internalNodes>
            0 -1 40 -2113658366 1694240782 -899645224 -850500314
            1413612716 -1246224206 942153263 2104976862</internalNodes>
          <leafValues>
            -5.6481343507766724e-01 2.2538760304450989e-01</leafValues></_>
        <_>
          <internalNodes>
            0 -1 195 1791842353 -748345505 -1082629157 996428634
            -1521057132 2147415573 -1445140514 -1201353982</internalNodes>
          <leafValues>
            -3.4813544154167175e-01 3.8538023829460144e-01</leafValues></_>
        <_>
          <internalNodes>
            0 -1 169 -148673822 302396482 134237701 -1412747055
            1690597041 276062272 1078206475 759485542</internalNodes>
          <leafValues>
            -5.6047368049621582e-01 2.4032135307788849e-01</leafValues></_>
        <_>
          <internalNodes>
            0 -1 45 -575801357 1788969666 -805158910 -407730167
            1527085911 -2109538125 -1207418334 1215974282</internalNodes>
          <leafValues>
            -4.4023019075393677e-01 3.3948117494583130e-01</leafValues></_>
        <_>
          <internalNodes>
            0 -1 9 -270538962 1799980292 -1080962389 -1136556031
            2027804927 -140037986 -2068982315 -486329854</internalNodes>
          <leafValues>
            -3.5761943459510803e-01 4.0550822019577026e-01</leafValues></_>
        <_>
          <internalNodes>
            0 -1 90 -644377208 45160536 545728046 -552968178 -888991862
            146950163 218760975 1508141859</internalNodes>
          <leafValues>
            -5.7684528827667236e-01 2.6256600022315979e-01</leafValues></_>
        <_>
          <internalNodes>
            0 -1 182 -703072514 -158190967 931084019 -800397269
            1928244223 -1272853771 871036562 -808718338</internalNodes>
          <leafValues>
            -2.9628014564514160e-01 5.0845038890838623e-01</leafValues></_>
        <_>
          <internalNodes>
            0 -1 150 1292857334 302617861 -59178662 1535134272
            -1979653212 395321411 -1528821723 -121360363</internalNodes>
          <leafValues>
            -5.0987613201141357e-01 3.0287641286849976e-01</leafValues></_></weakClassifiers></_>
    <!-- stage 25 -->
    <_>
      <maxWeakCount>13</maxWeakCount>
      <stageThreshold>-5.5527943372726440e-01</stageThreshold>
      <weakClassifiers>
        <_>
          <internalNodes>
            0 -1 109 1639509378 1337625323 401801002 1528416941
            2143218330 527115034 1400583451 2075908785</internalNodes>
          <leafValues>
            -2.0205920934677124e-01 5.2046781778335571e-01</leafValues></_>
        <_>
          <internalNodes>
            0 -1 146 -72201733 -1197802949 1986506503 -794632453
            -396405385 811987423 -4722842 -856764929</internalNodes>
          <leafValues>
            -2.8257665038108826e-01 3.9749154448509216e-01</leafValues></_>
        <_>
          <internalNodes>
            0 -1 66 1700961911 737148516 -135507151 -1648409501 -5259845
            2143024086 -1497499878 -1674099630</internalNodes>
          <leafValues>
            -2.6056113839149475e-01 4.5762765407562256e-01</leafValues></_>
        <_>
          <internalNodes>
            0 -1 91 997671002 -757731668 1731204336 -1287917317
            155989178 266995695 347637693 -1074106381</internalNodes>
          <leafValues>
            -3.3021950721740723e-01 3.6530986428260803e-01</leafValues></_>
        <_>
          <internalNodes>
            0 -1 115 -1788950328 143448228 1002114822 268640320
            2080803366 1787298433 1042592545 -1681739645</internalNodes>
          <leafValues>
            -5.4384899139404297e-01 2.3245052993297577e-01</leafValues></_>
        <_>
          <internalNodes>
            0 -1 166 1860069371 -706887022 -913489085 -1178382593
            394248111 655028019 -482091156 -2425004</internalNodes>
          <leafValues>
            -2.8840532898902893e-01 4.9269139766693115e-01</leafValues></_>
        <_>
          <internalNodes>
            0 -1 1 -903360637 -352601222 549373948 -1543520589
            -1518998091 -1879083763 1559506080 -861405883</internalNodes>
          <leafValues>
            -3.4742864966392517e-01 3.7722253799438477e-01</leafValues></_>
        <_>
          <internalNodes>
            0 -1 173 -809192782 277963016 -1929832327 944486409
            -1414968148 -662503359 -645828945 1669434001</internalNodes>
          <leafValues>
            -4.6300894021987915e-01 2.9434177279472351e-01</leafValues></_>
        <_>
          <internalNodes>
            0 -1 145 1165910384 285622407 167889060 -1605664248
            -842465056 -744267383 -854878199 -307576694</internalNodes>
          <leafValues>
            -5.1625686883926392e-01 2.5256189703941345e-01</leafValues></_>
        <_>
          <internalNodes>
            0 -1 133 1908539392 -569520572 219251001 843894827
            1107581067 -1335508687 1955395005 -192088355</internalNodes>
          <leafValues>
            -4.4937586784362793e-01 3.0028900504112244e-01</leafValues></_>
        <_>
          <internalNodes>
            0 -1 130 -1915949281 425493561 -1982751467 1554023996
            1140892804 -1203135997 -2130353040 793391619</internalNodes>
          <leafValues>
            -4.7974604368209839e-01 3.0938127636909485e-01</leafValues></_>
        <_>
          <internalNodes>
            0 -1 37 1741914124 792117419 -1951240405 -415780599
            592823019 1386349186 38191176 1548198417</internalNodes>
          <leafValues>
            -3.8383552432060242e-01 3.9180573821067810e-01</leafValues></_>
        <_>
          <internalNodes>
            0 -1 170 1319871674 -1877798860 1612452948 -342388993
            -1857886012 1392591177 -399971616 -1957832595</internalNodes>
          <leafValues>
            -4.1851824522018433e-01 3.4179210662841797e-01</leafValues></_></weakClassifiers></_>
    <!-- stage 26 -->
    <_>
      <maxWeakCount>12</maxWeakCount>
      <stageThreshold>-6.5967470407485962e-01</stageThreshold>
      <weakClassifiers>
        <_>
          <internalNodes>
            0 -1 172 -1125992920 943865752 1848015600 577109611
            -1073929889 880622972 364842836 893328637</internalNodes>
          <leafValues>
            -3.7751004099845886e-01 4.7482013702392578e-01</leafValues></_>
        <_>
          <internalNodes>
            0 -1 168 -1174671160 -2007691195 562399730 -1416250396
            -1289208959 -188389376 -1237185796 -136710950</internalNodes>
          <leafValues>
            -3.5245060920715332e-01 3.4495890140533447e-01</leafValues></_>
        <_>
          <internalNodes>
            0 -1 28 1006466495 939424767 -771785217 -169968538
            -1260136722 -1594203658 -131624246 -355346921</internalNodes>
          <leafValues>
            -2.2430332005023956e-01 5.4077970981597900e-01</leafValues></_>
        <_>
          <internalNodes>
            0 -1 74 -675613754 -930200830 1695203518 497595609
            -934034949 -1328903520 279091240 -1694369569</internalNodes>
          <leafValues>
            -3.5581824183464050e-01 3.5650083422660828e-01</leafValues></_>
        <_>
          <internalNodes>
            0 -1 43 1252443965 1585112618 -592009 -8045022 2096602875
            -302056069 -662866065 -176827355</internalNodes>
          <leafValues>
            -3.0885773897171021e-01 4.3034434318542480e-01</leafValues></_>
        <_>
          <internalNodes>
            0 -1 85 -10149136 -433625299 268418931 -814351361
            -1097994912 -307266089 2139049211 -268451329</internalNodes>
          <leafValues>
            -3.3147093653678894e-01 3.9970275759696960e-01</leafValues></_>
        <_>
          <internalNodes>
            0 -1 154 -672659684 1141121082 -1452807528 447067338
            -2044558958 143338799 -651501943 179294471</internalNodes>
          <leafValues>
            -5.0968563556671143e-01 2.7916651964187622e-01</leafValues></_>
        <_>
          <internalNodes>
            0 -1 8 1765801523 -349313651 -53752625 -1085719 1295506687
            -805307650 1551750556 -863988448</internalNodes>
          <leafValues>
            -2.8233939409255981e-01 4.8505616188049316e-01</leafValues></_>
        <_>
          <internalNodes>
            0 -1 98 400085314 349512511 -1604299315 222576877 1088880683
            -187168623 -937926500 1657727896</internalNodes>
          <leafValues>
            -4.4784653186798096e-01 3.0530327558517456e-01</leafValues></_>
        <_>
          <internalNodes>
            0 -1 198 -2130946789 605288165 -611028003 1086865881
            -1062854650 -1164905592 -610230208 -313515584</internalNodes>
          <leafValues>
            -4.2343908548355103e-01 3.1225711107254028e-01</leafValues></_>
        <_>
          <internalNodes>
            0 -1 65 -648130538 -1713068612 -505263604 -315916693
            -1355032849 766039902 1249063948 -889061565</internalNodes>
          <leafValues>
            -3.6821293830871582e-01 4.0186342597007751e-01</leafValues></_>
        <_>
          <internalNodes>
            0 -1 21 257174579 457871881 2054453909 -455902071 596329763
            -1457330038 1074531337 -359740924</internalNodes>
          <leafValues>
            -3.7941274046897888e-01 3.7194898724555969e-01</leafValues></_></weakClassifiers></_>
    <!-- stage 27 -->
    <_>
      <maxWeakCount>13</maxWeakCount>
      <stageThreshold>-6.0599529743194580e-01</stageThreshold>
      <weakClassifiers>
        <_>
          <internalNodes>
            0 -1 47 -503369965 2088177223 2013257719 889157567
            1396515233 1467430659 905394163 1039603711</internalNodes>
          <leafValues>
            -2.6865673065185547e-01 5.0643777847290039e-01</leafValues></_>
        <_>
          <internalNodes>
            0 -1 119 -810624006 1605550003 -469795615 -34603529
            -138693328 -2013790614 -672011613 -151005453</internalNodes>
          <leafValues>
            -2.7797555923461914e-01 4.2463201284408569e-01</leafValues></_>
        <_>
          <internalNodes>
            0 -1 118 12793746 115212344 1350579634 950657829 1756285748
            684199309 -1007443405 -303017781</internalNodes>
          <leafValues>
            -4.7040131688117981e-01 2.5662142038345337e-01</leafValues></_>
        <_>
          <internalNodes>
            0 -1 162 -2008250093 269916249 421002071 -1835876038
            1577292852 113116300 1552076036 -86361730</internalNodes>
          <leafValues>
            -3.8465592265129089e-01 2.9824960231781006e-01</leafValues></_>
        <_>
          <internalNodes>
            0 -1 59 524807146 -112902918 1348177992 1939145865
            1429172091 289276146 1738908446 -1067074</internalNodes>
          <leafValues>
            -3.1848955154418945e-01 3.7608543038368225e-01</leafValues></_>
        <_>
          <internalNodes>
            0 -1 74 -94649621 302738371 1933558263 -551381201
            -1256921717 -1338065961 -1856643884 -111673620</internalNodes>
          <leafValues>
            -3.0993151664733887e-01 4.2785987257957458e-01</leafValues></_>
        <_>
          <internalNodes>
            0 -1 179 390072688 763735097 -896666768 478450327 -886890358
            -380335929 -483785956 1898712091</internalNodes>
          <leafValues>
            -4.8077377676963806e-01 2.7164235711097717e-01</leafValues></_>
        <_>
          <internalNodes>
            0 -1 96 -92673966 -1068938236 1495288140 -569753532 4199604
            -526104542 763580510 1312964865</internalNodes>
          <leafValues>
            -5.5066531896591187e-01 2.3600459098815918e-01</leafValues></_>
        <_>
          <internalNodes>
            0 -1 141 -1877697854 1342955662 1620849296 -1023669362
            582767497 638129152 1661534786 -1012966779</internalNodes>
          <leafValues>
            -4.8651248216629028e-01 2.8788354992866516e-01</leafValues></_>
        <_>
          <internalNodes>
            0 -1 105 -685670150 -22156642 1587538909 -904785042
            1238715831 -811633729 1328978107 -9175043</internalNodes>
          <leafValues>
            -2.9316306114196777e-01 5.0161713361740112e-01</leafValues></_>
        <_>
          <internalNodes>
            0 -1 136 2062483450 531309123 537608717 831226527 1120811564
            1110026544 1224795146 -793982976</internalNodes>
          <leafValues>
            -4.1491514444351196e-01 3.3212050795555115e-01</leafValues></_>
        <_>
          <internalNodes>
            0 -1 82 -119540234 -302841842 638198915 417291617 -923450264
            -8554499 332901003 -1627565125</internalNodes>
          <leafValues>
            -3.2247346639633179e-01 4.5350393652915955e-01</leafValues></_>
        <_>
          <internalNodes>
            0 -1 49 -198186094 1372836294 545456584 -1799254015
            -872109357 909218312 -2002091387 595724328</internalNodes>
          <leafValues>
            -4.0612119436264038e-01 3.3440977334976196e-01</leafValues></_></weakClassifiers></_>
    <!-- stage 28 -->
    <_>
      <maxWeakCount>12</maxWeakCount>
      <stageThreshold>-8.5232698917388916e-01</stageThreshold>
      <weakClassifiers>
        <_>
          <internalNodes>
            0 -1 103 400164720 235038039 -795278513 283124871 269418544
            1141638199 1082197640 1650720985</internalNodes>
          <leafValues>
            -6.2111800909042358e-01 4.4809558987617493e-01</leafValues></_>
        <_>
          <internalNodes>
            0 -1 0 142415703 268180959 -8573097 -1529091425 2146795386
            -9521154 -1906443340 -1073963284</internalNodes>
          <leafValues>
            -2.9504665732383728e-01 4.0362092852592468e-01</leafValues></_>
        <_>
          <internalNodes>
            0 -1 61 2025635864 -1789260746 1618346023 -22570757
            -1828526670 286916695 942942495 2029374197</internalNodes>
          <leafValues>
            -4.8340040445327759e-01 2.9028528928756714e-01</leafValues></_>
        <_>
          <internalNodes>
            0 -1 81 -9559046 -651418816 1590958080 1676524161 1915860799
            -922580924 1392765317 -1074876248</internalNodes>
          <leafValues>
            -3.6907216906547546e-01 3.3582648634910583e-01</leafValues></_>
        <_>
          <internalNodes>
            0 -1 70 -1601248566 1395687635 1199987031 -1849448443
            5224691 -1467481887 1359013087 1465776308</internalNodes>
          <leafValues>
            -4.2426791787147522e-01 2.9497516155242920e-01</leafValues></_>
        <_>
          <internalNodes>
            0 -1 183 -270548907 1494434525 -1982481542 5342736
            -1039473692 665879354 1076406427 -1599604689</internalNodes>
          <leafValues>
            -4.0495413541793823e-01 3.4483891725540161e-01</leafValues></_>
        <_>
          <internalNodes>
            0 -1 155 -303318095 -581909363 -2030661652 -1789415693
            -1496402658 2129098044 -33575125 1556737323</internalNodes>
          <leafValues>
            -2.9607886075973511e-01 4.4394221901893616e-01</leafValues></_>
        <_>
          <internalNodes>
            0 -1 77 -1297431974 969289835 -385789871 27787464 -666128342
            -1735048966 21020790 -357907967</internalNodes>
          <leafValues>
            -4.0470191836357117e-01 3.3368337154388428e-01</leafValues></_>
        <_>
          <internalNodes>
            0 -1 199 1290345343 -2098987533 -2163735 1135869543
            509457844 -1104560161 -671244321 -1333739964</internalNodes>
          <leafValues>
            -3.0752950906753540e-01 4.7484138607978821e-01</leafValues></_>
        <_>
          <internalNodes>
            0 -1 2 1386073988 453534018 -1660944221 -1530806144
            -241133338 -167692154 1837156840 1108173582</internalNodes>
          <leafValues>
            -5.4263579845428467e-01 2.6750442385673523e-01</leafValues></_>
        <_>
          <internalNodes>
            0 -1 122 -1706459339 1317929752 -834206111 -334568377
            425442616 -1398898584 258277591 -242251621</internalNodes>
          <leafValues>
            -3.5924175381660461e-01 3.9440181851387024e-01</leafValues></_>
        <_>
          <internalNodes>
            0 -1 5 144995281 -1591131640 -939042155 -1132011324
            1142792357 -796588661 -1278883839 -1230446504</internalNodes>
          <leafValues>
            -4.2827719449996948e-01 3.5222455859184265e-01</leafValues></_></weakClassifiers></_>
    <!-- stage 29 -->
    <_>
      <maxWeakCount>13</maxWeakCount>
      <stageThreshold>-5.4719150066375732e-01</stageThreshold>
      <weakClassifiers>
        <_>
          <internalNodes>
            0 -1 58 791728112 1081208829 -1301411209 285212575 502271376
            283497443 1601330527 66797535</internalNodes>
          <leafValues>
            -3.2173913717269897e-01 4.8865979909896851e-01</leafValues></_>
        <_>
          <internalNodes>
            0 -1 109 -338428213 1341901737 2012987199 2144377534
            -537396229 -1088710 461369691 -67109987</internalNodes>
          <leafValues>
            -2.1599039435386658e-01 4.7328999638557434e-01</leafValues></_>
        <_>
          <internalNodes>
            0 -1 48 -291307726 -1939052267 1504175935 -6624096 356852364
            -467225427 353759256 -13889396</internalNodes>
          <leafValues>
            -2.9546687006950378e-01 3.8215160369873047e-01</leafValues></_>
        <_>
          <internalNodes>
            0 -1 64 880175404 -1086306918 -652500641 -125790580
            -1028153138 -929831405 -327097382 -2138635181</internalNodes>
          <leafValues>
            -3.8153466582298279e-01 3.0364727973937988e-01</leafValues></_>
        <_>
          <internalNodes>
            0 -1 197 750591953 -407396007 1178883421 1352576077
            -790012321 -895434623 -1156215174 -1144474684</internalNodes>
          <leafValues>
            -3.3086100220680237e-01 3.9042255282402039e-01</leafValues></_>
        <_>
          <internalNodes>
            0 -1 168 -276319837 -1869609912 270056322 -2062712580
            -1286825079 -121563136 -731586855 -1613385343</internalNodes>
          <leafValues>
            -3.5750257968902588e-01 3.6267825961112976e-01</leafValues></_>
        <_>
          <internalNodes>
            0 -1 188 -204474550 1953172743 1848324884 1203775100
            -1655880822 1068253167 470326959 -285212937</internalNodes>
          <leafValues>
            -3.1618994474411011e-01 4.0518781542778015e-01</leafValues></_>
        <_>
          <internalNodes>
            0 -1 51 -1465785690 -350150376 -1233807189 684681538
            1412664330 1170445185 161702683 1166598193</internalNodes>
          <leafValues>
            -4.2886507511138916e-01 3.1699851155281067e-01</leafValues></_>
        <_>
          <internalNodes>
            0 -1 19 407248063 1313223260 -2126429877 -526729165
            -754070697 -241073517 -379000961 -1952411344</internalNodes>
          <leafValues>
            -3.6796054244041443e-01 3.7289664149284363e-01</leafValues></_>
        <_>
          <internalNodes>
            0 -1 191 -687243164 1225629200 223328932 79238720 1878495980
            -1028094765 1967039721 -550041431</internalNodes>
          <leafValues>
            -3.4050557017326355e-01 4.1076326370239258e-01</leafValues></_>
        <_>
          <internalNodes>
            0 -1 102 -724054000 -2067117767 -931036037 -1337849854
            1141202981 281151569 151537180 1135438600</internalNodes>
          <leafValues>
            -6.2010997533798218e-01 2.1759538352489471e-01</leafValues></_>
        <_>
          <internalNodes>
            0 -1 75 332113886 -417228224 -1049546019 467355713
            1519954847 155386626 396404735 1088010369</internalNodes>
          <leafValues>
            -4.7170931100845337e-01 2.7587777376174927e-01</leafValues></_>
        <_>
          <internalNodes>
            0 -1 132 -1059152289 282349782 -687255165 273338313
            -725546931 -2130032639 -1061107438 1749100555</internalNodes>
          <leafValues>
            -4.5427733659744263e-01 3.0607238411903381e-01</leafValues></_></weakClassifiers></_>
    <!-- stage 30 -->
    <_>
      <maxWeakCount>13</maxWeakCount>
      <stageThreshold>-4.9224033951759338e-01</stageThreshold>
      <weakClassifiers>
        <_>
          <internalNodes>
            0 -1 117 -1082172666 24637420 1059725859 871857137
            -681582749 1079142383 -1079542173 1934753655</internalNodes>
          <leafValues>
            -2.8925618529319763e-01 4.9060541391372681e-01</leafValues></_>
        <_>
          <internalNodes>
            0 -1 60 996559832 413192618 790310684 -748332641 1262700307
            1895901456 883559098 -1314763768</internalNodes>
          <leafValues>
            -4.2133834958076477e-01 2.7901116013526917e-01</leafValues></_>
        <_>
          <internalNodes>
            0 -1 192 126422917 938982771 -34619393 -503682380 -964341952
            -2030241950 -79695423 -2050378576</internalNodes>
          <leafValues>
            -3.1676027178764343e-01 3.6384409666061401e-01</leafValues></_>
        <_>
          <internalNodes>
            0 -1 50 -1983208722 539134466 301582813 -72224382
            -1540646213 -1828617579 34701505 1163366408</internalNodes>
          <leafValues>
            -4.5103824138641357e-01 2.6886680722236633e-01</leafValues></_>
        <_>
          <internalNodes>
            0 -1 160 -1082127 809350971 1861696951 -183969225 1719128637
            -285214777 1131312319 -80424419</internalNodes>
          <leafValues>
            -2.6458880305290222e-01 4.4664737582206726e-01</leafValues></_>
        <_>
          <internalNodes>
            0 -1 41 2031411280 487067978 -2111682467 701163560 421759167
            235350032 1731174239 2014382465</internalNodes>
          <leafValues>
            -4.9214002490043640e-01 2.4852560460567474e-01</leafValues></_>
        <_>
          <internalNodes>
            0 -1 171 -135811428 -371114591 -326812566 -1599886378
            -2121158781 2138075007 -1073971213 -32769</internalNodes>
          <leafValues>
            -2.9798284173011780e-01 4.2328906059265137e-01</leafValues></_>
        <_>
          <internalNodes>
            0 -1 108 1131011174 1377288344 951059735 1966451767
            -888962323 -791108960 1292542153 -11827076</internalNodes>
          <leafValues>
            -3.5436904430389404e-01 3.5750707983970642e-01</leafValues></_>
        <_>
          <internalNodes>
            0 -1 180 -1059090423 1905216071 -1191780777 -716897969
            676529713 2091867764 -84498193 -71304305</internalNodes>
          <leafValues>
            -2.4993930757045746e-01 5.1309782266616821e-01</leafValues></_>
        <_>
          <internalNodes>
            0 -1 93 1342469128 -385871140 1011980284 -54081464
            1057020923 1215316119 -1668763174 -586098667</internalNodes>
          <leafValues>
            -4.6486759185791016e-01 2.8488901257514954e-01</leafValues></_>
        <_>
          <internalNodes>
            0 -1 155 1843128968 -671054524 -1962753655 -2067021150
            -1543208052 -1576042198 -368006580 1301299973</internalNodes>
          <leafValues>
            -5.2431201934814453e-01 2.6309910416603088e-01</leafValues></_>
        <_>
          <internalNodes>
            0 -1 196 182455319 2128271607 -1108308994 -311841076
            -1906680061 221004511 -1225474616 -1080750703</internalNodes>
          <leafValues>
            -2.9602620005607605e-01 4.6623495221138000e-01</leafValues></_>
        <_>
          <internalNodes>
            0 -1 39 1538725546 2137982018 173158220 1437546468
            -354097474 314720360 -1228642375 -545392732</internalNodes>
          <leafValues>
            -3.5338503122329712e-01 4.1038855910301208e-01</leafValues></_></weakClassifiers></_></stages>
  <features>
    <_>
      <rect>
        0 0 1 2</rect></_>
    <_>
      <rect>
        0 0 3 5</rect></_>
    <_>
      <rect>
        0 0 5 3</rect></_>
    <_>
      <rect>
        0 1 1 3</rect></_>
    <_>
      <rect>
        0 2 1 3</rect></_>
    <_>
      <rect>
        0 2 1 4</rect></_>
    <_>
      <rect>
        0 4 1 2</rect></_>
    <_>
      <rect>
        0 4 5 4</rect></_>
    <_>
      <rect>
        0 5 2 2</rect></_>
    <_>
      <rect>
        0 5 3 3</rect></_>
    <_>
      <rect>
        0 8 1 2</rect></_>
    <_>
      <rect>
        1 0 5 2</rect></_>
    <_>
      <rect>
        1 0 5 5</rect></_>
    <_>
      <rect>
        1 1 2 2</rect></_>
    <_>
      <rect>
        1 1 3 5</rect></_>
    <_>
      <rect>
        1 1 4 5</rect></_>
    <_>
      <rect>
        1 1 5 5</rect></_>
    <_>
      <rect>
        1 3 3 3</rect></_>
    <_>
      <rect>
        1 3 4 4</rect></_>
    <_>
      <rect>
        1 4 1 2</rect></_>
    <_>
      <rect>
        1 4 3 4</rect></_>
    <_>
      <rect>
        1 6 1 3</rect></_>
    <_>
      <rect>
        1 6 2 3</rect></_>
    <_>
      <rect>
        1 9 3 2</rect></_>
    <_>
      <rect>
        2 0 4 2</rect></_>
    <_>
      <rect>
        2 1 3 5</rect></_>
    <_>
      <rect>
        2 4 3 2</rect></_>
    <_>
      <rect>
        2 8 3 2</rect></_>
    <_>
      <rect>
        2 10 4 2</rect></_>
    <_>
      <rect>
        3 0 3 2</rect></_>
    <_>
      <rect>
        3 0 4 1</rect></_>
    <_>
      <rect>
        3 2 2 2</rect></_>
    <_>
      <rect>
        3 2 4 4</rect></_>
    <_>
      <rect>
        3 3 3 2</rect></_>
    <_>
      <rect>
        3 3 4 4</rect></_>
    <_>
      <rect>
        3 4 4 4</rect></_>
    <_>
      <rect>
        3 7 4 3</rect></_>
    <_>
      <rect>
        3 8 1 2</rect></_>
    <_>
      <rect>
        3 8 3 1</rect></_>
    <_>
      <rect>
        3 9 1 1</rect></_>
    <_>
      <rect>
        3 10 2 1</rect></_>
    <_>
      <rect>
        3 10 3 1</rect></_>
    <_>
      <rect>
        3 11 2 1</rect></_>
    <_>
      <rect>
        4 0 2 1</rect></_>
    <_>
      <rect>
        4 0 3 2</rect></_>
    <_>
      <rect>
        4 1 2 2</rect></_>
    <_>
      <rect>
        4 3 2 3</rect></_>
    <_>
      <rect>
        4 3 3 3</rect></_>
    <_>
      <rect>
        4 4 1 1</rect></_>
    <_>
      <rect>
        4 4 4 4</rect></_>
    <_>
      <rect>
        4 5 1 2</rect></_>
    <_>
      <rect>
        4 5 1 3</rect></_>
    <_>
      <rect>
        4 5 2 3</rect></_>
    <_>
      <rect>
        4 7 1 1</rect></_>
    <_>
      <rect>
        4 7 1 2</rect></_>
    <_>
      <rect>
        4 7 2 3</rect></_>
    <_>
      <rect>
        4 8 1 1</rect></_>
    <_>
      <rect>
        4 8 1 2</rect></_>
    <_>
      <rect>
        4 8 3 2</rect></_>
    <_>
      <rect>
        4 9 1 1</rect></_>
    <_>
      <rect>
        4 9 2 1</rect></_>
    <_>
      <rect>
        4 9 2 2</rect></_>
    <_>
      <rect>
        4 10 1 1</rect></_>
    <_>
      <rect>
        4 10 2 1</rect></_>
    <_>
      <rect>
        4 10 3 2</rect></_>
    <_>
      <rect>
        4 11 1 1</rect></_>
    <_>
      <rect>
        5 0 1 1</rect></_>
    <_>
      <rect>
        5 0 2 1</rect></_>
    <_>
      <rect>
        5 0 3 3</rect></_>
    <_>
      <rect>
        5 2 2 3</rect></_>
    <_>
      <rect>
        5 3 1 2</rect></_>
    <_>
      <rect>
        5 4 1 2</rect></_>
    <_>
      <rect>
        5 4 1 4</rect></_>
    <_>
      <rect>
        5 4 2 2</rect></_>
    <_>
      <rect>
        5 5 1 1</rect></_>
    <_>
      <rect>
        5 5 1 2</rect></_>
    <_>
      <rect>
        5 5 2 2</rect></_>
    <_>
      <rect>
        5 5 2 3</rect></_>
    <_>
      <rect>
        5 6 1 1</rect></_>
    <_>
      <rect>
        5 6 1 2</rect></_>
    <_>
      <rect>
        5 7 1 1</rect></_>
    <_>
      <rect>
        5 7 1 2</rect></_>
    <_>
      <rect>
        5 7 1 3</rect></_>
    <_>
      <rect>
        5 8 1 1</rect></_>
    <_>
      <rect>
        5 8 1 2</rect></_>
    <_>
      <rect>
        5 8 2 1</rect></_>
    <_>
      <rect>
        5 8 2 2</rect></_>
    <_>
      <rect>
        5 9 1 1</rect></_>
    <_>
      <rect>
        5 9 1 2</rect></_>
    <_>
      <rect>
        5 9 2 1</rect></_>
    <_>
      <rect>
        5 9 2 2</rect></_>
    <_>
      <rect>
        5 10 1 1</rect></_>
    <_>
      <rect>
        5 10 2 1</rect></_>
    <_>
      <rect>
        5 10 2 2</rect></_>
    <_>
      <rect>
        5 10 3 1</rect></_>
    <_>
      <rect>
        5 12 1 1</rect></_>
    <_>
      <rect>
        5 12 2 1</rect></_>
    <_>
      <rect>
        6 0 3 4</rect></_>
    <_>
      <rect>
        6 1 1 3</rect></_>
    <_>
      <rect>
        6 1 2 2</rect></_>
    <_>
      <rect>
        6 2 1 1</rect></_>
    <_>
      <rect>
        6 2 1 2</rect></_>
    <_>
      <rect>
        6 2 2 2</rect></_>
    <_>
      <rect>
        6 2 2 3</rect></_>
    <_>
      <rect>
        6 2 3 3</rect></_>
    <_>
      <rect>
        6 3 1 1</rect></_>
    <_>
      <rect>
        6 3 1 2</rect></_>
    <_>
      <rect>
        6 3 3 2</rect></_>
    <_>
      <rect>
        6 4 1 1</rect></_>
    <_>
      <rect>
        6 4 1 2</rect></_>
    <_>
      <rect>
        6 5 1 1</rect></_>
    <_>
      <rect>
        6 5 1 2</rect></_>
    <_>
      <rect>
        6 5 1 3</rect></_>
    <_>
      <rect>
        6 6 1 1</rect></_>
    <_>
      <rect>
        6 6 1 2</rect></_>
    <_>
      <rect>
        6 6 1 3</rect></_>
    <_>
      <rect>
        6 6 2 3</rect></_>
    <_>
      <rect>
        6 7 1 1</rect></_>
    <_>
      <rect>
        6 7 1 2</rect></_>
    <_>
      <rect>
        6 7 2 1</rect></_>
    <_>
      <rect>
        6 7 2 3</rect></_>
    <_>
      <rect>
        6 8 1 1</rect></_>
    <_>
      <rect>
        6 8 1 2</rect></_>
    <_>
      <rect>
        6 9 1 1</rect></_>
    <_>
      <rect>
        6 9 1 2</rect></_>
    <_>
      <rect>
        6 10 1 1</rect></_>
    <_>
      <rect>
        6 10 2 1</rect></_>
    <_>
      <rect>
        6 11 1 1</rect></_>
    <_>
      <rect>
        6 12 1 1</rect></_>
    <_>
      <rect>
        7 0 1 1</rect></_>
    <_>
      <rect>
        7 0 1 3</rect></_>
    <_>
      <rect>
        7 0 2 3</rect></_>
    <_>
      <rect>
        7 1 3 4</rect></_>
    <_>
      <rect>
        7 2 1 2</rect></_>
    <_>
      <rect>
        7 3 1 2</rect></_>
    <_>
      <rect>
        7 3 1 3</rect></_>
    <_>
      <rect>
        7 3 1 4</rect></_>
    <_>
      <rect>
        7 4 1 1</rect></_>
    <_>
      <rect>
        7 4 1 2</rect></_>
    <_>
      <rect>
        7 4 1 3</rect></_>
    <_>
      <rect>
        7 4 2 2</rect></_>
    <_>
      <rect>
        7 5 1 1</rect></_>
    <_>
      <rect>
        7 5 1 2</rect></_>
    <_>
      <rect>
        7 6 1 1</rect></_>
    <_>
      <rect>
        7 6 1 2</rect></_>
    <_>
      <rect>
        7 6 1 3</rect></_>
    <_>
      <rect>
        7 6 2 1</rect></_>
    <_>
      <rect>
        7 7 1 1</rect></_>
    <_>
      <rect>
        7 7 1 2</rect></_>
    <_>
      <rect>
        7 7 3 3</rect></_>
    <_>
      <rect>
        7 8 1 1</rect></_>
    <_>
      <rect>
        7 8 1 2</rect></_>
    <_>
      <rect>
        7 8 2 2</rect></_>
    <_>
      <rect>
        7 9 1 1</rect></_>
    <_>
      <rect>
        7 9 1 2</rect></_>
    <_>
      <rect>
        7 9 2 2</rect></_>
    <_>
      <rect>
        7 10 1 1</rect></_>
    <_>
      <rect>
        7 11 1 1</rect></_>
    <_>
      <rect>
        7 12 1 1</rect></_>
    <_>
      <rect>
        7 13 1 1</rect></_>
    <_>
      <rect>
        8 1 1 3</rect></_>
    <_>
      <rect>
        8 3 1 2</rect></_>
    <_>
      <rect>
        8 3 2 2</rect></_>
    <_>
      <rect>
        8 4 1 1</rect></_>
    <_>
      <rect>
        8 4 1 2</rect></_>
    <_>
      <rect>
        8 4 2 2</rect></_>
    <_>
      <rect>
        8 5 1 1</rect></_>
    <_>
      <rect>
        8 5 2 3</rect></_>
    <_>
      <rect>
        8 6 1 1</rect></_>
    <_>
      <rect>
        8 6 1 2</rect></_>
    <_>
      <rect>
        8 7 1 1</rect></_>
    <_>
      <rect>
        8 7 1 2</rect></_>
    <_>
      <rect>
        8 8 1 1</rect></_>
    <_>
      <rect>
        8 8 1 2</rect></_>
    <_>
      <rect>
        8 9 1 1</rect></_>
    <_>
      <rect>
        8 9 2 2</rect></_>
    <_>
      <rect>
        8 10 1 1</rect></_>
    <_>
      <rect>
        8 10 1 2</rect></_>
    <_>
      <rect>
        8 11 1 1</rect></_>
    <_>
      <rect>
        8 12 1 1</rect></_>
    <_>
      <rect>
        8 13 1 1</rect></_>
    <_>
      <rect>
        9 5 1 1</rect></_>
    <_>
      <rect>
        9 6 1 1</rect></_>
    <_>
      <rect>
        9 6 2 3</rect></_>
    <_>
      <rect>
        9 7 1 1</rect></_>
    <_>
      <rect>
        9 7 1 2</rect></_>
    <_>
      <rect>
        9 7 2 2</rect></_>
    <_>
      <rect>
        9 8 1 1</rect></_>
    <_>
      <rect>
        9 8 1 2</rect></_>
    <_>
      <rect>
        9 9 1 1</rect></_>
    <_>
      <rect>
        9 12 1 1</rect></_>
    <_>
      <rect>
        9 13 1 1</rect></_>
    <_>
      <rect>
        10 0 1 2</rect></_>
    <_>
      <rect>
        10 9 1 1</rect></_>
    <_>
      <rect>
        10 12 1 1</rect></_>
    <_>
      <rect>
        11 6 1 2</rect></_>
    <_>
      <rect>
        13 0 1 1</rect></_>
    <_>
      <rect>
        13 1 1 2</rect></_>
    <_>
      <rect>
        13 3 1 3</rect></_>
    <_>
      <rect>
        13 5 1 2</rect></_></features></cascade>
</opencv_storage>
