<?xml version="1.0"?>
<opencv_storage>
<cascade>
  <stageType>BOOST</stageType>
  <featureType>HAAR</featureType>
  <height>24</height>
  <width>24</width>
  <stageParams>
    <boostType>GAB</boostType>
    <minHitRate>9.9900001287460327e-01</minHitRate>
    <maxFalseAlarm>5.0000000000000000e-01</maxFalseAlarm>
    <weightTrimRate>9.4999998807907104e-01</weightTrimRate>
    <maxDepth>1</maxDepth>
    <maxWeakCount>100</maxWeakCount></stageParams>
  <featureParams>
    <maxCatCount>0</maxCatCount>
    <featSize>1</featSize>
    <mode>ALL</mode></featureParams>
  <stageNum>15</stageNum>
  <stages>
    <!-- stage 0 -->
    <_>
      <maxWeakCount>9</maxWeakCount>
      <stageThreshold>-1.2630155086517334e+00</stageThreshold>
      <weakClassifiers>
        <_>
          <internalNodes>
            0 -1 137 6.6040419042110443e-03</internalNodes>
          <leafValues>
            -4.9626104533672333e-02 8.7078493833541870e-01</leafValues></_>
        <_>
          <internalNodes>
            0 -1 28 1.6211634501814842e-03</internalNodes>
          <leafValues>
            -2.3743332922458649e-01 6.5998530387878418e-01</leafValues></_>
        <_>
          <internalNodes>
            0 -1 360 2.0008411258459091e-02</internalNodes>
          <leafValues>
            -3.0247008800506592e-01 6.1830157041549683e-01</leafValues></_>
        <_>
          <internalNodes>
            0 -1 350 -3.4095693990821019e-05</internalNodes>
          <leafValues>
            4.2807537317276001e-01 -4.5177692174911499e-01</leafValues></_>
        <_>
          <internalNodes>
            0 -1 166 1.3068661093711853e-02</internalNodes>
          <leafValues>
            -4.0059936046600342e-01 5.7649087905883789e-01</leafValues></_>
        <_>
          <internalNodes>
            0 -1 109 3.2178346067667007e-02</internalNodes>
          <leafValues>
            -3.3190354704856873e-01 5.8156728744506836e-01</leafValues></_>
        <_>
          <internalNodes>
            0 -1 339 1.5144776552915573e-02</internalNodes>
          <leafValues>
            -2.5705337524414062e-01 5.9769630432128906e-01</leafValues></_>
        <_>
          <internalNodes>
            0 -1 129 1.3425897341221571e-03</internalNodes>
          <leafValues>
            -3.4177681803703308e-01 4.3168145418167114e-01</leafValues></_>
        <_>
          <internalNodes>
            0 -1 443 1.1219224333763123e-01</internalNodes>
          <leafValues>
            1.8921300768852234e-01 -8.7112748622894287e-01</leafValues></_></weakClassifiers></_>
    <!-- stage 1 -->
    <_>
      <maxWeakCount>12</maxWeakCount>
      <stageThreshold>-9.1155987977981567e-01</stageThreshold>
      <weakClassifiers>
        <_>
          <internalNodes>
            0 -1 79 7.7377498149871826e-02</internalNodes>
          <leafValues>
            2.3102309554815292e-02 8.5078907012939453e-01</leafValues></_>
        <_>
          <internalNodes>
            0 -1 234 -9.0033877640962601e-03</internalNodes>
          <leafValues>
            6.9788634777069092e-01 -2.1446919441223145e-01</leafValues></_>
        <_>
          <internalNodes>
            0 -1 375 5.2683107554912567e-02</internalNodes>
          <leafValues>
            -2.7098676562309265e-01 5.5108445882797241e-01</leafValues></_>
        <_>
          <internalNodes>
            0 -1 26 1.9228931516408920e-02</internalNodes>
          <leafValues>
            -2.9141277074813843e-01 5.5419528484344482e-01</leafValues></_>
        <_>
          <internalNodes>
            0 -1 143 2.9720220481976867e-05</internalNodes>
          <leafValues>
            -4.0759390592575073e-01 3.6039286851882935e-01</leafValues></_>
        <_>
          <internalNodes>
            0 -1 153 -3.4121327102184296e-02</internalNodes>
          <leafValues>
            6.1271911859512329e-01 -2.3103868961334229e-01</leafValues></_>
        <_>
          <internalNodes>
            0 -1 430 2.4496156722307205e-02</internalNodes>
          <leafValues>
            -2.4507509171962738e-01 5.3937405347824097e-01</leafValues></_>
        <_>
          <internalNodes>
            0 -1 296 -1.3873577117919922e-03</internalNodes>
          <leafValues>
            4.5582225918769836e-01 -2.7185386419296265e-01</leafValues></_>
        <_>
          <internalNodes>
            0 -1 362 -2.3539334535598755e-02</internalNodes>
          <leafValues>
            6.2429553270339966e-01 -1.8827858567237854e-01</leafValues></_>
        <_>
          <internalNodes>
            0 -1 290 -3.5107004805468023e-05</internalNodes>
          <leafValues>
            3.7531855702400208e-01 -3.6252680420875549e-01</leafValues></_>
        <_>
          <internalNodes>
            0 -1 244 -1.0144487023353577e-03</internalNodes>
          <leafValues>
            5.2162766456604004e-01 -2.1985322237014771e-01</leafValues></_>
        <_>
          <internalNodes>
            0 -1 101 6.1198361217975616e-03</internalNodes>
          <leafValues>
            -4.6871709823608398e-01 2.5092715024948120e-01</leafValues></_></weakClassifiers></_>
    <!-- stage 2 -->
    <_>
      <maxWeakCount>20</maxWeakCount>
      <stageThreshold>-1.3024716377258301e+00</stageThreshold>
      <weakClassifiers>
        <_>
          <internalNodes>
            0 -1 21 3.8428419828414917e-01</internalNodes>
          <leafValues>
            6.7263537645339966e-01 -7.6284587383270264e-01</leafValues></_>
        <_>
          <internalNodes>
            0 -1 102 1.3893139362335205e-01</internalNodes>
          <leafValues>
            -2.6155641674995422e-01 6.1908471584320068e-01</leafValues></_>
        <_>
          <internalNodes>
            0 -1 340 3.1954525184119120e-05</internalNodes>
          <leafValues>
            -4.4094499945640564e-01 3.4991642832756042e-01</leafValues></_>
        <_>
          <internalNodes>
            0 -1 116 3.3603417250560597e-05</internalNodes>
          <leafValues>
            -3.7940561771392822e-01 3.5351228713989258e-01</leafValues></_>
        <_>
          <internalNodes>
            0 -1 159 1.1622882448136806e-02</internalNodes>
          <leafValues>
            -3.0717155337333679e-01 3.7214127182960510e-01</leafValues></_>
        <_>
          <internalNodes>
            0 -1 357 -9.3825400108471513e-04</internalNodes>
          <leafValues>
            3.4590259194374084e-01 -3.4827786684036255e-01</leafValues></_>
        <_>
          <internalNodes>
            0 -1 205 2.7462381694931537e-05</internalNodes>
          <leafValues>
            -3.9314660429954529e-01 2.5478026270866394e-01</leafValues></_>
        <_>
          <internalNodes>
            0 -1 286 -4.0617749094963074e-02</internalNodes>
          <leafValues>
            6.9042688608169556e-01 -1.6070465743541718e-01</leafValues></_>
        <_>
          <internalNodes>
            0 -1 158 3.6613572388887405e-02</internalNodes>
          <leafValues>
            -1.6792558133602142e-01 6.3188600540161133e-01</leafValues></_>
        <_>
          <internalNodes>
            0 -1 445 6.0670273378491402e-03</internalNodes>
          <leafValues>
            -2.4982182681560516e-01 3.7713360786437988e-01</leafValues></_>
        <_>
          <internalNodes>
            0 -1 120 -6.1885885894298553e-02</internalNodes>
          <leafValues>
            5.4338622093200684e-01 -1.5937393903732300e-01</leafValues></_>
        <_>
          <internalNodes>
            0 -1 97 2.2078117355704308e-02</internalNodes>
          <leafValues>
            -2.0550142228603363e-01 4.7417917847633362e-01</leafValues></_>
        <_>
          <internalNodes>
            0 -1 372 -1.0132925672223791e-04</internalNodes>
          <leafValues>
            3.2867443561553955e-01 -2.9689723253250122e-01</leafValues></_>
        <_>
          <internalNodes>
            0 -1 141 -3.6534216254949570e-02</internalNodes>
          <leafValues>
            6.9179850816726685e-01 -1.8561330437660217e-01</leafValues></_>
        <_>
          <internalNodes>
            0 -1 316 -3.2505144190508872e-05</internalNodes>
          <leafValues>
            2.6931497454643250e-01 -3.2296821475028992e-01</leafValues></_>
        <_>
          <internalNodes>
            0 -1 72 -8.3327665925025940e-03</internalNodes>
          <leafValues>
            5.6606209278106689e-01 -1.6559599339962006e-01</leafValues></_>
        <_>
          <internalNodes>
            0 -1 139 5.0149507820606232e-02</internalNodes>
          <leafValues>
            -1.9242705404758453e-01 4.8532325029373169e-01</leafValues></_>
        <_>
          <internalNodes>
            0 -1 269 -2.9280567541718483e-03</internalNodes>
          <leafValues>
            3.9063638448715210e-01 -2.2459053993225098e-01</leafValues></_>
        <_>
          <internalNodes>
            0 -1 55 2.4842344224452972e-02</internalNodes>
          <leafValues>
            -2.0444527268409729e-01 4.6201872825622559e-01</leafValues></_>
        <_>
          <internalNodes>
            0 -1 7 -9.9967248737812042e-02</internalNodes>
          <leafValues>
            5.0784122943878174e-01 -1.6407729685306549e-01</leafValues></_></weakClassifiers></_>
    <!-- stage 3 -->
    <_>
      <maxWeakCount>25</maxWeakCount>
      <stageThreshold>-1.0642708539962769e+00</stageThreshold>
      <weakClassifiers>
        <_>
          <internalNodes>
            0 -1 142 4.3133550207130611e-05</internalNodes>
          <leafValues>
            1.3364779949188232e-01 7.5912016630172729e-01</leafValues></_>
        <_>
          <internalNodes>
            0 -1 320 -2.7191223125555553e-05</internalNodes>
          <leafValues>
            4.1634327173233032e-01 -3.4752276539802551e-01</leafValues></_>
        <_>
          <internalNodes>
            0 -1 11 2.6219770312309265e-02</internalNodes>
          <leafValues>
            -1.9840195775032043e-01 5.4155510663986206e-01</leafValues></_>
        <_>
          <internalNodes>
            0 -1 306 1.2975861318409443e-03</internalNodes>
          <leafValues>
            -3.5976365208625793e-01 3.1489911675453186e-01</leafValues></_>
        <_>
          <internalNodes>
            0 -1 451 3.0508358031511307e-02</internalNodes>
          <leafValues>
            -2.2646427154541016e-01 6.6850399971008301e-01</leafValues></_>
        <_>
          <internalNodes>
            0 -1 365 3.6993413232266903e-05</internalNodes>
          <leafValues>
            -3.3791407942771912e-01 3.2401984930038452e-01</leafValues></_>
        <_>
          <internalNodes>
            0 -1 424 3.2916210591793060e-02</internalNodes>
          <leafValues>
            -1.7667941749095917e-01 5.9052574634552002e-01</leafValues></_>
        <_>
          <internalNodes>
            0 -1 115 2.9152895876904950e-05</internalNodes>
          <leafValues>
            -3.4193167090415955e-01 2.7650505304336548e-01</leafValues></_>
        <_>
          <internalNodes>
            0 -1 450 1.0832644999027252e-02</internalNodes>
          <leafValues>
            -1.9802990555763245e-01 4.9028158187866211e-01</leafValues></_>
        <_>
          <internalNodes>
            0 -1 228 4.6428196132183075e-02</internalNodes>
          <leafValues>
            -1.0294262319803238e-01 6.8266910314559937e-01</leafValues></_>
        <_>
          <internalNodes>
            0 -1 19 -4.2923143506050110e-01</internalNodes>
          <leafValues>
            8.1075024604797363e-01 -9.3198552727699280e-02</leafValues></_>
        <_>
          <internalNodes>
            0 -1 379 -3.2258729333989322e-05</internalNodes>
          <leafValues>
            3.6142808198928833e-01 -2.2200277447700500e-01</leafValues></_>
        <_>
          <internalNodes>
            0 -1 236 4.2440816760063171e-02</internalNodes>
          <leafValues>
            -2.0751862227916718e-01 4.6398153901100159e-01</leafValues></_>
        <_>
          <internalNodes>
            0 -1 271 -5.7461508549749851e-04</internalNodes>
          <leafValues>
            4.3729516863822937e-01 -1.9184267520904541e-01</leafValues></_>
        <_>
          <internalNodes>
            0 -1 298 -3.5454933822620660e-05</internalNodes>
          <leafValues>
            3.0649140477180481e-01 -2.5093194842338562e-01</leafValues></_>
        <_>
          <internalNodes>
            0 -1 161 1.8886667676270008e-03</internalNodes>
          <leafValues>
            -4.3995112180709839e-01 2.1830363571643829e-01</leafValues></_>
        <_>
          <internalNodes>
            0 -1 90 -1.2532922482932918e-05</internalNodes>
          <leafValues>
            2.6773902773857117e-01 -3.0122655630111694e-01</leafValues></_>
        <_>
          <internalNodes>
            0 -1 321 4.3238109356025234e-05</internalNodes>
          <leafValues>
            -2.5037905573844910e-01 2.8345441818237305e-01</leafValues></_>
        <_>
          <internalNodes>
            0 -1 93 -8.0530762672424316e-02</internalNodes>
          <leafValues>
            6.6859215497970581e-01 -1.0634914040565491e-01</leafValues></_>
        <_>
          <internalNodes>
            0 -1 434 3.3482231083326042e-04</internalNodes>
          <leafValues>
            -2.7316468954086304e-01 2.6190945506095886e-01</leafValues></_>
        <_>
          <internalNodes>
            0 -1 213 3.5177996323909611e-05</internalNodes>
          <leafValues>
            -2.8708079457283020e-01 2.6007562875747681e-01</leafValues></_>
        <_>
          <internalNodes>
            0 -1 327 -9.5487994258292019e-05</internalNodes>
          <leafValues>
            3.2410243153572083e-01 -2.2239407896995544e-01</leafValues></_>
        <_>
          <internalNodes>
            0 -1 398 -8.1838890910148621e-03</internalNodes>
          <leafValues>
            5.5065977573394775e-01 -1.3573479652404785e-01</leafValues></_>
        <_>
          <internalNodes>
            0 -1 444 2.3660236038267612e-03</internalNodes>
          <leafValues>
            -1.9089142978191376e-01 3.7317553162574768e-01</leafValues></_>
        <_>
          <internalNodes>
            0 -1 257 5.1135988906025887e-03</internalNodes>
          <leafValues>
            -1.5983287990093231e-01 4.5274063944816589e-01</leafValues></_></weakClassifiers></_>
    <!-- stage 4 -->
    <_>
      <maxWeakCount>25</maxWeakCount>
      <stageThreshold>-8.6656540632247925e-01</stageThreshold>
      <weakClassifiers>
        <_>
          <internalNodes>
            0 -1 217 -3.7893631088081747e-05</internalNodes>
          <leafValues>
            7.3978900909423828e-01 2.0337682962417603e-01</leafValues></_>
        <_>
          <internalNodes>
            0 -1 154 1.7046898603439331e-01</internalNodes>
          <leafValues>
            -9.7488649189472198e-02 6.5266060829162598e-01</leafValues></_>
        <_>
          <internalNodes>
            0 -1 310 1.4155026292428374e-04</internalNodes>
          <leafValues>
            -2.8665566444396973e-01 3.5815736651420593e-01</leafValues></_>
        <_>
          <internalNodes>
            0 -1 422 1.4952497556805611e-02</internalNodes>
          <leafValues>
            -1.7862696945667267e-01 5.1855152845382690e-01</leafValues></_>
        <_>
          <internalNodes>
            0 -1 27 6.5791010856628418e-03</internalNodes>
          <leafValues>
            -2.6242002844810486e-01 3.4517252445220947e-01</leafValues></_>
        <_>
          <internalNodes>
            0 -1 201 4.2649888200685382e-05</internalNodes>
          <leafValues>
            -3.7605601549148560e-01 2.1300917863845825e-01</leafValues></_>
        <_>
          <internalNodes>
            0 -1 407 2.6623560115695000e-03</internalNodes>
          <leafValues>
            -2.0462977886199951e-01 3.4345400333404541e-01</leafValues></_>
        <_>
          <internalNodes>
            0 -1 78 6.6859814978670329e-05</internalNodes>
          <leafValues>
            -2.8237080574035645e-01 2.7430444955825806e-01</leafValues></_>
        <_>
          <internalNodes>
            0 -1 105 5.1796041429042816e-02</internalNodes>
          <leafValues>
            -1.6164091229438782e-01 4.4126290082931519e-01</leafValues></_>
        <_>
          <internalNodes>
            0 -1 311 3.4573212265968323e-02</internalNodes>
          <leafValues>
            -2.1189793944358826e-01 4.8576819896697998e-01</leafValues></_>
        <_>
          <internalNodes>
            0 -1 390 -9.9848899990320206e-03</internalNodes>
          <leafValues>
            4.8771789669990540e-01 -1.4307583868503571e-01</leafValues></_>
        <_>
          <internalNodes>
            0 -1 429 2.7406748384237289e-02</internalNodes>
          <leafValues>
            -1.5919800102710724e-01 4.2636451125144958e-01</leafValues></_>
        <_>
          <internalNodes>
            0 -1 300 -1.2533074186649173e-04</internalNodes>
          <leafValues>
            3.4349390864372253e-01 -2.3096357285976410e-01</leafValues></_>
        <_>
          <internalNodes>
            0 -1 8 -7.5118616223335266e-02</internalNodes>
          <leafValues>
            6.5499341487884521e-01 -1.1640364676713943e-01</leafValues></_>
        <_>
          <internalNodes>
            0 -1 371 -3.0752657039556652e-05</internalNodes>
          <leafValues>
            2.4473637342453003e-01 -3.1833407282829285e-01</leafValues></_>
        <_>
          <internalNodes>
            0 -1 134 -3.1210385262966156e-02</internalNodes>
          <leafValues>
            5.7916718721389771e-01 -1.5753763914108276e-01</leafValues></_>
        <_>
          <internalNodes>
            0 -1 106 1.3587079942226410e-02</internalNodes>
          <leafValues>
            -1.4437840878963470e-01 4.3473264575004578e-01</leafValues></_>
        <_>
          <internalNodes>
            0 -1 144 -3.1177689379546791e-05</internalNodes>
          <leafValues>
            2.3944552242755890e-01 -3.2208284735679626e-01</leafValues></_>
        <_>
          <internalNodes>
            0 -1 143 3.0546463676728308e-05</internalNodes>
          <leafValues>
            -3.3021163940429688e-01 2.1569631993770599e-01</leafValues></_>
        <_>
          <internalNodes>
            0 -1 373 6.1407953500747681e-02</internalNodes>
          <leafValues>
            -1.6780662536621094e-01 4.3955698609352112e-01</leafValues></_>
        <_>
          <internalNodes>
            0 -1 299 -9.1910781338810921e-04</internalNodes>
          <leafValues>
            3.1911137700080872e-01 -1.8381208181381226e-01</leafValues></_>
        <_>
          <internalNodes>
            0 -1 160 -1.6599105671048164e-02</internalNodes>
          <leafValues>
            -4.8244044184684753e-01 1.5354484319686890e-01</leafValues></_>
        <_>
          <internalNodes>
            0 -1 190 1.3037111610174179e-02</internalNodes>
          <leafValues>
            6.9296434521675110e-02 -8.8383859395980835e-01</leafValues></_>
        <_>
          <internalNodes>
            0 -1 268 1.1891610920429230e-03</internalNodes>
          <leafValues>
            -2.0082597434520721e-01 4.0364626049995422e-01</leafValues></_>
        <_>
          <internalNodes>
            0 -1 268 -4.1483039967715740e-04</internalNodes>
          <leafValues>
            3.1803706288337708e-01 -2.0134484767913818e-01</leafValues></_></weakClassifiers></_>
    <!-- stage 5 -->
    <_>
      <maxWeakCount>36</maxWeakCount>
      <stageThreshold>-1.0046658515930176e+00</stageThreshold>
      <weakClassifiers>
        <_>
          <internalNodes>
            0 -1 156 8.3235308527946472e-02</internalNodes>
          <leafValues>
            3.2435232400894165e-01 7.7328991889953613e-01</leafValues></_>
        <_>
          <internalNodes>
            0 -1 214 -3.1788658816367388e-05</internalNodes>
          <leafValues>
            3.4311482310295105e-01 -3.0209696292877197e-01</leafValues></_>
        <_>
          <internalNodes>
            0 -1 411 3.1019782647490501e-02</internalNodes>
          <leafValues>
            -1.6996055841445923e-01 4.6321442723274231e-01</leafValues></_>
        <_>
          <internalNodes>
            0 -1 397 2.8054811060428619e-02</internalNodes>
          <leafValues>
            -1.4720512926578522e-01 4.6799516677856445e-01</leafValues></_>
        <_>
          <internalNodes>
            0 -1 216 1.2493971553340089e-05</internalNodes>
          <leafValues>
            -2.7006453275680542e-01 2.3768907785415649e-01</leafValues></_>
        <_>
          <internalNodes>
            0 -1 204 3.9216451346874237e-02</internalNodes>
          <leafValues>
            -1.4943394064903259e-01 5.0987738370895386e-01</leafValues></_>
        <_>
          <internalNodes>
            0 -1 338 -1.3734806561842561e-03</internalNodes>
          <leafValues>
            2.5677123665809631e-01 -3.2758328318595886e-01</leafValues></_>
        <_>
          <internalNodes>
            0 -1 131 1.1876301141455770e-03</internalNodes>
          <leafValues>
            -2.1418827772140503e-01 3.1459358334541321e-01</leafValues></_>
        <_>
          <internalNodes>
            0 -1 353 -1.4515773952007294e-01</internalNodes>
          <leafValues>
            -6.5816783905029297e-01 9.1199479997158051e-02</leafValues></_>
        <_>
          <internalNodes>
            0 -1 123 -8.0754913389682770e-02</internalNodes>
          <leafValues>
            -6.2989336252212524e-01 1.0266772657632828e-01</leafValues></_>
        <_>
          <internalNodes>
            0 -1 384 -3.4558652259875089e-05</internalNodes>
          <leafValues>
            1.8897832930088043e-01 -3.3788630366325378e-01</leafValues></_>
        <_>
          <internalNodes>
            0 -1 146 -5.9720680117607117e-02</internalNodes>
          <leafValues>
            6.6378283500671387e-01 -1.0628056526184082e-01</leafValues></_>
        <_>
          <internalNodes>
            0 -1 386 -2.3008633404970169e-02</internalNodes>
          <leafValues>
            7.3609161376953125e-01 -7.0720784366130829e-02</leafValues></_>
        <_>
          <internalNodes>
            0 -1 307 -2.7630603872239590e-03</internalNodes>
          <leafValues>
            -7.8345155715942383e-01 9.3106813728809357e-02</leafValues></_>
        <_>
          <internalNodes>
            0 -1 324 -1.4654712751507759e-02</internalNodes>
          <leafValues>
            5.2300155162811279e-01 -1.2548089027404785e-01</leafValues></_>
        <_>
          <internalNodes>
            0 -1 391 -3.4535169106675312e-05</internalNodes>
          <leafValues>
            2.0485481619834900e-01 -3.2693907618522644e-01</leafValues></_>
        <_>
          <internalNodes>
            0 -1 388 5.2719586528837681e-04</internalNodes>
          <leafValues>
            -2.5154957175254822e-01 2.6769217848777771e-01</leafValues></_>
        <_>
          <internalNodes>
            0 -1 52 2.9023189199506305e-05</internalNodes>
          <leafValues>
            -2.8659209609031677e-01 2.2081887722015381e-01</leafValues></_>
        <_>
          <internalNodes>
            0 -1 282 7.8563483839388937e-05</internalNodes>
          <leafValues>
            -3.1556609272956848e-01 1.8831746280193329e-01</leafValues></_>
        <_>
          <internalNodes>
            0 -1 51 -2.6443943381309509e-02</internalNodes>
          <leafValues>
            5.2467155456542969e-01 -1.3681103289127350e-01</leafValues></_>
        <_>
          <internalNodes>
            0 -1 302 4.1221524588763714e-04</internalNodes>
          <leafValues>
            -2.0453643798828125e-01 3.0932196974754333e-01</leafValues></_>
        <_>
          <internalNodes>
            0 -1 22 -3.2784044742584229e-01</internalNodes>
          <leafValues>
            7.6952415704727173e-01 -8.5127405822277069e-02</leafValues></_>
        <_>
          <internalNodes>
            0 -1 6 1.6750833392143250e-01</internalNodes>
          <leafValues>
            -1.4066556096076965e-01 4.5281150937080383e-01</leafValues></_>
        <_>
          <internalNodes>
            0 -1 344 1.1098413961008191e-04</internalNodes>
          <leafValues>
            -2.8302559256553650e-01 2.0565703511238098e-01</leafValues></_>
        <_>
          <internalNodes>
            0 -1 20 -1.0631158947944641e-01</internalNodes>
          <leafValues>
            4.0127715468406677e-01 -1.5699175000190735e-01</leafValues></_>
        <_>
          <internalNodes>
            0 -1 210 7.7153607271611691e-03</internalNodes>
          <leafValues>
            -1.4088869094848633e-01 4.1302433609962463e-01</leafValues></_>
        <_>
          <internalNodes>
            0 -1 116 1.3299752936291043e-05</internalNodes>
          <leafValues>
            -2.7515241503715515e-01 2.1112971007823944e-01</leafValues></_>
        <_>
          <internalNodes>
            0 -1 86 -5.5299006402492523e-02</internalNodes>
          <leafValues>
            4.7666192054748535e-01 -1.2941305339336395e-01</leafValues></_>
        <_>
          <internalNodes>
            0 -1 59 7.6767383143305779e-03</internalNodes>
          <leafValues>
            -1.9463349878787994e-01 3.3164379000663757e-01</leafValues></_>
        <_>
          <internalNodes>
            0 -1 336 3.0156603315845132e-04</internalNodes>
          <leafValues>
            -1.6998450458049774e-01 3.3768430352210999e-01</leafValues></_>
        <_>
          <internalNodes>
            0 -1 135 3.0185226933099329e-05</internalNodes>
          <leafValues>
            -2.3528668284416199e-01 2.5386220216751099e-01</leafValues></_>
        <_>
          <internalNodes>
            0 -1 124 5.0138710066676140e-03</internalNodes>
          <leafValues>
            -1.6163475811481476e-01 3.8224297761917114e-01</leafValues></_>
        <_>
          <internalNodes>
            0 -1 203 1.4045813259144779e-05</internalNodes>
          <leafValues>
            -3.5592415928840637e-01 1.8580071628093719e-01</leafValues></_>
        <_>
          <internalNodes>
            0 -1 221 1.2499562464654446e-02</internalNodes>
          <leafValues>
            -1.1097159236669540e-01 5.1897734403610229e-01</leafValues></_>
        <_>
          <internalNodes>
            0 -1 122 -3.6969691514968872e-02</internalNodes>
          <leafValues>
            5.9077274799346924e-01 -9.9724963307380676e-02</leafValues></_>
        <_>
          <internalNodes>
            0 -1 170 2.9304187744855881e-02</internalNodes>
          <leafValues>
            -1.2414851784706116e-01 4.4097352027893066e-01</leafValues></_></weakClassifiers></_>
    <!-- stage 6 -->
    <_>
      <maxWeakCount>30</maxWeakCount>
      <stageThreshold>-8.8152319192886353e-01</stageThreshold>
      <weakClassifiers>
        <_>
          <internalNodes>
            0 -1 9 2.6873433589935303e-01</internalNodes>
          <leafValues>
            6.5103733539581299e-01 -7.6666665077209473e-01</leafValues></_>
        <_>
          <internalNodes>
            0 -1 325 9.5108188688755035e-03</internalNodes>
          <leafValues>
            -5.8948870748281479e-02 5.7741874456405640e-01</leafValues></_>
        <_>
          <internalNodes>
            0 -1 367 9.1299610212445259e-03</internalNodes>
          <leafValues>
            -1.8857182562351227e-01 4.8406267166137695e-01</leafValues></_>
        <_>
          <internalNodes>
            0 -1 43 1.4033314585685730e-01</internalNodes>
          <leafValues>
            -1.8918710947036743e-01 5.1164466142654419e-01</leafValues></_>
        <_>
          <internalNodes>
            0 -1 34 8.0250054597854614e-03</internalNodes>
          <leafValues>
            -1.8340316414833069e-01 4.8353916406631470e-01</leafValues></_>
        <_>
          <internalNodes>
            0 -1 207 5.5629312992095947e-02</internalNodes>
          <leafValues>
            -1.7741031944751740e-01 5.6826931238174438e-01</leafValues></_>
        <_>
          <internalNodes>
            0 -1 297 -9.6877699252218008e-04</internalNodes>
          <leafValues>
            3.2280555367469788e-01 -2.7063590288162231e-01</leafValues></_>
        <_>
          <internalNodes>
            0 -1 177 -2.6243180036544800e-02</internalNodes>
          <leafValues>
            4.6581324934959412e-01 -1.5032978355884552e-01</leafValues></_>
        <_>
          <internalNodes>
            0 -1 163 -1.3638936914503574e-02</internalNodes>
          <leafValues>
            -4.9838453531265259e-01 1.6258653998374939e-01</leafValues></_>
        <_>
          <internalNodes>
            0 -1 269 -3.7616621702909470e-03</internalNodes>
          <leafValues>
            3.3072030544281006e-01 -2.0975963771343231e-01</leafValues></_>
        <_>
          <internalNodes>
            0 -1 358 -2.5201354175806046e-02</internalNodes>
          <leafValues>
            -7.8023046255111694e-01 8.7886705994606018e-02</leafValues></_>
        <_>
          <internalNodes>
            0 -1 319 -4.5141085982322693e-02</internalNodes>
          <leafValues>
            6.8108153343200684e-01 -1.1816138029098511e-01</leafValues></_>
        <_>
          <internalNodes>
            0 -1 187 -1.0837686248123646e-02</internalNodes>
          <leafValues>
            3.9509674906730652e-01 -1.7845244705677032e-01</leafValues></_>
        <_>
          <internalNodes>
            0 -1 44 -3.5997012164443731e-03</internalNodes>
          <leafValues>
            5.2617526054382324e-01 -1.0752528905868530e-01</leafValues></_>
        <_>
          <internalNodes>
            0 -1 84 1.2265869881957769e-03</internalNodes>
          <leafValues>
            -2.1552352607250214e-01 2.8494566679000854e-01</leafValues></_>
        <_>
          <internalNodes>
            0 -1 219 2.7077352569904178e-05</internalNodes>
          <leafValues>
            -2.2322098910808563e-01 2.6307415962219238e-01</leafValues></_>
        <_>
          <internalNodes>
            0 -1 12 3.5021593794226646e-03</internalNodes>
          <leafValues>
            -1.1708301305770874e-01 5.4299086332321167e-01</leafValues></_>
        <_>
          <internalNodes>
            0 -1 285 3.5757486330112442e-05</internalNodes>
          <leafValues>
            -3.4024852514266968e-01 1.9113905727863312e-01</leafValues></_>
        <_>
          <internalNodes>
            0 -1 66 3.1801119912415743e-03</internalNodes>
          <leafValues>
            -1.5686680376529694e-01 4.1961738467216492e-01</leafValues></_>
        <_>
          <internalNodes>
            0 -1 412 -3.0016501114005223e-05</internalNodes>
          <leafValues>
            2.0068217813968658e-01 -3.1636530160903931e-01</leafValues></_>
        <_>
          <internalNodes>
            0 -1 378 1.0751467198133469e-02</internalNodes>
          <leafValues>
            -1.2521597743034363e-01 5.4137063026428223e-01</leafValues></_>
        <_>
          <internalNodes>
            0 -1 103 6.2776029109954834e-02</internalNodes>
          <leafValues>
            -2.1214675903320312e-01 2.9853802919387817e-01</leafValues></_>
        <_>
          <internalNodes>
            0 -1 14 -8.1662744283676147e-02</internalNodes>
          <leafValues>
            7.2628575563430786e-01 -8.5896648466587067e-02</leafValues></_>
        <_>
          <internalNodes>
            0 -1 49 -1.5606582164764404e-01</internalNodes>
          <leafValues>
            -6.9393074512481689e-01 1.0916938632726669e-01</leafValues></_>
        <_>
          <internalNodes>
            0 -1 435 5.7903765700757504e-03</internalNodes>
          <leafValues>
            -1.4261008799076080e-01 4.5755866169929504e-01</leafValues></_>
        <_>
          <internalNodes>
            0 -1 408 -3.1742823775857687e-03</internalNodes>
          <leafValues>
            4.0754285454750061e-01 -1.4859616756439209e-01</leafValues></_>
        <_>
          <internalNodes>
            0 -1 110 9.6553303301334381e-03</internalNodes>
          <leafValues>
            -9.6836298704147339e-02 5.7544630765914917e-01</leafValues></_>
        <_>
          <internalNodes>
            0 -1 92 3.0216557206586003e-05</internalNodes>
          <leafValues>
            -3.2727020978927612e-01 2.0805327594280243e-01</leafValues></_>
        <_>
          <internalNodes>
            0 -1 126 -1.2573772437463049e-05</internalNodes>
          <leafValues>
            2.7319169044494629e-01 -2.0232734084129333e-01</leafValues></_>
        <_>
          <internalNodes>
            0 -1 184 -2.1971503272652626e-02</internalNodes>
          <leafValues>
            4.6800765395164490e-01 -1.3277666270732880e-01</leafValues></_></weakClassifiers></_>
    <!-- stage 7 -->
    <_>
      <maxWeakCount>38</maxWeakCount>
      <stageThreshold>-9.2096638679504395e-01</stageThreshold>
      <weakClassifiers>
        <_>
          <internalNodes>
            0 -1 423 1.1513144522905350e-01</internalNodes>
          <leafValues>
            6.4203953742980957e-01 -4.3589743971824646e-01</leafValues></_>
        <_>
          <internalNodes>
            0 -1 232 -1.0422889608889818e-03</internalNodes>
          <leafValues>
            4.2720434069633484e-01 -1.9716398417949677e-01</leafValues></_>
        <_>
          <internalNodes>
            0 -1 227 3.0443079769611359e-02</internalNodes>
          <leafValues>
            1.3485777378082275e-01 -5.8588993549346924e-01</leafValues></_>
        <_>
          <internalNodes>
            0 -1 56 -8.0636264756321907e-03</internalNodes>
          <leafValues>
            5.0805485248565674e-01 -1.4657838642597198e-01</leafValues></_>
        <_>
          <internalNodes>
            0 -1 56 6.8317577242851257e-03</internalNodes>
          <leafValues>
            -1.6468621790409088e-01 4.5139500498771667e-01</leafValues></_>
        <_>
          <internalNodes>
            0 -1 431 1.6491394490003586e-02</internalNodes>
          <leafValues>
            -1.7159631848335266e-01 3.6478054523468018e-01</leafValues></_>
        <_>
          <internalNodes>
            0 -1 368 1.4884470030665398e-02</internalNodes>
          <leafValues>
            -1.2880410254001617e-01 4.5497575402259827e-01</leafValues></_>
        <_>
          <internalNodes>
            0 -1 223 -3.8016378879547119e-02</internalNodes>
          <leafValues>
            4.3722519278526306e-01 -1.4294673502445221e-01</leafValues></_>
        <_>
          <internalNodes>
            0 -1 279 2.7545478194952011e-02</internalNodes>
          <leafValues>
            -1.0442961007356644e-01 5.2022486925125122e-01</leafValues></_>
        <_>
          <internalNodes>
            0 -1 30 -8.5843307897448540e-04</internalNodes>
          <leafValues>
            -3.6592492461204529e-01 1.5463770925998688e-01</leafValues></_>
        <_>
          <internalNodes>
            0 -1 361 -2.2190171293914318e-03</internalNodes>
          <leafValues>
            2.3713932931423187e-01 -2.4257825314998627e-01</leafValues></_>
        <_>
          <internalNodes>
            0 -1 241 7.6111301779747009e-02</internalNodes>
          <leafValues>
            7.7031478285789490e-02 -8.2434076070785522e-01</leafValues></_>
        <_>
          <internalNodes>
            0 -1 294 -1.1835815712402109e-05</internalNodes>
          <leafValues>
            2.5731813907623291e-01 -2.3027774691581726e-01</leafValues></_>
        <_>
          <internalNodes>
            0 -1 414 -3.2029282010626048e-05</internalNodes>
          <leafValues>
            1.7213337123394012e-01 -3.2131299376487732e-01</leafValues></_>
        <_>
          <internalNodes>
            0 -1 359 -4.5793153345584869e-02</internalNodes>
          <leafValues>
            6.5699028968811035e-01 -8.5855014622211456e-02</leafValues></_>
        <_>
          <internalNodes>
            0 -1 175 1.3273993317852728e-05</internalNodes>
          <leafValues>
            -2.6447510719299316e-01 2.2899654507637024e-01</leafValues></_>
        <_>
          <internalNodes>
            0 -1 38 9.2284297570586205e-03</internalNodes>
          <leafValues>
            -1.6728426516056061e-01 3.6011922359466553e-01</leafValues></_>
        <_>
          <internalNodes>
            0 -1 417 -1.2819627299904823e-02</internalNodes>
          <leafValues>
            6.7896348237991333e-01 -7.6516479253768921e-02</leafValues></_>
        <_>
          <internalNodes>
            0 -1 303 -8.5480720736086369e-04</internalNodes>
          <leafValues>
            2.7725464105606079e-01 -1.8214534223079681e-01</leafValues></_>
        <_>
          <internalNodes>
            0 -1 99 -1.5073874592781067e-01</internalNodes>
          <leafValues>
            -6.1846393346786499e-01 1.0424697399139404e-01</leafValues></_>
        <_>
          <internalNodes>
            0 -1 258 3.7020267918705940e-03</internalNodes>
          <leafValues>
            -1.8327738344669342e-01 3.1069117784500122e-01</leafValues></_>
        <_>
          <internalNodes>
            0 -1 60 3.3986305352300406e-03</internalNodes>
          <leafValues>
            1.5457269549369812e-01 -3.4776684641838074e-01</leafValues></_>
        <_>
          <internalNodes>
            0 -1 399 -1.1622432793956250e-05</internalNodes>
          <leafValues>
            2.5814577937126160e-01 -1.9939218461513519e-01</leafValues></_>
        <_>
          <internalNodes>
            0 -1 425 -6.4480016008019447e-03</internalNodes>
          <leafValues>
            4.6041747927665710e-01 -1.2330862134695053e-01</leafValues></_>
        <_>
          <internalNodes>
            0 -1 147 2.6205678295809776e-05</internalNodes>
          <leafValues>
            -2.6027318835258484e-01 1.9144132733345032e-01</leafValues></_>
        <_>
          <internalNodes>
            0 -1 192 1.8301452510058880e-03</internalNodes>
          <leafValues>
            1.8234016001224518e-01 -2.9979512095451355e-01</leafValues></_>
        <_>
          <internalNodes>
            0 -1 237 9.3120355159044266e-03</internalNodes>
          <leafValues>
            6.5455660223960876e-02 -8.3890789747238159e-01</leafValues></_>
        <_>
          <internalNodes>
            0 -1 0 -1.3228819007053971e-03</internalNodes>
          <leafValues>
            -3.3403843641281128e-01 1.5418748557567596e-01</leafValues></_>
        <_>
          <internalNodes>
            0 -1 185 -8.4462827071547508e-03</internalNodes>
          <leafValues>
            4.5022413134574890e-01 -1.3014425337314606e-01</leafValues></_>
        <_>
          <internalNodes>
            0 -1 421 -1.4303945135907270e-05</internalNodes>
          <leafValues>
            2.7009156346321106e-01 -1.8882296979427338e-01</leafValues></_>
        <_>
          <internalNodes>
            0 -1 82 7.1465447545051575e-03</internalNodes>
          <leafValues>
            -1.0735060274600983e-01 5.2336496114730835e-01</leafValues></_>
        <_>
          <internalNodes>
            0 -1 383 2.3231962695717812e-03</internalNodes>
          <leafValues>
            -1.4196979999542236e-01 3.6996179819107056e-01</leafValues></_>
        <_>
          <internalNodes>
            0 -1 215 2.9736873329966329e-05</internalNodes>
          <leafValues>
            -2.2716648876667023e-01 2.1857653558254242e-01</leafValues></_>
        <_>
          <internalNodes>
            0 -1 420 -2.6901019737124443e-03</internalNodes>
          <leafValues>
            3.4407395124435425e-01 -1.5228162705898285e-01</leafValues></_>
        <_>
          <internalNodes>
            0 -1 330 -5.5974684655666351e-02</internalNodes>
          <leafValues>
            -7.9469722509384155e-01 6.6427528858184814e-02</leafValues></_>
        <_>
          <internalNodes>
            0 -1 405 -5.4892353713512421e-02</internalNodes>
          <leafValues>
            8.0082327127456665e-01 -7.5949952006340027e-02</leafValues></_>
        <_>
          <internalNodes>
            0 -1 344 4.0095066651701927e-05</internalNodes>
          <leafValues>
            -3.3953434228897095e-01 1.9443874061107635e-01</leafValues></_>
        <_>
          <internalNodes>
            0 -1 419 -3.8446434773504734e-03</internalNodes>
          <leafValues>
            1.9153718650341034e-01 -2.6995971798896790e-01</leafValues></_></weakClassifiers></_>
    <!-- stage 8 -->
    <_>
      <maxWeakCount>43</maxWeakCount>
      <stageThreshold>-9.0073841810226440e-01</stageThreshold>
      <weakClassifiers>
        <_>
          <internalNodes>
            0 -1 253 -1.3530712749343365e-05</internalNodes>
          <leafValues>
            7.2472208738327026e-01 2.1440261602401733e-01</leafValues></_>
        <_>
          <internalNodes>
            0 -1 370 -1.0773045687528793e-05</internalNodes>
          <leafValues>
            3.1107679009437561e-01 -2.5371515750885010e-01</leafValues></_>
        <_>
          <internalNodes>
            0 -1 226 1.2176416814327240e-02</internalNodes>
          <leafValues>
            -1.2017594277858734e-01 5.0501465797424316e-01</leafValues></_>
        <_>
          <internalNodes>
            0 -1 317 1.3261425010568928e-05</internalNodes>
          <leafValues>
            -3.1591093540191650e-01 2.1240396797657013e-01</leafValues></_>
        <_>
          <internalNodes>
            0 -1 460 6.3026845455169678e-03</internalNodes>
          <leafValues>
            -1.0134958475828171e-01 5.2073353528976440e-01</leafValues></_>
        <_>
          <internalNodes>
            0 -1 121 -1.1448882520198822e-02</internalNodes>
          <leafValues>
            3.6165678501129150e-01 -1.7203640937805176e-01</leafValues></_>
        <_>
          <internalNodes>
            0 -1 272 1.4242200180888176e-02</internalNodes>
          <leafValues>
            -2.2996851801872253e-01 2.6739698648452759e-01</leafValues></_>
        <_>
          <internalNodes>
            0 -1 377 -2.7773270630859770e-05</internalNodes>
          <leafValues>
            2.5148013234138489e-01 -2.0086774230003357e-01</leafValues></_>
        <_>
          <internalNodes>
            0 -1 3 -2.9694038629531860e-01</internalNodes>
          <leafValues>
            -7.0534998178482056e-01 7.6043263077735901e-02</leafValues></_>
        <_>
          <internalNodes>
            0 -1 17 3.1322695314884186e-02</internalNodes>
          <leafValues>
            6.6863231360912323e-02 -6.6425216197967529e-01</leafValues></_>
        <_>
          <internalNodes>
            0 -1 341 1.3893352843297180e-05</internalNodes>
          <leafValues>
            -2.8509855270385742e-01 1.8620634078979492e-01</leafValues></_>
        <_>
          <internalNodes>
            0 -1 464 -1.7197266221046448e-02</internalNodes>
          <leafValues>
            -4.5588934421539307e-01 1.2267803400754929e-01</leafValues></_>
        <_>
          <internalNodes>
            0 -1 346 8.4609799087047577e-03</internalNodes>
          <leafValues>
            -2.3257309198379517e-01 2.3458689451217651e-01</leafValues></_>
        <_>
          <internalNodes>
            0 -1 366 3.4321041312068701e-05</internalNodes>
          <leafValues>
            -3.3324974775314331e-01 1.9269621372222900e-01</leafValues></_>
        <_>
          <internalNodes>
            0 -1 183 -8.5928201675415039e-02</internalNodes>
          <leafValues>
            6.8319320678710938e-01 -8.8774904608726501e-02</leafValues></_>
        <_>
          <internalNodes>
            0 -1 64 1.0343462228775024e-02</internalNodes>
          <leafValues>
            -1.4946918189525604e-01 4.0984016656875610e-01</leafValues></_>
        <_>
          <internalNodes>
            0 -1 377 1.2532922482932918e-05</internalNodes>
          <leafValues>
            -1.8967773020267487e-01 2.8499752283096313e-01</leafValues></_>
        <_>
          <internalNodes>
            0 -1 152 6.3754655420780182e-03</internalNodes>
          <leafValues>
            -1.6261778771877289e-01 3.4888222813606262e-01</leafValues></_>
        <_>
          <internalNodes>
            0 -1 138 9.6223324537277222e-02</internalNodes>
          <leafValues>
            -9.1280348598957062e-02 5.9974050521850586e-01</leafValues></_>
        <_>
          <internalNodes>
            0 -1 331 -3.0861490813549608e-05</internalNodes>
          <leafValues>
            2.4842475354671478e-01 -2.6574274897575378e-01</leafValues></_>
        <_>
          <internalNodes>
            0 -1 200 -1.5264043211936951e-01</internalNodes>
          <leafValues>
            6.7062354087829590e-01 -9.2958152294158936e-02</leafValues></_>
        <_>
          <internalNodes>
            0 -1 315 1.3261425010568928e-05</internalNodes>
          <leafValues>
            -2.6873514056205750e-01 2.5009387731552124e-01</leafValues></_>
        <_>
          <internalNodes>
            0 -1 335 -4.4742323458194733e-02</internalNodes>
          <leafValues>
            -7.5348323583602905e-01 7.1371674537658691e-02</leafValues></_>
        <_>
          <internalNodes>
            0 -1 240 -1.3012281619012356e-02</internalNodes>
          <leafValues>
            -6.1096709966659546e-01 7.4016489088535309e-02</leafValues></_>
        <_>
          <internalNodes>
            0 -1 37 1.3253894394438248e-05</internalNodes>
          <leafValues>
            -2.1550546586513519e-01 2.3693414032459259e-01</leafValues></_>
        <_>
          <internalNodes>
            0 -1 273 1.5943408943712711e-03</internalNodes>
          <leafValues>
            -1.9950681924819946e-01 2.5489413738250732e-01</leafValues></_>
        <_>
          <internalNodes>
            0 -1 263 6.3610821962356567e-03</internalNodes>
          <leafValues>
            -1.2781178951263428e-01 4.0517273545265198e-01</leafValues></_>
        <_>
          <internalNodes>
            0 -1 301 -3.4090620465576649e-04</internalNodes>
          <leafValues>
            2.9427769780158997e-01 -1.9101339578628540e-01</leafValues></_>
        <_>
          <internalNodes>
            0 -1 75 -2.7659974875859916e-05</internalNodes>
          <leafValues>
            2.2138926386833191e-01 -2.6563888788223267e-01</leafValues></_>
        <_>
          <internalNodes>
            0 -1 47 6.0675768181681633e-03</internalNodes>
          <leafValues>
            -1.4520023763179779e-01 3.8733905553817749e-01</leafValues></_>
        <_>
          <internalNodes>
            0 -1 145 1.3641875739267562e-05</internalNodes>
          <leafValues>
            -2.2376865148544312e-01 2.3581583797931671e-01</leafValues></_>
        <_>
          <internalNodes>
            0 -1 149 8.4075704216957092e-04</internalNodes>
          <leafValues>
            -1.8882657587528229e-01 2.9550042748451233e-01</leafValues></_>
        <_>
          <internalNodes>
            0 -1 39 -9.2424198985099792e-02</internalNodes>
          <leafValues>
            5.8461660146713257e-01 -9.1486185789108276e-02</leafValues></_>
        <_>
          <internalNodes>
            0 -1 113 1.7956359442905523e-05</internalNodes>
          <leafValues>
            -3.2811987400054932e-01 2.1496699750423431e-01</leafValues></_>
        <_>
          <internalNodes>
            0 -1 365 3.6107361665926874e-05</internalNodes>
          <leafValues>
            -3.1135618686676025e-01 1.6979297995567322e-01</leafValues></_>
        <_>
          <internalNodes>
            0 -1 440 1.0598627850413322e-02</internalNodes>
          <leafValues>
            -9.1220550239086151e-02 5.7098209857940674e-01</leafValues></_>
        <_>
          <internalNodes>
            0 -1 402 1.4151612049317919e-05</internalNodes>
          <leafValues>
            -1.9630783796310425e-01 2.5593563914299011e-01</leafValues></_>
        <_>
          <internalNodes>
            0 -1 376 -4.3949164450168610e-02</internalNodes>
          <leafValues>
            4.5561861991882324e-01 -1.1647939682006836e-01</leafValues></_>
        <_>
          <internalNodes>
            0 -1 437 -7.2411936707794666e-04</internalNodes>
          <leafValues>
            -3.0875474214553833e-01 1.6370265185832977e-01</leafValues></_>
        <_>
          <internalNodes>
            0 -1 107 1.3281729479786009e-05</internalNodes>
          <leafValues>
            -2.8785887360572815e-01 1.7855846881866455e-01</leafValues></_>
        <_>
          <internalNodes>
            0 -1 275 -3.5703778848983347e-05</internalNodes>
          <leafValues>
            2.9112777113914490e-01 -1.7885270714759827e-01</leafValues></_>
        <_>
          <internalNodes>
            0 -1 265 1.6416808590292931e-02</internalNodes>
          <leafValues>
            7.0218488574028015e-02 -8.6148554086685181e-01</leafValues></_>
        <_>
          <internalNodes>
            0 -1 46 -4.8744119703769684e-03</internalNodes>
          <leafValues>
            3.5585567355155945e-01 -1.5788440406322479e-01</leafValues></_></weakClassifiers></_>
    <!-- stage 9 -->
    <_>
      <maxWeakCount>48</maxWeakCount>
      <stageThreshold>-1.0110629796981812e+00</stageThreshold>
      <weakClassifiers>
        <_>
          <internalNodes>
            0 -1 198 -4.4681830331683159e-03</internalNodes>
          <leafValues>
            -7.5510203838348389e-01 6.2709099054336548e-01</leafValues></_>
        <_>
          <internalNodes>
            0 -1 340 1.1835815712402109e-05</internalNodes>
          <leafValues>
            -2.4708630144596100e-01 3.1341898441314697e-01</leafValues></_>
        <_>
          <internalNodes>
            0 -1 176 -2.7077352569904178e-05</internalNodes>
          <leafValues>
            1.7709912359714508e-01 -3.7869644165039062e-01</leafValues></_>
        <_>
          <internalNodes>
            0 -1 48 1.4741526916623116e-02</internalNodes>
          <leafValues>
            -1.5536777675151825e-01 4.3268796801567078e-01</leafValues></_>
        <_>
          <internalNodes>
            0 -1 118 3.1301202398026362e-05</internalNodes>
          <leafValues>
            -2.5340226292610168e-01 2.2600583732128143e-01</leafValues></_>
        <_>
          <internalNodes>
            0 -1 136 -3.9754182100296021e-02</internalNodes>
          <leafValues>
            7.6221406459808350e-01 -1.1320323497056961e-01</leafValues></_>
        <_>
          <internalNodes>
            0 -1 462 8.5986051708459854e-03</internalNodes>
          <leafValues>
            1.3677997887134552e-01 -4.3772697448730469e-01</leafValues></_>
        <_>
          <internalNodes>
            0 -1 1 1.3179674744606018e-02</internalNodes>
          <leafValues>
            1.1978020519018173e-01 -5.0304681062698364e-01</leafValues></_>
        <_>
          <internalNodes>
            0 -1 148 1.2022293049085420e-05</internalNodes>
          <leafValues>
            -2.5401276350021362e-01 2.2518785297870636e-01</leafValues></_>
        <_>
          <internalNodes>
            0 -1 382 -2.7182420715689659e-02</internalNodes>
          <leafValues>
            5.5336833000183105e-01 -1.1336226016283035e-01</leafValues></_>
        <_>
          <internalNodes>
            0 -1 345 3.1563089578412473e-05</internalNodes>
          <leafValues>
            -3.0904802680015564e-01 1.7909209430217743e-01</leafValues></_>
        <_>
          <internalNodes>
            0 -1 274 1.2715406774077564e-04</internalNodes>
          <leafValues>
            -2.1335212886333466e-01 2.6359072327613831e-01</leafValues></_>
        <_>
          <internalNodes>
            0 -1 455 -1.2627989053726196e-02</internalNodes>
          <leafValues>
            6.4327806234359741e-01 -7.5295872986316681e-02</leafValues></_>
        <_>
          <internalNodes>
            0 -1 67 2.3732990957796574e-03</internalNodes>
          <leafValues>
            -1.6554158926010132e-01 2.9539915919303894e-01</leafValues></_>
        <_>
          <internalNodes>
            0 -1 428 3.3130948431789875e-03</internalNodes>
          <leafValues>
            -1.7073000967502594e-01 2.6795163750648499e-01</leafValues></_>
        <_>
          <internalNodes>
            0 -1 15 6.1291235033422709e-04</internalNodes>
          <leafValues>
            1.2878486514091492e-01 -3.4213760495185852e-01</leafValues></_>
        <_>
          <internalNodes>
            0 -1 157 -7.8804921358823776e-03</internalNodes>
          <leafValues>
            6.5049833059310913e-01 -7.6754339039325714e-02</leafValues></_>
        <_>
          <internalNodes>
            0 -1 130 -1.3060126453638077e-02</internalNodes>
          <leafValues>
            6.5804481506347656e-01 -5.6065291166305542e-02</leafValues></_>
        <_>
          <internalNodes>
            0 -1 209 1.3796281564282253e-05</internalNodes>
          <leafValues>
            -2.5886562466621399e-01 1.7873227596282959e-01</leafValues></_>
        <_>
          <internalNodes>
            0 -1 36 -1.6596832871437073e-01</internalNodes>
          <leafValues>
            5.4261147975921631e-01 -1.0059592127799988e-01</leafValues></_>
        <_>
          <internalNodes>
            0 -1 169 -4.7848245594650507e-04</internalNodes>
          <leafValues>
            -3.8921481370925903e-01 1.3497234880924225e-01</leafValues></_>
        <_>
          <internalNodes>
            0 -1 259 -1.3368764892220497e-02</internalNodes>
          <leafValues>
            5.4106122255325317e-01 -8.4516048431396484e-02</leafValues></_>
        <_>
          <internalNodes>
            0 -1 35 1.8938905559480190e-03</internalNodes>
          <leafValues>
            -1.4379478991031647e-01 2.8534245491027832e-01</leafValues></_>
        <_>
          <internalNodes>
            0 -1 432 -3.2419141381978989e-02</internalNodes>
          <leafValues>
            6.5779578685760498e-01 -6.2602572143077850e-02</leafValues></_>
        <_>
          <internalNodes>
            0 -1 305 -3.2028414309024811e-02</internalNodes>
          <leafValues>
            -7.2111952304840088e-01 7.1412809193134308e-02</leafValues></_>
        <_>
          <internalNodes>
            0 -1 300 -1.2424397027643863e-05</internalNodes>
          <leafValues>
            1.8891413509845734e-01 -2.3345007002353668e-01</leafValues></_>
        <_>
          <internalNodes>
            0 -1 401 5.0629194825887680e-02</internalNodes>
          <leafValues>
            -9.8008789122104645e-02 5.2584660053253174e-01</leafValues></_>
        <_>
          <internalNodes>
            0 -1 212 1.7785458476282656e-04</internalNodes>
          <leafValues>
            -2.3248724639415741e-01 2.1053192019462585e-01</leafValues></_>
        <_>
          <internalNodes>
            0 -1 314 1.2022293049085420e-05</internalNodes>
          <leafValues>
            -2.8820124268531799e-01 1.5610986948013306e-01</leafValues></_>
        <_>
          <internalNodes>
            0 -1 427 3.9801355451345444e-03</internalNodes>
          <leafValues>
            -1.4572927355766296e-01 3.4115391969680786e-01</leafValues></_>
        <_>
          <internalNodes>
            0 -1 243 -4.0116552263498306e-03</internalNodes>
          <leafValues>
            -3.2779237627983093e-01 1.7476524412631989e-01</leafValues></_>
        <_>
          <internalNodes>
            0 -1 446 4.4845016673207283e-03</internalNodes>
          <leafValues>
            -1.1202628165483475e-01 4.2966005206108093e-01</leafValues></_>
        <_>
          <internalNodes>
            0 -1 334 9.3650235794484615e-04</internalNodes>
          <leafValues>
            -1.0766857862472534e-01 3.8426268100738525e-01</leafValues></_>
        <_>
          <internalNodes>
            0 -1 172 4.0918620652519166e-04</internalNodes>
          <leafValues>
            1.2342630326747894e-01 -4.0863513946533203e-01</leafValues></_>
        <_>
          <internalNodes>
            0 -1 281 1.3547874914365821e-05</internalNodes>
          <leafValues>
            -2.8010514378547668e-01 1.6197313368320465e-01</leafValues></_>
        <_>
          <internalNodes>
            0 -1 165 -5.6647468358278275e-02</internalNodes>
          <leafValues>
            6.0806089639663696e-01 -8.7336622178554535e-02</leafValues></_>
        <_>
          <internalNodes>
            0 -1 400 4.3636269867420197e-02</internalNodes>
          <leafValues>
            -1.7121841013431549e-01 3.0131739377975464e-01</leafValues></_>
        <_>
          <internalNodes>
            0 -1 41 2.0030811429023743e-01</internalNodes>
          <leafValues>
            -7.3001757264137268e-02 6.2143439054489136e-01</leafValues></_>
        <_>
          <internalNodes>
            0 -1 10 -1.2045262381434441e-02</internalNodes>
          <leafValues>
            3.7344193458557129e-01 -1.1618775874376297e-01</leafValues></_>
        <_>
          <internalNodes>
            0 -1 403 -2.7427170425653458e-02</internalNodes>
          <leafValues>
            6.2398660182952881e-01 -6.5631106495857239e-02</leafValues></_>
        <_>
          <internalNodes>
            0 -1 284 1.4896611901349388e-05</internalNodes>
          <leafValues>
            -2.8734251856803894e-01 1.5861399471759796e-01</leafValues></_>
        <_>
          <internalNodes>
            0 -1 24 1.9737135153263807e-03</internalNodes>
          <leafValues>
            -1.4110164344310760e-01 3.3553290367126465e-01</leafValues></_>
        <_>
          <internalNodes>
            0 -1 199 -3.1419049948453903e-02</internalNodes>
          <leafValues>
            6.4584749937057495e-01 -6.6274464130401611e-02</leafValues></_>
        <_>
          <internalNodes>
            0 -1 392 -3.8258840504568070e-05</internalNodes>
          <leafValues>
            1.6173782944679260e-01 -2.7485308051109314e-01</leafValues></_>
        <_>
          <internalNodes>
            0 -1 179 8.6152758449316025e-03</internalNodes>
          <leafValues>
            -1.3184762001037598e-01 3.6443498730659485e-01</leafValues></_>
        <_>
          <internalNodes>
            0 -1 456 6.7355460487306118e-04</internalNodes>
          <leafValues>
            1.4322012662887573e-01 -3.3535239100456238e-01</leafValues></_>
        <_>
          <internalNodes>
            0 -1 80 -2.9121714178472757e-03</internalNodes>
          <leafValues>
            4.5979472994804382e-01 -1.0029428452253342e-01</leafValues></_>
        <_>
          <internalNodes>
            0 -1 189 1.1103508993983269e-02</internalNodes>
          <leafValues>
            6.5814532339572906e-02 -7.4223428964614868e-01</leafValues></_></weakClassifiers></_>
    <!-- stage 10 -->
    <_>
      <maxWeakCount>37</maxWeakCount>
      <stageThreshold>-8.7506121397018433e-01</stageThreshold>
      <weakClassifiers>
        <_>
          <internalNodes>
            0 -1 255 -3.5230783396400511e-05</internalNodes>
          <leafValues>
            7.5568795204162598e-01 1.6055046021938324e-01</leafValues></_>
        <_>
          <internalNodes>
            0 -1 61 2.4671152234077454e-01</internalNodes>
          <leafValues>
            -8.6078517138957977e-02 6.0965979099273682e-01</leafValues></_>
        <_>
          <internalNodes>
            0 -1 364 3.1834115361561999e-05</internalNodes>
          <leafValues>
            -2.9214760661125183e-01 2.7234315872192383e-01</leafValues></_>
        <_>
          <internalNodes>
            0 -1 256 3.7614809116348624e-05</internalNodes>
          <leafValues>
            -2.4617412686347961e-01 2.8171858191490173e-01</leafValues></_>
        <_>
          <internalNodes>
            0 -1 363 7.5971511250827461e-05</internalNodes>
          <leafValues>
            -2.6027086377143860e-01 2.4122975766658783e-01</leafValues></_>
        <_>
          <internalNodes>
            0 -1 195 -7.2077162563800812e-02</internalNodes>
          <leafValues>
            5.7959854602813721e-01 -1.0942844301462173e-01</leafValues></_>
        <_>
          <internalNodes>
            0 -1 76 2.8554222808452323e-05</internalNodes>
          <leafValues>
            -3.3128687739372253e-01 2.0572711527347565e-01</leafValues></_>
        <_>
          <internalNodes>
            0 -1 104 -3.0386494472622871e-05</internalNodes>
          <leafValues>
            2.8967541456222534e-01 -2.2420096397399902e-01</leafValues></_>
        <_>
          <internalNodes>
            0 -1 439 -1.7103531863540411e-03</internalNodes>
          <leafValues>
            -3.8210341334342957e-01 1.6341502964496613e-01</leafValues></_>
        <_>
          <internalNodes>
            0 -1 266 1.7407131963409483e-05</internalNodes>
          <leafValues>
            -2.4042184650897980e-01 2.2336408495903015e-01</leafValues></_>
        <_>
          <internalNodes>
            0 -1 18 1.3633656781166792e-03</internalNodes>
          <leafValues>
            1.5716180205345154e-01 -3.5453510284423828e-01</leafValues></_>
        <_>
          <internalNodes>
            0 -1 415 -4.3265732529107481e-05</internalNodes>
          <leafValues>
            1.9320100545883179e-01 -2.9140201210975647e-01</leafValues></_>
        <_>
          <internalNodes>
            0 -1 235 4.8456229269504547e-02</internalNodes>
          <leafValues>
            -9.2262282967567444e-02 6.3616424798965454e-01</leafValues></_>
        <_>
          <internalNodes>
            0 -1 111 2.8887487133033574e-05</internalNodes>
          <leafValues>
            -2.7355602383613586e-01 2.1961559355258942e-01</leafValues></_>
        <_>
          <internalNodes>
            0 -1 83 -1.0055260732769966e-02</internalNodes>
          <leafValues>
            4.8560526967048645e-01 -1.1245577037334442e-01</leafValues></_>
        <_>
          <internalNodes>
            0 -1 274 2.6133231585845351e-04</internalNodes>
          <leafValues>
            -1.6081587970256805e-01 3.0121308565139771e-01</leafValues></_>
        <_>
          <internalNodes>
            0 -1 117 1.4322494280349929e-05</internalNodes>
          <leafValues>
            -2.4741794168949127e-01 2.0210899412631989e-01</leafValues></_>
        <_>
          <internalNodes>
            0 -1 278 3.1595907057635486e-04</internalNodes>
          <leafValues>
            1.6638909280300140e-01 -3.1894010305404663e-01</leafValues></_>
        <_>
          <internalNodes>
            0 -1 71 -2.1515291184186935e-02</internalNodes>
          <leafValues>
            5.0834465026855469e-01 -1.1053401231765747e-01</leafValues></_>
        <_>
          <internalNodes>
            0 -1 33 1.5595383942127228e-01</internalNodes>
          <leafValues>
            9.4069741666316986e-02 -6.3239234685897827e-01</leafValues></_>
        <_>
          <internalNodes>
            0 -1 58 3.3180112950503826e-05</internalNodes>
          <leafValues>
            -2.2373260557651520e-01 2.2510367631912231e-01</leafValues></_>
        <_>
          <internalNodes>
            0 -1 73 -1.3106725236866623e-04</internalNodes>
          <leafValues>
            2.8590184450149536e-01 -1.8008418381214142e-01</leafValues></_>
        <_>
          <internalNodes>
            0 -1 174 -2.6239104568958282e-02</internalNodes>
          <leafValues>
            6.0096329450607300e-01 -7.9942807555198669e-02</leafValues></_>
        <_>
          <internalNodes>
            0 -1 318 -7.3764729313552380e-04</internalNodes>
          <leafValues>
            -3.5643243789672852e-01 1.4348211884498596e-01</leafValues></_>
        <_>
          <internalNodes>
            0 -1 304 -4.7762430040165782e-04</internalNodes>
          <leafValues>
            1.7251417040824890e-01 -2.7955988049507141e-01</leafValues></_>
        <_>
          <internalNodes>
            0 -1 453 -3.2461790397064760e-05</internalNodes>
          <leafValues>
            2.0430418848991394e-01 -2.4739511311054230e-01</leafValues></_>
        <_>
          <internalNodes>
            0 -1 68 -1.4446802437305450e-01</internalNodes>
          <leafValues>
            -6.4241522550582886e-01 8.1727936863899231e-02</leafValues></_>
        <_>
          <internalNodes>
            0 -1 65 1.4610588550567627e-03</internalNodes>
          <leafValues>
            1.6463857889175415e-01 -2.9585447907447815e-01</leafValues></_>
        <_>
          <internalNodes>
            0 -1 222 -1.1385012418031693e-02</internalNodes>
          <leafValues>
            4.1467037796974182e-01 -1.2214221060276031e-01</leafValues></_>
        <_>
          <internalNodes>
            0 -1 224 7.2124991565942764e-03</internalNodes>
          <leafValues>
            -1.2651935219764709e-01 4.7696128487586975e-01</leafValues></_>
        <_>
          <internalNodes>
            0 -1 409 1.2381156557239592e-04</internalNodes>
          <leafValues>
            -2.4228814244270325e-01 2.1320445835590363e-01</leafValues></_>
        <_>
          <internalNodes>
            0 -1 62 -2.1087082102894783e-02</internalNodes>
          <leafValues>
            5.1338523626327515e-01 -9.9380284547805786e-02</leafValues></_>
        <_>
          <internalNodes>
            0 -1 180 3.0742161470698193e-05</internalNodes>
          <leafValues>
            -2.3307733237743378e-01 2.2282640635967255e-01</leafValues></_>
        <_>
          <internalNodes>
            0 -1 354 -3.6348654248286039e-05</internalNodes>
          <leafValues>
            2.2140116989612579e-01 -1.9301396608352661e-01</leafValues></_>
        <_>
          <internalNodes>
            0 -1 396 1.1494341306388378e-03</internalNodes>
          <leafValues>
            1.7017288506031036e-01 -2.8984490036964417e-01</leafValues></_>
        <_>
          <internalNodes>
            0 -1 380 -6.5208263695240021e-02</internalNodes>
          <leafValues>
            7.8764826059341431e-01 -5.9894289821386337e-02</leafValues></_>
        <_>
          <internalNodes>
            0 -1 114 4.8925630748271942e-02</internalNodes>
          <leafValues>
            -8.7186358869075775e-02 5.5198794603347778e-01</leafValues></_></weakClassifiers></_>
    <!-- stage 11 -->
    <_>
      <maxWeakCount>47</maxWeakCount>
      <stageThreshold>-8.0851954221725464e-01</stageThreshold>
      <weakClassifiers>
        <_>
          <internalNodes>
            0 -1 250 -1.7274485435336828e-04</internalNodes>
          <leafValues>
            1.5909090638160706e-01 6.9417476654052734e-01</leafValues></_>
        <_>
          <internalNodes>
            0 -1 45 4.7967121005058289e-02</internalNodes>
          <leafValues>
            -4.4786602258682251e-02 4.7533193230628967e-01</leafValues></_>
        <_>
          <internalNodes>
            0 -1 351 -3.1340099667431787e-05</internalNodes>
          <leafValues>
            2.0043069124221802e-01 -3.0971544981002808e-01</leafValues></_>
        <_>
          <internalNodes>
            0 -1 448 5.1957191899418831e-03</internalNodes>
          <leafValues>
            -1.9868122041225433e-01 2.6120373606681824e-01</leafValues></_>
        <_>
          <internalNodes>
            0 -1 218 -3.6229453980922699e-02</internalNodes>
          <leafValues>
            7.7990359067916870e-01 -9.5329925417900085e-02</leafValues></_>
        <_>
          <internalNodes>
            0 -1 342 4.4934058678336442e-05</internalNodes>
          <leafValues>
            -3.1573840975761414e-01 1.5195421874523163e-01</leafValues></_>
        <_>
          <internalNodes>
            0 -1 85 5.4497465491294861e-02</internalNodes>
          <leafValues>
            7.4869655072689056e-02 -6.8306577205657959e-01</leafValues></_>
        <_>
          <internalNodes>
            0 -1 465 8.9291855692863464e-03</internalNodes>
          <leafValues>
            9.4399847090244293e-02 -4.8017066717147827e-01</leafValues></_>
        <_>
          <internalNodes>
            0 -1 191 1.3591630384325981e-02</internalNodes>
          <leafValues>
            7.7085815370082855e-02 -6.4051735401153564e-01</leafValues></_>
        <_>
          <internalNodes>
            0 -1 78 3.1039227906148881e-05</internalNodes>
          <leafValues>
            -2.6919367909431458e-01 1.5632480382919312e-01</leafValues></_>
        <_>
          <internalNodes>
            0 -1 167 6.1398349702358246e-02</internalNodes>
          <leafValues>
            -1.0563728213310242e-01 4.5313191413879395e-01</leafValues></_>
        <_>
          <internalNodes>
            0 -1 249 2.6844689273275435e-05</internalNodes>
          <leafValues>
            -2.9924839735031128e-01 1.5330180525779724e-01</leafValues></_>
        <_>
          <internalNodes>
            0 -1 186 -2.4944908916950226e-02</internalNodes>
          <leafValues>
            -8.7580680847167969e-01 5.8990314602851868e-02</leafValues></_>
        <_>
          <internalNodes>
            0 -1 323 3.5810058761853725e-05</internalNodes>
          <leafValues>
            -2.1525561809539795e-01 2.0285663008689880e-01</leafValues></_>
        <_>
          <internalNodes>
            0 -1 50 -2.5252625346183777e-02</internalNodes>
          <leafValues>
            3.0988073348999023e-01 -1.5147209167480469e-01</leafValues></_>
        <_>
          <internalNodes>
            0 -1 150 3.0033159418962896e-05</internalNodes>
          <leafValues>
            -2.5737902522087097e-01 2.1562150120735168e-01</leafValues></_>
        <_>
          <internalNodes>
            0 -1 329 7.2403450030833483e-04</internalNodes>
          <leafValues>
            -1.4716856181621552e-01 2.8956702351570129e-01</leafValues></_>
        <_>
          <internalNodes>
            0 -1 202 3.3362906833644956e-05</internalNodes>
          <leafValues>
            -2.7675849199295044e-01 1.5047386288642883e-01</leafValues></_>
        <_>
          <internalNodes>
            0 -1 110 5.1571098156273365e-03</internalNodes>
          <leafValues>
            -1.3126684725284576e-01 3.4964230656623840e-01</leafValues></_>
        <_>
          <internalNodes>
            0 -1 251 8.7609085312578827e-05</internalNodes>
          <leafValues>
            -2.3089784383773804e-01 1.7866532504558563e-01</leafValues></_>
        <_>
          <internalNodes>
            0 -1 100 -1.2036755681037903e-01</internalNodes>
          <leafValues>
            -6.2903320789337158e-01 7.2064511477947235e-02</leafValues></_>
        <_>
          <internalNodes>
            0 -1 244 -1.4593963278457522e-03</internalNodes>
          <leafValues>
            3.8112467527389526e-01 -1.2656332552433014e-01</leafValues></_>
        <_>
          <internalNodes>
            0 -1 328 -2.6494879421079531e-05</internalNodes>
          <leafValues>
            2.1311354637145996e-01 -2.2160615026950836e-01</leafValues></_>
        <_>
          <internalNodes>
            0 -1 119 -6.7249327898025513e-02</internalNodes>
          <leafValues>
            6.7804527282714844e-01 -7.0828922092914581e-02</leafValues></_>
        <_>
          <internalNodes>
            0 -1 127 4.9998968839645386e-02</internalNodes>
          <leafValues>
            -6.8980969488620758e-02 5.9460639953613281e-01</leafValues></_>
        <_>
          <internalNodes>
            0 -1 115 3.0871258786646649e-05</internalNodes>
          <leafValues>
            -2.7855303883552551e-01 1.6957263648509979e-01</leafValues></_>
        <_>
          <internalNodes>
            0 -1 264 -2.2775074467062950e-03</internalNodes>
          <leafValues>
            2.5954079627990723e-01 -1.6996473073959351e-01</leafValues></_>
        <_>
          <internalNodes>
            0 -1 125 6.2333061359822750e-03</internalNodes>
          <leafValues>
            -3.7421730160713196e-01 1.4006941020488739e-01</leafValues></_>
        <_>
          <internalNodes>
            0 -1 433 1.5502970665693283e-02</internalNodes>
          <leafValues>
            -1.6848239302635193e-01 2.8022351861000061e-01</leafValues></_>
        <_>
          <internalNodes>
            0 -1 262 -4.7468796372413635e-02</internalNodes>
          <leafValues>
            -5.7035589218139648e-01 8.0100111663341522e-02</leafValues></_>
        <_>
          <internalNodes>
            0 -1 242 4.1238445555791259e-04</internalNodes>
          <leafValues>
            -1.7214737832546234e-01 2.7072840929031372e-01</leafValues></_>
        <_>
          <internalNodes>
            0 -1 447 1.0476488620042801e-02</internalNodes>
          <leafValues>
            -9.5470428466796875e-02 4.0991860628128052e-01</leafValues></_>
        <_>
          <internalNodes>
            0 -1 108 -1.8969730008393526e-03</internalNodes>
          <leafValues>
            2.8582474589347839e-01 -1.3158282637596130e-01</leafValues></_>
        <_>
          <internalNodes>
            0 -1 32 4.3590433779172599e-04</internalNodes>
          <leafValues>
            1.4197687804698944e-01 -2.9883024096488953e-01</leafValues></_>
        <_>
          <internalNodes>
            0 -1 337 4.0292097255587578e-03</internalNodes>
          <leafValues>
            4.9109689891338348e-02 -7.8926354646682739e-01</leafValues></_>
        <_>
          <internalNodes>
            0 -1 347 1.1941149750782643e-05</internalNodes>
          <leafValues>
            -2.4638800323009491e-01 1.5827183425426483e-01</leafValues></_>
        <_>
          <internalNodes>
            0 -1 410 -2.3143071681261063e-02</internalNodes>
          <leafValues>
            6.6730785369873047e-01 -6.3619762659072876e-02</leafValues></_>
        <_>
          <internalNodes>
            0 -1 348 -3.2463861862197518e-04</internalNodes>
          <leafValues>
            -3.4813603758811951e-01 1.3856379687786102e-01</leafValues></_>
        <_>
          <internalNodes>
            0 -1 293 4.1269827634096146e-03</internalNodes>
          <leafValues>
            -1.4435355365276337e-01 2.6410362124443054e-01</leafValues></_>
        <_>
          <internalNodes>
            0 -1 40 6.2082600779831409e-03</internalNodes>
          <leafValues>
            8.4674693644046783e-02 -4.6542286872863770e-01</leafValues></_>
        <_>
          <internalNodes>
            0 -1 95 -6.7819389514625072e-03</internalNodes>
          <leafValues>
            5.0880473852157593e-01 -8.2808628678321838e-02</leafValues></_>
        <_>
          <internalNodes>
            0 -1 338 -1.4804638922214508e-02</internalNodes>
          <leafValues>
            -7.4416816234588623e-01 5.9883017092943192e-02</leafValues></_>
        <_>
          <internalNodes>
            0 -1 96 1.2047468684613705e-02</internalNodes>
          <leafValues>
            8.1490710377693176e-02 -4.0989869832992554e-01</leafValues></_>
        <_>
          <internalNodes>
            0 -1 133 -8.2020147237926722e-04</internalNodes>
          <leafValues>
            2.0862768590450287e-01 -1.8864139914512634e-01</leafValues></_>
        <_>
          <internalNodes>
            0 -1 196 -8.0711382906883955e-04</internalNodes>
          <leafValues>
            2.0955689251422882e-01 -1.8411043286323547e-01</leafValues></_>
        <_>
          <internalNodes>
            0 -1 239 1.0140640661120415e-03</internalNodes>
          <leafValues>
            -3.0462172627449036e-01 1.3115984201431274e-01</leafValues></_>
        <_>
          <internalNodes>
            0 -1 238 1.0912173893302679e-03</internalNodes>
          <leafValues>
            -1.5786331892013550e-01 2.5713032484054565e-01</leafValues></_></weakClassifiers></_>
    <!-- stage 12 -->
    <_>
      <maxWeakCount>34</maxWeakCount>
      <stageThreshold>-9.4411897659301758e-01</stageThreshold>
      <weakClassifiers>
        <_>
          <internalNodes>
            0 -1 288 -1.3547874914365821e-05</internalNodes>
          <leafValues>
            7.4804002046585083e-01 1.7909300327301025e-01</leafValues></_>
        <_>
          <internalNodes>
            0 -1 349 -1.3261425010568928e-05</internalNodes>
          <leafValues>
            3.5638344287872314e-01 -2.8068518638610840e-01</leafValues></_>
        <_>
          <internalNodes>
            0 -1 42 2.8724431991577148e-01</internalNodes>
          <leafValues>
            -2.0411765575408936e-01 3.6396899819374084e-01</leafValues></_>
        <_>
          <internalNodes>
            0 -1 289 2.9229533538455144e-05</internalNodes>
          <leafValues>
            -2.5088071823120117e-01 2.7117535471916199e-01</leafValues></_>
        <_>
          <internalNodes>
            0 -1 291 -6.2039250042289495e-04</internalNodes>
          <leafValues>
            -4.5067945122718811e-01 1.0702574253082275e-01</leafValues></_>
        <_>
          <internalNodes>
            0 -1 343 1.0859436770260800e-05</internalNodes>
          <leafValues>
            -2.8452977538108826e-01 2.2698362171649933e-01</leafValues></_>
        <_>
          <internalNodes>
            0 -1 404 -1.2082736939191818e-03</internalNodes>
          <leafValues>
            2.7789866924285889e-01 -2.4147512018680573e-01</leafValues></_>
        <_>
          <internalNodes>
            0 -1 387 1.3829897397954483e-05</internalNodes>
          <leafValues>
            -3.1325176358222961e-01 2.2319808602333069e-01</leafValues></_>
        <_>
          <internalNodes>
            0 -1 57 3.0329665605677292e-05</internalNodes>
          <leafValues>
            -2.6700061559677124e-01 2.1079303324222565e-01</leafValues></_>
        <_>
          <internalNodes>
            0 -1 247 3.3377593354089186e-05</internalNodes>
          <leafValues>
            -2.9354795813560486e-01 1.7911298573017120e-01</leafValues></_>
        <_>
          <internalNodes>
            0 -1 349 -6.8874098360538483e-04</internalNodes>
          <leafValues>
            -3.3818826079368591e-01 1.5872596204280853e-01</leafValues></_>
        <_>
          <internalNodes>
            0 -1 389 1.0859436770260800e-05</internalNodes>
          <leafValues>
            -2.9445573687553406e-01 1.8860815465450287e-01</leafValues></_>
        <_>
          <internalNodes>
            0 -1 4 -1.7316616140305996e-03</internalNodes>
          <leafValues>
            -3.7860903143882751e-01 1.3629539310932159e-01</leafValues></_>
        <_>
          <internalNodes>
            0 -1 309 1.0173948248848319e-03</internalNodes>
          <leafValues>
            -1.9258591532707214e-01 2.8438290953636169e-01</leafValues></_>
        <_>
          <internalNodes>
            0 -1 193 7.9757906496524811e-02</internalNodes>
          <leafValues>
            1.0003293305635452e-01 -6.1927038431167603e-01</leafValues></_>
        <_>
          <internalNodes>
            0 -1 328 -1.3530712749343365e-05</internalNodes>
          <leafValues>
            2.3895733058452606e-01 -2.1887399256229401e-01</leafValues></_>
        <_>
          <internalNodes>
            0 -1 13 -5.7801656657829881e-04</internalNodes>
          <leafValues>
            -3.1084218621253967e-01 1.6757598519325256e-01</leafValues></_>
        <_>
          <internalNodes>
            0 -1 13 7.1884749922901392e-04</internalNodes>
          <leafValues>
            1.4317598938941956e-01 -3.5533162951469421e-01</leafValues></_>
        <_>
          <internalNodes>
            0 -1 442 -1.3281729479786009e-05</internalNodes>
          <leafValues>
            2.1926134824752808e-01 -2.2380986809730530e-01</leafValues></_>
        <_>
          <internalNodes>
            0 -1 87 -1.2649858945223968e-05</internalNodes>
          <leafValues>
            2.2071510553359985e-01 -2.1221397817134857e-01</leafValues></_>
        <_>
          <internalNodes>
            0 -1 53 -1.4279093593358994e-02</internalNodes>
          <leafValues>
            4.3835890293121338e-01 -1.1487229913473129e-01</leafValues></_>
        <_>
          <internalNodes>
            0 -1 300 -1.2424397027643863e-05</internalNodes>
          <leafValues>
            2.3757867515087128e-01 -2.3833288252353668e-01</leafValues></_>
        <_>
          <internalNodes>
            0 -1 295 -5.3784013725817204e-03</internalNodes>
          <leafValues>
            -6.1850631237030029e-01 9.9243089556694031e-02</leafValues></_>
        <_>
          <internalNodes>
            0 -1 393 -1.2440984392014798e-05</internalNodes>
          <leafValues>
            1.8542602658271790e-01 -2.7325731515884399e-01</leafValues></_>
        <_>
          <internalNodes>
            0 -1 452 -4.7509338706731796e-02</internalNodes>
          <leafValues>
            6.4447391033172607e-01 -8.3522588014602661e-02</leafValues></_>
        <_>
          <internalNodes>
            0 -1 413 1.5644163795514032e-05</internalNodes>
          <leafValues>
            -2.6394039392471313e-01 1.9079063832759857e-01</leafValues></_>
        <_>
          <internalNodes>
            0 -1 267 -1.4663322872365825e-05</internalNodes>
          <leafValues>
            2.0087628066539764e-01 -2.5500732660293579e-01</leafValues></_>
        <_>
          <internalNodes>
            0 -1 229 -7.6069086790084839e-02</internalNodes>
          <leafValues>
            4.2500308156013489e-01 -1.2043292075395584e-01</leafValues></_>
        <_>
          <internalNodes>
            0 -1 326 -1.4593606465496123e-05</internalNodes>
          <leafValues>
            2.6331377029418945e-01 -2.1098440885543823e-01</leafValues></_>
        <_>
          <internalNodes>
            0 -1 155 -2.2836543619632721e-02</internalNodes>
          <leafValues>
            3.9997962117195129e-01 -1.1908178776502609e-01</leafValues></_>
        <_>
          <internalNodes>
            0 -1 327 -3.7752426578663290e-05</internalNodes>
          <leafValues>
            2.4804873764514923e-01 -1.9555100798606873e-01</leafValues></_>
        <_>
          <internalNodes>
            0 -1 436 2.3097465746104717e-03</internalNodes>
          <leafValues>
            1.3721729815006256e-01 -3.3165663480758667e-01</leafValues></_>
        <_>
          <internalNodes>
            0 -1 333 -3.1449733069166541e-04</internalNodes>
          <leafValues>
            1.9919058680534363e-01 -2.1198026835918427e-01</leafValues></_>
        <_>
          <internalNodes>
            0 -1 276 -7.3007442988455296e-03</internalNodes>
          <leafValues>
            -7.2532141208648682e-01 7.2411127388477325e-02</leafValues></_></weakClassifiers></_>
    <!-- stage 13 -->
    <_>
      <maxWeakCount>47</maxWeakCount>
      <stageThreshold>-7.5659430027008057e-01</stageThreshold>
      <weakClassifiers>
        <_>
          <internalNodes>
            0 -1 231 -2.4209871888160706e-02</internalNodes>
          <leafValues>
            -3.2584270834922791e-01 6.3417667150497437e-01</leafValues></_>
        <_>
          <internalNodes>
            0 -1 233 -3.3302055671811104e-03</internalNodes>
          <leafValues>
            3.9585185050964355e-01 -1.0795985907316208e-01</leafValues></_>
        <_>
          <internalNodes>
            0 -1 385 -1.6773171955719590e-03</internalNodes>
          <leafValues>
            2.8987324237823486e-01 -1.8271867930889130e-01</leafValues></_>
        <_>
          <internalNodes>
            0 -1 426 1.9779462367296219e-02</internalNodes>
          <leafValues>
            -1.5222360193729401e-01 2.9735070466995239e-01</leafValues></_>
        <_>
          <internalNodes>
            0 -1 369 3.3363237977027893e-02</internalNodes>
          <leafValues>
            -1.5420633554458618e-01 3.3402770757675171e-01</leafValues></_>
        <_>
          <internalNodes>
            0 -1 63 -2.3202574253082275e-01</internalNodes>
          <leafValues>
            6.3082879781723022e-01 -9.0647257864475250e-02</leafValues></_>
        <_>
          <internalNodes>
            0 -1 260 7.7341690659523010e-02</internalNodes>
          <leafValues>
            -8.0778971314430237e-02 5.8624893426895142e-01</leafValues></_>
        <_>
          <internalNodes>
            0 -1 352 9.3868505209684372e-03</internalNodes>
          <leafValues>
            -9.1721802949905396e-02 4.7295853495597839e-01</leafValues></_>
        <_>
          <internalNodes>
            0 -1 115 2.6000207071774639e-05</internalNodes>
          <leafValues>
            -2.7964568138122559e-01 1.7138710618019104e-01</leafValues></_>
        <_>
          <internalNodes>
            0 -1 164 8.0534853041172028e-03</internalNodes>
          <leafValues>
            -1.1733295023441315e-01 5.2906578779220581e-01</leafValues></_>
        <_>
          <internalNodes>
            0 -1 312 5.6111901998519897e-02</internalNodes>
          <leafValues>
            -7.9597920179367065e-02 4.7079119086265564e-01</leafValues></_>
        <_>
          <internalNodes>
            0 -1 418 -6.8131070584058762e-03</internalNodes>
          <leafValues>
            3.9057469367980957e-01 -1.1162791401147842e-01</leafValues></_>
        <_>
          <internalNodes>
            0 -1 178 4.1544593870639801e-02</internalNodes>
          <leafValues>
            -8.9878581464290619e-02 4.0488639473915100e-01</leafValues></_>
        <_>
          <internalNodes>
            0 -1 308 2.6486042886972427e-02</internalNodes>
          <leafValues>
            -1.5566509962081909e-01 3.1150758266448975e-01</leafValues></_>
        <_>
          <internalNodes>
            0 -1 140 -4.3718714732676744e-04</internalNodes>
          <leafValues>
            -3.8970327377319336e-01 1.3259890675544739e-01</leafValues></_>
        <_>
          <internalNodes>
            0 -1 115 4.3662902317009866e-04</internalNodes>
          <leafValues>
            1.2703029811382294e-01 -3.2749482989311218e-01</leafValues></_>
        <_>
          <internalNodes>
            0 -1 132 -4.1750982403755188e-02</internalNodes>
          <leafValues>
            8.1172865629196167e-01 -5.8497563004493713e-02</leafValues></_>
        <_>
          <internalNodes>
            0 -1 287 -4.9892562674358487e-04</internalNodes>
          <leafValues>
            -4.3581521511077881e-01 1.4882424473762512e-01</leafValues></_>
        <_>
          <internalNodes>
            0 -1 206 3.0924013117328286e-05</internalNodes>
          <leafValues>
            -2.6960489153862000e-01 1.9220705330371857e-01</leafValues></_>
        <_>
          <internalNodes>
            0 -1 69 6.8677463568747044e-03</internalNodes>
          <leafValues>
            -1.7927464842796326e-01 2.3576098680496216e-01</leafValues></_>
        <_>
          <internalNodes>
            0 -1 77 -6.4319744706153870e-02</internalNodes>
          <leafValues>
            4.6177202463150024e-01 -9.4327770173549652e-02</leafValues></_>
        <_>
          <internalNodes>
            0 -1 128 1.0057377628982067e-02</internalNodes>
          <leafValues>
            -7.8466102480888367e-02 4.7859904170036316e-01</leafValues></_>
        <_>
          <internalNodes>
            0 -1 225 1.0200142860412598e-02</internalNodes>
          <leafValues>
            -9.6599444746971130e-02 4.4820544123649597e-01</leafValues></_>
        <_>
          <internalNodes>
            0 -1 355 -1.8199092664872296e-05</internalNodes>
          <leafValues>
            1.6421377658843994e-01 -2.6416286826133728e-01</leafValues></_>
        <_>
          <internalNodes>
            0 -1 322 -3.7970833480358124e-02</internalNodes>
          <leafValues>
            6.6977280378341675e-01 -6.8803653120994568e-02</leafValues></_>
        <_>
          <internalNodes>
            0 -1 29 -3.8052810123190284e-04</internalNodes>
          <leafValues>
            -3.2449460029602051e-01 1.3151440024375916e-01</leafValues></_>
        <_>
          <internalNodes>
            0 -1 91 9.9085532128810883e-03</internalNodes>
          <leafValues>
            -9.4583578407764435e-02 4.4070988893508911e-01</leafValues></_>
        <_>
          <internalNodes>
            0 -1 54 -1.0476751253008842e-02</internalNodes>
          <leafValues>
            4.2836010456085205e-01 -8.8429816067218781e-02</leafValues></_>
        <_>
          <internalNodes>
            0 -1 406 6.0935702640563250e-04</internalNodes>
          <leafValues>
            -1.8560081720352173e-01 2.1246773004531860e-01</leafValues></_>
        <_>
          <internalNodes>
            0 -1 459 -1.8684810493141413e-03</internalNodes>
          <leafValues>
            -3.6156252026557922e-01 1.1474605649709702e-01</leafValues></_>
        <_>
          <internalNodes>
            0 -1 394 -2.2585858404636383e-01</internalNodes>
          <leafValues>
            -7.1239745616912842e-01 5.0698578357696533e-02</leafValues></_>
        <_>
          <internalNodes>
            0 -1 230 -1.0586987249553204e-02</internalNodes>
          <leafValues>
            -5.8015435934066772e-01 5.8292109519243240e-02</leafValues></_>
        <_>
          <internalNodes>
            0 -1 395 4.9618922173976898e-02</internalNodes>
          <leafValues>
            -7.5237415730953217e-02 5.2673083543777466e-01</leafValues></_>
        <_>
          <internalNodes>
            0 -1 416 -4.1651856154203415e-02</internalNodes>
          <leafValues>
            5.2105003595352173e-01 -6.8075463175773621e-02</leafValues></_>
        <_>
          <internalNodes>
            0 -1 277 2.3761973716318607e-04</internalNodes>
          <leafValues>
            1.3025316596031189e-01 -2.9391354322433472e-01</leafValues></_>
        <_>
          <internalNodes>
            0 -1 261 -5.2623921073973179e-03</internalNodes>
          <leafValues>
            -6.4183390140533447e-01 5.4079659283161163e-02</leafValues></_>
        <_>
          <internalNodes>
            0 -1 292 -1.0861471295356750e-02</internalNodes>
          <leafValues>
            3.8000857830047607e-01 -1.1205676943063736e-01</leafValues></_>
        <_>
          <internalNodes>
            0 -1 70 -1.0859436770260800e-05</internalNodes>
          <leafValues>
            2.2233052551746368e-01 -1.8472851812839508e-01</leafValues></_>
        <_>
          <internalNodes>
            0 -1 458 -5.8798091486096382e-03</internalNodes>
          <leafValues>
            5.1226538419723511e-01 -6.9324724376201630e-02</leafValues></_>
        <_>
          <internalNodes>
            0 -1 182 1.1242797598242760e-02</internalNodes>
          <leafValues>
            -7.9285949468612671e-02 4.2749699950218201e-01</leafValues></_>
        <_>
          <internalNodes>
            0 -1 151 -7.4910214170813560e-03</internalNodes>
          <leafValues>
            3.2534152269363403e-01 -1.5325304865837097e-01</leafValues></_>
        <_>
          <internalNodes>
            0 -1 188 8.4732584655284882e-03</internalNodes>
          <leafValues>
            6.1149664223194122e-02 -6.6552889347076416e-01</leafValues></_>
        <_>
          <internalNodes>
            0 -1 374 -5.9587892610579729e-04</internalNodes>
          <leafValues>
            2.3951657116413116e-01 -1.6836911439895630e-01</leafValues></_>
        <_>
          <internalNodes>
            0 -1 31 2.6280391030013561e-03</internalNodes>
          <leafValues>
            1.2931463122367859e-01 -3.1210991740226746e-01</leafValues></_>
        <_>
          <internalNodes>
            0 -1 197 -1.0787263512611389e-02</internalNodes>
          <leafValues>
            6.7419272661209106e-01 -6.0131557285785675e-02</leafValues></_>
        <_>
          <internalNodes>
            0 -1 94 3.4242169931530952e-05</internalNodes>
          <leafValues>
            -2.6963409781455994e-01 1.6893154382705688e-01</leafValues></_>
        <_>
          <internalNodes>
            0 -1 89 -3.3607664518058300e-03</internalNodes>
          <leafValues>
            4.8548600077629089e-01 -9.3085274100303650e-02</leafValues></_></weakClassifiers></_>
    <!-- stage 14 -->
    <_>
      <maxWeakCount>42</maxWeakCount>
      <stageThreshold>-7.7560406923294067e-01</stageThreshold>
      <weakClassifiers>
        <_>
          <internalNodes>
            0 -1 173 -2.3930800671223551e-04</internalNodes>
          <leafValues>
            1.6545012593269348e-01 6.8549543619155884e-01</leafValues></_>
        <_>
          <internalNodes>
            0 -1 2 8.8736796379089355e-01</internalNodes>
          <leafValues>
            -3.7669483572244644e-02 5.7315719127655029e-01</leafValues></_>
        <_>
          <internalNodes>
            0 -1 220 -2.7929771022172645e-05</internalNodes>
          <leafValues>
            2.1242421865463257e-01 -2.9968050122261047e-01</leafValues></_>
        <_>
          <internalNodes>
            0 -1 5 -9.3774613924324512e-04</internalNodes>
          <leafValues>
            -3.7085625529289246e-01 1.4322349429130554e-01</leafValues></_>
        <_>
          <internalNodes>
            0 -1 181 2.5280121917603537e-05</internalNodes>
          <leafValues>
            -2.2709195315837860e-01 2.2871184349060059e-01</leafValues></_>
        <_>
          <internalNodes>
            0 -1 23 -6.2994509935379028e-02</internalNodes>
          <leafValues>
            -5.4301071166992188e-01 8.1402666866779327e-02</leafValues></_>
        <_>
          <internalNodes>
            0 -1 112 -3.8255137042142451e-05</internalNodes>
          <leafValues>
            1.6258993744850159e-01 -3.2155802845954895e-01</leafValues></_>
        <_>
          <internalNodes>
            0 -1 283 -2.5771342916414142e-04</internalNodes>
          <leafValues>
            -3.5899826884269714e-01 1.3657504320144653e-01</leafValues></_>
        <_>
          <internalNodes>
            0 -1 208 1.2989503331482410e-02</internalNodes>
          <leafValues>
            -1.1767162382602692e-01 4.4933602213859558e-01</leafValues></_>
        <_>
          <internalNodes>
            0 -1 340 1.3983872122480534e-05</internalNodes>
          <leafValues>
            -3.2181102037429810e-01 1.8849954009056091e-01</leafValues></_>
        <_>
          <internalNodes>
            0 -1 16 2.1508648060262203e-03</internalNodes>
          <leafValues>
            1.2382888048887253e-01 -3.9657559990882874e-01</leafValues></_>
        <_>
          <internalNodes>
            0 -1 180 4.2032112833112478e-04</internalNodes>
          <leafValues>
            1.2325806170701981e-01 -3.6032089591026306e-01</leafValues></_>
        <_>
          <internalNodes>
            0 -1 98 -6.5729990601539612e-03</internalNodes>
          <leafValues>
            4.0764114260673523e-01 -1.1508426815271378e-01</leafValues></_>
        <_>
          <internalNodes>
            0 -1 145 1.3641875739267562e-05</internalNodes>
          <leafValues>
            -2.2205308079719543e-01 2.1560482680797577e-01</leafValues></_>
        <_>
          <internalNodes>
            0 -1 248 1.3706325262319297e-05</internalNodes>
          <leafValues>
            -2.8148350119590759e-01 1.5877626836299896e-01</leafValues></_>
        <_>
          <internalNodes>
            0 -1 449 4.4806625694036484e-02</internalNodes>
          <leafValues>
            -7.6084569096565247e-02 5.5909740924835205e-01</leafValues></_>
        <_>
          <internalNodes>
            0 -1 457 -1.0305278003215790e-02</internalNodes>
          <leafValues>
            -3.2711148262023926e-01 1.3856452703475952e-01</leafValues></_>
        <_>
          <internalNodes>
            0 -1 254 3.0502189474646002e-05</internalNodes>
          <leafValues>
            -2.1753753721714020e-01 1.8354880809783936e-01</leafValues></_>
        <_>
          <internalNodes>
            0 -1 463 6.8880943581461906e-03</internalNodes>
          <leafValues>
            1.1097806692123413e-01 -3.7308919429779053e-01</leafValues></_>
        <_>
          <internalNodes>
            0 -1 381 4.1892066597938538e-02</internalNodes>
          <leafValues>
            -1.6633062064647675e-01 2.5349998474121094e-01</leafValues></_>
        <_>
          <internalNodes>
            0 -1 252 -1.2424397027643863e-05</internalNodes>
          <leafValues>
            1.6192579269409180e-01 -2.7326089143753052e-01</leafValues></_>
        <_>
          <internalNodes>
            0 -1 441 -5.2969409152865410e-03</internalNodes>
          <leafValues>
            5.6125062704086304e-01 -7.7111274003982544e-02</leafValues></_>
        <_>
          <internalNodes>
            0 -1 280 1.0212177410721779e-02</internalNodes>
          <leafValues>
            -7.5196608901023865e-02 5.2450066804885864e-01</leafValues></_>
        <_>
          <internalNodes>
            0 -1 211 1.5714753317297436e-05</internalNodes>
          <leafValues>
            -2.6074597239494324e-01 1.7606166005134583e-01</leafValues></_>
        <_>
          <internalNodes>
            0 -1 255 -6.2751537188887596e-04</internalNodes>
          <leafValues>
            -3.1647083163261414e-01 1.4838339388370514e-01</leafValues></_>
        <_>
          <internalNodes>
            0 -1 88 1.3641875739267562e-05</internalNodes>
          <leafValues>
            -2.0143403112888336e-01 1.9871799647808075e-01</leafValues></_>
        <_>
          <internalNodes>
            0 -1 356 -1.2127051595598459e-03</internalNodes>
          <leafValues>
            1.9223004579544067e-01 -2.2065749764442444e-01</leafValues></_>
        <_>
          <internalNodes>
            0 -1 81 -7.0476159453392029e-02</internalNodes>
          <leafValues>
            -7.9586267471313477e-01 5.1610551774501801e-02</leafValues></_>
        <_>
          <internalNodes>
            0 -1 25 -8.2498257979750633e-03</internalNodes>
          <leafValues>
            4.5965051651000977e-01 -9.8118439316749573e-02</leafValues></_>
        <_>
          <internalNodes>
            0 -1 313 4.4577554217539728e-04</internalNodes>
          <leafValues>
            1.1930803209543228e-01 -3.6984694004058838e-01</leafValues></_>
        <_>
          <internalNodes>
            0 -1 74 8.8881412521004677e-03</internalNodes>
          <leafValues>
            -1.1436410248279572e-01 3.8608852028846741e-01</leafValues></_>
        <_>
          <internalNodes>
            0 -1 461 4.8349454300478101e-04</internalNodes>
          <leafValues>
            1.5326641499996185e-01 -2.7455976605415344e-01</leafValues></_>
        <_>
          <internalNodes>
            0 -1 438 5.1681994227692485e-04</internalNodes>
          <leafValues>
            1.7031051218509674e-01 -2.6149308681488037e-01</leafValues></_>
        <_>
          <internalNodes>
            0 -1 194 2.7787162252934650e-05</internalNodes>
          <leafValues>
            -1.8905574083328247e-01 2.2198146581649780e-01</leafValues></_>
        <_>
          <internalNodes>
            0 -1 332 -8.2528102211654186e-04</internalNodes>
          <leafValues>
            2.9646348953247070e-01 -1.5541175007820129e-01</leafValues></_>
        <_>
          <internalNodes>
            0 -1 454 -2.3725482169538736e-03</internalNodes>
          <leafValues>
            3.9942041039466858e-01 -1.0425667464733124e-01</leafValues></_>
        <_>
          <internalNodes>
            0 -1 171 1.3295911230670754e-05</internalNodes>
          <leafValues>
            -2.2272005677223206e-01 1.9516816735267639e-01</leafValues></_>
        <_>
          <internalNodes>
            0 -1 168 1.4174063835525885e-05</internalNodes>
          <leafValues>
            -2.5054445862770081e-01 1.7108175158500671e-01</leafValues></_>
        <_>
          <internalNodes>
            0 -1 270 -6.5221011638641357e-02</internalNodes>
          <leafValues>
            8.7879794836044312e-01 -5.6178681552410126e-02</leafValues></_>
        <_>
          <internalNodes>
            0 -1 162 -2.0409682765603065e-03</internalNodes>
          <leafValues>
