<?xml version="1.0"?>
<opencv_storage>
<cascade>
  <stageType>BOOST</stageType>
  <featureType>LBP</featureType>
  <height>16</height>
  <width>16</width>
  <stageParams>
    <boostType>GAB</boostType>
    <minHitRate>9.9500000476837158e-01</minHitRate>
    <maxFalseAlarm>5.0000000000000000e-01</maxFalseAlarm>
    <weightTrimRate>9.4999998807907104e-01</weightTrimRate>
    <maxDepth>1</maxDepth>
    <maxWeakCount>100</maxWeakCount></stageParams>
  <featureParams>
    <maxCatCount>256</maxCatCount>
    <featSize>1</featSize></featureParams>
  <stageNum>20</stageNum>
  <stages>
    <!-- stage 0 -->
    <_>
      <maxWeakCount>2</maxWeakCount>
      <stageThreshold>-1.4231453835964203e-01</stageThreshold>
      <weakClassifiers>
        <_>
          <internalNodes>
            0 -1 41 -750595330 -716799910 32911 1535213579 10895567
            1124679687 68335 119734923</internalNodes>
          <leafValues>
            -9.0843373537063599e-01 8.0829495191574097e-01</leafValues></_>
        <_>
          <internalNodes>
            0 -1 43 -800793180 -738160512 268460036 1359343681
            -787758357 -352124543 -1073509717 -515392533</internalNodes>
          <leafValues>
            -8.3425849676132202e-01 7.6611918210983276e-01</leafValues></_></weakClassifiers></_>
    <!-- stage 1 -->
    <_>
      <maxWeakCount>2</maxWeakCount>
      <stageThreshold>-1.0896049439907074e-01</stageThreshold>
      <weakClassifiers>
        <_>
          <internalNodes>
            0 -1 16 -524235128 -236923648 -1862189057 -170786829
            -252648273 139579278 -536871425 -707536193</internalNodes>
          <leafValues>
            -7.3021179437637329e-01 7.8697097301483154e-01</leafValues></_>
        <_>
          <internalNodes>
            0 -1 66 -120791044 -33242800 -325925520 -287772646
            -857884321 -830308352 -343762592 -54465628</internalNodes>
          <leafValues>
            -8.3269178867340088e-01 6.2125134468078613e-01</leafValues></_></weakClassifiers></_>
    <!-- stage 2 -->
    <_>
      <maxWeakCount>2</maxWeakCount>
      <stageThreshold>-1.9029757380485535e-01</stageThreshold>
      <weakClassifiers>
        <_>
          <internalNodes>
            0 -1 35 -1878944861 1528934531 75498191 365495181 109035
            -662531955 -2004254273 1476343615</internalNodes>
          <leafValues>
            -8.2763743400573730e-01 6.6910183429718018e-01</leafValues></_>
        <_>
          <internalNodes>
            0 -1 11 1194311923 293732391 -1056619885 266141723
            1107542463 185287055 118474955 -536876165</internalNodes>
          <leafValues>
            -6.4610534906387329e-01 6.3733989000320435e-01</leafValues></_></weakClassifiers></_>
    <!-- stage 3 -->
    <_>
      <maxWeakCount>4</maxWeakCount>
      <stageThreshold>-1.0444197654724121e+00</stageThreshold>
      <weakClassifiers>
        <_>
          <internalNodes>
            0 -1 84 -238953508 -56847704 25351024 -66416506 -606887596
            -293435292 -458702364 -259993552</internalNodes>
          <leafValues>
            -8.0813956260681152e-01 6.7301040887832642e-01</leafValues></_>
        <_>
          <internalNodes>
            0 -1 59 -960508199 -242100405 -2130640549 -1719156720
            -741900164 -658497400 -914178040 -2100633440</internalNodes>
          <leafValues>
            -6.0472589731216431e-01 6.3952660560607910e-01</leafValues></_>
        <_>
          <internalNodes>
            0 -1 9 -804601681 -705714494 -185404161 -38798081
            -1048460113 -1926248817 -168324355 -714082945</internalNodes>
          <leafValues>
            -5.1623958349227905e-01 7.0849359035491943e-01</leafValues></_>
        <_>
          <internalNodes>
            0 -1 74 -1466516494 -1957133940 -116850241 2030801074
            -58146067 -1467429759 -1157431141 -1682984725</internalNodes>
          <leafValues>
            -5.9646463394165039e-01 6.1831241846084595e-01</leafValues></_></weakClassifiers></_>
    <!-- stage 4 -->
    <_>
      <maxWeakCount>4</maxWeakCount>
      <stageThreshold>-1.9962619245052338e-01</stageThreshold>
      <weakClassifiers>
        <_>
          <internalNodes>
            0 -1 36 -1073616989 -1043206366 -591859748 1515277455
            -266277427 -571080705 -1040261667 1574961151</internalNodes>
          <leafValues>
            -5.9715640544891357e-01 6.9758814573287964e-01</leafValues></_>
        <_>
          <internalNodes>
            0 -1 59 -939537675 -742264432 -184434217 -1449422768
            -45531015 2030798472 -16776904 -2002067224</internalNodes>
          <leafValues>
            -5.9490889310836792e-01 6.0919970273971558e-01</leafValues></_>
        <_>
          <internalNodes>
            0 -1 65 1183115163 1918685651 1430652212 -23592496
            -156847381 -1098375125 -242492760 -186469690</internalNodes>
          <leafValues>
            -6.2929028272628784e-01 5.5457830429077148e-01</leafValues></_>
        <_>
          <internalNodes>
            0 -1 29 -85396752 -54607656 58818837 1528628113 -2119765761
            1537029000 -514801477 1461313787</internalNodes>
          <leafValues>
            -7.6624780893325806e-01 4.6915689110755920e-01</leafValues></_></weakClassifiers></_>
    <!-- stage 5 -->
    <_>
      <maxWeakCount>4</maxWeakCount>
      <stageThreshold>-1.6370369493961334e-01</stageThreshold>
      <weakClassifiers>
        <_>
          <internalNodes>
            0 -1 46 15665095 1274349455 1895928587 856883211 1629512181
            1135141056 554344622 -1145470437</internalNodes>
          <leafValues>
            -6.8124121427536011e-01 6.4731556177139282e-01</leafValues></_>
        <_>
          <internalNodes>
            0 -1 7 -749740344 -246820654 -1123791930 1397453058
            -1065308022 -1056931584 -1030518641 -78913089</internalNodes>
          <leafValues>
            -5.9461122751235962e-01 6.1572152376174927e-01</leafValues></_>
        <_>
          <internalNodes>
            0 -1 33 -83886341 -79806465 -65925 842711038 -67127302
            -126685225 -167788552 -89462886</internalNodes>
          <leafValues>
            -5.0833308696746826e-01 6.9287967681884766e-01</leafValues></_>
        <_>
          <internalNodes>
            0 -1 30 1087291910 -753970941 -217509543 1435193867
            -865109329 1661534208 -928162853 95355035</internalNodes>
          <leafValues>
            -8.5973638296127319e-01 4.1926905512809753e-01</leafValues></_></weakClassifiers></_>
    <!-- stage 6 -->
    <_>
      <maxWeakCount>5</maxWeakCount>
      <stageThreshold>-6.6553610563278198e-01</stageThreshold>
      <weakClassifiers>
        <_>
          <internalNodes>
            0 -1 47 -1114290 -1056768178 -45023404 1901295445 -319881235
            -51413201 -419958865 -1521258897</internalNodes>
          <leafValues>
            -5.8021390438079834e-01 6.3676732778549194e-01</leafValues></_>
        <_>
          <internalNodes>
            0 -1 21 1344770247 2047021755 -1074311201 330398466
            1595346624 -80226305 2117323931 -67965185</internalNodes>
          <leafValues>
            -4.8709827661514282e-01 6.5476620197296143e-01</leafValues></_>
        <_>
          <internalNodes>
            0 -1 31 -421608764 -296353510 1350697232 -229473874
            1744953592 1753350338 -528247880 -255155237</internalNodes>
          <leafValues>
            -6.6995167732238770e-01 4.8870360851287842e-01</leafValues></_>
        <_>
          <internalNodes>
            0 -1 5 1426834170 1927728134 -1862101935 -620705206
            1409544466 1111687561 1092768513 -1159253</internalNodes>
          <leafValues>
            -6.4368826150894165e-01 4.9456834793090820e-01</leafValues></_>
        <_>
          <internalNodes>
            0 -1 89 -39848700 -250710218 -33685792 -1250756750 -9115707
            -1376387211 -975313492 -1333266888</internalNodes>
          <leafValues>
            -5.3568500280380249e-01 5.7355153560638428e-01</leafValues></_></weakClassifiers></_>
    <!-- stage 7 -->
    <_>
      <maxWeakCount>5</maxWeakCount>
      <stageThreshold>-9.0357762575149536e-01</stageThreshold>
      <weakClassifiers>
        <_>
          <internalNodes>
            0 -1 57 -221578246 -1189592940 -737934927 -1861676585
            -121550165 1879048192 67177131 17826355</internalNodes>
          <leafValues>
            -8.3429670333862305e-01 5.7758969068527222e-01</leafValues></_>
        <_>
          <internalNodes>
            0 -1 15 1569114242 -548859561 -746569449 1359434193
            1460306056 -619984733 -1413051509 -978646102</internalNodes>
          <leafValues>
            -6.2115174531936646e-01 4.8261538147926331e-01</leafValues></_>
        <_>
          <internalNodes>
            0 -1 23 -85863936 -259993463 67901440 -939356735 -1867346808
            -2122219508 1698990296 -137647719</internalNodes>
          <leafValues>
            -6.8390429019927979e-01 4.3637239933013916e-01</leafValues></_>
        <_>
          <internalNodes>
            0 -1 67 -778864169 -111804414 -2147430128 -266731510
            -1601994549 -1685520253 -536695864 -108354934</internalNodes>
          <leafValues>
            -5.4720985889434814e-01 5.4344493150711060e-01</leafValues></_>
        <_>
          <internalNodes>
            0 -1 53 1076093115 -888960629 -762134528 1563550860
            844292232 -1756315640 1770119806 352436467</internalNodes>
          <leafValues>
            -7.3266851902008057e-01 3.9749762415885925e-01</leafValues></_></weakClassifiers></_>
    <!-- stage 8 -->
    <_>
      <maxWeakCount>5</maxWeakCount>
      <stageThreshold>-6.7971652746200562e-01</stageThreshold>
      <weakClassifiers>
        <_>
          <internalNodes>
            0 -1 32 -1059138854 -1561145138 -1677717480 -533560808
            -2145343350 805478402 867741712 -255798352</internalNodes>
          <leafValues>
            -6.6718995571136475e-01 6.0304695367813110e-01</leafValues></_>
        <_>
          <internalNodes>
            0 -1 77 134768680 -620092518 -171826738 -1141112830
            -895831950 -624260992 -1065289559 -1026883189</internalNodes>
          <leafValues>
            -6.2255978584289551e-01 4.6366912126541138e-01</leafValues></_>
        <_>
          <internalNodes>
            0 -1 73 805273599 -538017794 2147397375 447655854 -302121217
            293568127 -1375884049 -575170649</internalNodes>
          <leafValues>
            -5.2183663845062256e-01 5.8936518430709839e-01</leafValues></_>
        <_>
          <internalNodes>
            0 -1 10 -787745126 -780809187 -4210689 -215939299 1560514863
            1438584829 -819488881 -5546225</internalNodes>
          <leafValues>
            -5.2339667081832886e-01 5.9393626451492310e-01</leafValues></_>
        <_>
          <internalNodes>
            0 -1 86 -258375622 -252313594 -1878982117 -1031797696
            -1509693270 -1877934048 -1602186612 -1300059766</internalNodes>
          <leafValues>
            -5.4216414690017700e-01 5.6212943792343140e-01</leafValues></_></weakClassifiers></_>
    <!-- stage 9 -->
    <_>
      <maxWeakCount>6</maxWeakCount>
      <stageThreshold>-1.1129093170166016e+00</stageThreshold>
      <weakClassifiers>
        <_>
          <internalNodes>
            0 -1 49 752668390 -293666818 -65540 -822411266 1281294079
            607584126 -16777228 -185139209</internalNodes>
          <leafValues>
            -5.4628419876098633e-01 6.3546800613403320e-01</leafValues></_>
        <_>
          <internalNodes>
            0 -1 61 1207885788 925347087 1359383003 -148667641
            -501972869 -1160789816 -2133294901 1158908171</internalNodes>
          <leafValues>
            -6.3606953620910645e-01 4.7694295644760132e-01</leafValues></_>
        <_>
          <internalNodes>
            0 -1 13 -738217081 -232013709 -278930675 456865027
            1467979767 -679495050 1171124077 -562040745</internalNodes>
          <leafValues>
            -5.2735292911529541e-01 5.9253275394439697e-01</leafValues></_>
        <_>
          <internalNodes>
            0 -1 4 -250949048 -1870610192 -2147168056 -619966415
            177453399 1180032 -1446475362 -247730034</internalNodes>
          <leafValues>
            -5.8879488706588745e-01 4.8632389307022095e-01</leafValues></_>
        <_>
          <internalNodes>
            0 -1 81 -1 -4194305 -3 -105726466 -65547 -8716293 -2664
            -486886158</internalNodes>
          <leafValues>
            -5.1891815662384033e-01 5.6729847192764282e-01</leafValues></_>
        <_>
          <internalNodes>
            0 -1 87 -513804026 -640384638 16973968 -631467558
            -1198882200 -394166271 -1987728658 -528352472</internalNodes>
          <leafValues>
            -5.9025424718856812e-01 4.8476278781890869e-01</leafValues></_></weakClassifiers></_>
    <!-- stage 10 -->
    <_>
      <maxWeakCount>5</maxWeakCount>
      <stageThreshold>-5.6706404685974121e-01</stageThreshold>
      <weakClassifiers>
        <_>
          <internalNodes>
            0 -1 62 578236004 -1342181529 -8388609 1983586487 -142839812
            -268435457 -8454145 -1891897673</internalNodes>
          <leafValues>
            -5.2777779102325439e-01 6.4221012592315674e-01</leafValues></_>
        <_>
          <internalNodes>
            0 -1 22 141259507 268729331 819298615 1911273663 1217734320
            -864864680 -1597395713 -125833537</internalNodes>
          <leafValues>
            -5.1001149415969849e-01 5.9277409315109253e-01</leafValues></_>
        <_>
          <internalNodes>
            0 -1 56 -14800523 -1327716096 -805175152 -632651528
            -368342520 -2146959296 -1437885950 -349542126</internalNodes>
          <leafValues>
            -5.6454294919967651e-01 5.2748048305511475e-01</leafValues></_>
        <_>
          <internalNodes>
            0 -1 18 -288447548 -229031545 -603958990 -771615996
            -392213856 742522890 -729038096 -758196574</internalNodes>
          <leafValues>
            -5.9463953971862793e-01 4.6776765584945679e-01</leafValues></_>
        <_>
          <internalNodes>
            0 -1 45 -385929309 -36814986 -129 2147434487 -696291617
            -1479655554 -16782209 -2062551245</internalNodes>
          <leafValues>
            -5.1587802171707153e-01 5.3788435459136963e-01</leafValues></_></weakClassifiers></_>
    <!-- stage 11 -->
    <_>
      <maxWeakCount>5</maxWeakCount>
      <stageThreshold>-7.6504755020141602e-01</stageThreshold>
      <weakClassifiers>
        <_>
          <internalNodes>
            0 -1 83 -289767324 -356642576 1485832210 976748700
            -1162894832 -1473633790 -1195068544 -185534352</internalNodes>
          <leafValues>
            -7.3913043737411499e-01 6.1328291893005371e-01</leafValues></_>
        <_>
          <internalNodes>
            0 -1 50 -414594049 -262613604 1892745568 842202172
            -1836677494 -90733693 -1177433168 -223161432</internalNodes>
          <leafValues>
            -5.7127624750137329e-01 5.3764796257019043e-01</leafValues></_>
        <_>
          <internalNodes>
            0 -1 70 -725958464 -293072882 -207117296 -78905208
            -115553109 -118898670 1502001360 -253435694</internalNodes>
          <leafValues>
            -5.9942734241485596e-01 4.9766334891319275e-01</leafValues></_>
        <_>
          <internalNodes>
            0 -1 90 -147068414 -81301581 1928820656 -629604632
            -411600908 -245042876 -1543517036 -122621204</internalNodes>
          <leafValues>
            -5.2961027622222900e-01 5.3976905345916748e-01</leafValues></_>
        <_>
          <internalNodes>
            0 -1 64 -1406270423 -255287207 -1862012496 -90243071
            -259062801 -349667318 -1031018009 -475272785</internalNodes>
          <leafValues>
            -5.3161811828613281e-01 5.0488972663879395e-01</leafValues></_></weakClassifiers></_>
    <!-- stage 12 -->
    <_>
      <maxWeakCount>6</maxWeakCount>
      <stageThreshold>-1.1529362201690674e+00</stageThreshold>
      <weakClassifiers>
        <_>
          <internalNodes>
            0 -1 38 -2063554603 -788405437 16844545 394986114
            -1137532746 -1350467296 240757535 1442122776</internalNodes>
          <leafValues>
            -6.5862709283828735e-01 5.5058920383453369e-01</leafValues></_>
        <_>
          <internalNodes>
            0 -1 59 -1986804739 -1325154174 2056134832 1909451138
            -896827283 -494370616 -1075134364 -1411661672</internalNodes>
          <leafValues>
            -5.0440174341201782e-01 5.0204747915267944e-01</leafValues></_>
        <_>
          <internalNodes>
            0 -1 54 1782057861 -11892608 -2088730219 1104446602
            2015609505 -2139094902 -1316896182 -471932146</internalNodes>
          <leafValues>
            -5.5192512273788452e-01 4.8189795017242432e-01</leafValues></_>
        <_>
          <internalNodes>
            0 -1 2 -104603777 1939214552 -1861222182 1930428416
            1744896060 1007158280 34078862 2135926650</internalNodes>
          <leafValues>
            -5.1882642507553101e-01 4.6308714151382446e-01</leafValues></_>
        <_>
          <internalNodes>
            0 -1 12 -787627033 -777485951 -803569005 -792625033
            -2105507454 -1207594397 -1850584817 -539254101</internalNodes>
          <leafValues>
            -4.9442309141159058e-01 5.0188302993774414e-01</leafValues></_>
        <_>
          <internalNodes>
            0 -1 6 264867495 590495819 -2142663997 -803405786 33638443
            50859921 -813643229 -134226485</internalNodes>
          <leafValues>
            -6.6777205467224121e-01 3.7104037404060364e-01</leafValues></_></weakClassifiers></_>
    <!-- stage 13 -->
    <_>
      <maxWeakCount>5</maxWeakCount>
      <stageThreshold>-5.7956475019454956e-01</stageThreshold>
      <weakClassifiers>
        <_>
          <internalNodes>
            0 -1 48 103550658 -419677186 -16777227 -285341953 1432246271
            -428549249 -32777 -1006714889</internalNodes>
          <leafValues>
            -5.5976676940917969e-01 5.9809851646423340e-01</leafValues></_>
        <_>
          <internalNodes>
            0 -1 55 -2133209871 -39089525 -385822449 -306607912
            -1224721656 -1375207415 864090687 -1880650256</internalNodes>
          <leafValues>
            -5.5285233259201050e-01 4.8586252331733704e-01</leafValues></_>
        <_>
          <internalNodes>
            0 -1 20 -249446015 16886861 -540148004 -179459453
            -1325015591 -1222246932 -573186083 -2105345</internalNodes>
          <leafValues>
            -4.7660985589027405e-01 5.6489378213882446e-01</leafValues></_>
        <_>
          <internalNodes>
            0 -1 37 -1266635395 470570675 1946251930 1410060949
            -1448017138 1964728753 -737441049 -434654417</internalNodes>
          <leafValues>
            -5.5467826128005981e-01 4.8350700736045837e-01</leafValues></_>
        <_>
          <internalNodes>
            0 -1 74 -1499589718 -2138009358 -804109248 -687112136
            -1828463488 -2119991102 -1165571895 -605432869</internalNodes>
          <leafValues>
            -5.1534640789031982e-01 5.3871285915374756e-01</leafValues></_></weakClassifiers></_>
    <!-- stage 14 -->
    <_>
      <maxWeakCount>7</maxWeakCount>
      <stageThreshold>-6.4674723148345947e-01</stageThreshold>
      <weakClassifiers>
        <_>
          <internalNodes>
            0 -1 36 -1601068381 -2012929278 279061146 1342261031
            1895866533 -1064755158 -774995639 1527116603</internalNodes>
          <leafValues>
            -6.3602942228317261e-01 5.4804557561874390e-01</leafValues></_>
        <_>
          <internalNodes>
            0 -1 88 -68159230 1230823202 -566301014 -282887270
            1901304067 -927533217 -613286133 -126615653</internalNodes>
          <leafValues>
            -4.5635038614273071e-01 5.1333844661712646e-01</leafValues></_>
        <_>
          <internalNodes>
            0 -1 78 -493961046 -594148863 -536608486 2056130570
            -2095929224 -368573944 -1466391910 -235503220</internalNodes>
          <leafValues>
            -5.8080708980560303e-01 4.2587932944297791e-01</leafValues></_>
        <_>
          <internalNodes>
            0 -1 27 2130822199 -792431869 -638528251 285741843
            2071068704 -272101326 -1283214446 -251397205</internalNodes>
          <leafValues>
            -5.2039426565170288e-01 5.1398372650146484e-01</leafValues></_>
        <_>
          <internalNodes>
            0 -1 40 -67137861 1893736418 2145656300 -703851960 -25235236
            -1363083278 1878611710 -146671638</internalNodes>
          <leafValues>
            -4.6800902485847473e-01 5.6358629465103149e-01</leafValues></_>
        <_>
          <internalNodes>
            0 -1 44 -825358209 1057030147 -787832555 490840082
            -686683925 -1475805182 -209559013 -805207550</internalNodes>
          <leafValues>
            -6.1865758895874023e-01 4.4918537139892578e-01</leafValues></_>
        <_>
          <internalNodes>
            0 -1 19 -1685073829 1493213655 1444201553 2110047345
            1371943328 307888162 1434046681 -135793941</internalNodes>
          <leafValues>
            -5.2694976329803467e-01 5.5081164836883545e-01</leafValues></_></weakClassifiers></_>
    <!-- stage 15 -->
    <_>
      <maxWeakCount>6</maxWeakCount>
      <stageThreshold>-1.1418373584747314e+00</stageThreshold>
      <weakClassifiers>
        <_>
          <internalNodes>
            0 -1 42 -269488257 -406345745 1811938303 995274743 -51511713
            -205189297 -464652171 625213267</internalNodes>
          <leafValues>
            -5.1190477609634399e-01 5.7731956243515015e-01</leafValues></_>
        <_>
          <internalNodes>
            0 -1 8 1175121646 1350618788 1191655962 1090621267
            1141613830 1342759424 90879744 -683417757</internalNodes>
          <leafValues>
            -6.5158754587173462e-01 4.0546661615371704e-01</leafValues></_>
        <_>
          <internalNodes>
            0 -1 3 -497883446 -112879215 -1728053000 -1008611071
            -1023238473 -109018909 1780872349 7530891</internalNodes>
          <leafValues>
            -5.7835447788238525e-01 4.2742663621902466e-01</leafValues></_>
        <_>
          <internalNodes>
            0 -1 23 -136316159 -492101243 1376044040 -472993083
            -1466961494 2077141 1879462041 -846269996</internalNodes>
          <leafValues>
            -5.5056446790695190e-01 3.9807882905006409e-01</leafValues></_>
        <_>
          <internalNodes>
            0 -1 25 -670125892 -96151359 -133398121 1998947249 2339040
            -2104983504 2021691552 1916334689</internalNodes>
          <leafValues>
            -6.1525583267211914e-01 3.6502254009246826e-01</leafValues></_>
        <_>
          <internalNodes>
            0 -1 58 -285279490 -549459413 -822433157 -607130689
            -1409290241 -1346375681 -272634929 -124032065</internalNodes>
          <leafValues>
            -3.8044881820678711e-01 6.2168735265731812e-01</leafValues></_></weakClassifiers></_>
    <!-- stage 16 -->
    <_>
      <maxWeakCount>7</maxWeakCount>
      <stageThreshold>-8.1377393007278442e-01</stageThreshold>
      <weakClassifiers>
        <_>
          <internalNodes>
            0 -1 60 -1601548837 763777471 17108061 1817034761
            -1072464683 -1971256438 -1505154210 1331688227</internalNodes>
          <leafValues>
            -6.5529012680053711e-01 5.7332229614257812e-01</leafValues></_>
        <_>
          <internalNodes>
            0 -1 76 -1988175012 547805462 -318273057 -1548490289
            1101056142 -2145124096 -1069573941 1162005277</internalNodes>
          <leafValues>
            -6.9407713413238525e-01 3.6052101850509644e-01</leafValues></_>
        <_>
          <internalNodes>
            0 -1 85 -783355393 1025364316 1764199261 -1169501946
            -1186335303 -366706022 -15491652 -861355884</internalNodes>
          <leafValues>
            -6.0085111856460571e-01 3.9797270298004150e-01</leafValues></_>
        <_>
          <internalNodes>
            0 -1 1 -354496101 1727135862 -1705475756 -252519974
            807111471 154615958 -113573627 2122274675</internalNodes>
          <leafValues>
            -5.6601685285568237e-01 4.1729393601417542e-01</leafValues></_>
        <_>
          <internalNodes>
            0 -1 69 517763039 -1162467786 -1862072305 -158976578
            -312254023 -625663871 1267419138 -3102322</internalNodes>
          <leafValues>
            -5.0738769769668579e-01 4.3064227700233459e-01</leafValues></_>
        <_>
          <internalNodes>
            0 -1 39 -88083869 -624972241 -41358174 -274223197
            -1928952525 1600118775 2107135839 -134250497</internalNodes>
          <leafValues>
            -3.7674137949943542e-01 6.0792076587677002e-01</leafValues></_>
        <_>
          <internalNodes>
            0 -1 51 -587210785 -100728869 -16787713 -1181564965
            -1140998405 -671686661 1836998330 -1079330134</internalNodes>
          <leafValues>
            -3.8934853672981262e-01 6.2657946348190308e-01</leafValues></_></weakClassifiers></_>
    <!-- stage 17 -->
    <_>
      <maxWeakCount>7</maxWeakCount>
      <stageThreshold>-9.6830904483795166e-01</stageThreshold>
      <weakClassifiers>
        <_>
          <internalNodes>
            0 -1 63 1212046002 -16842763 1073659893 385054710 2147450879
            -1 -65537 -319685515</internalNodes>
          <leafValues>
            -4.9473685026168823e-01 5.6916487216949463e-01</leafValues></_>
        <_>
          <internalNodes>
            0 -1 28 -223162120 2056183872 -255627056 -217341754
            -1860394681 1079857232 1926619837 2035274130</internalNodes>
          <leafValues>
            -5.4126930236816406e-01 4.0941008925437927e-01</leafValues></_>
        <_>
          <internalNodes>
            0 -1 80 -11 -33554708 -65538 -68223250 2147481462 -185204745
            -136389122 -169347138</internalNodes>
          <leafValues>
            -4.3929356336593628e-01 5.2658349275588989e-01</leafValues></_>
        <_>
          <internalNodes>
            0 -1 14 296439461 1900064939 1091952837 1367355540
            -1701293135 -2012210554 1237963243 17361691</internalNodes>
          <leafValues>
            -5.8757597208023071e-01 3.3445090055465698e-01</leafValues></_>
        <_>
          <internalNodes>
            0 -1 24 223167744 1973162927 -659467389 -1052604358
            -207904734 -258400206 -318033021 -779404881</internalNodes>
          <leafValues>
            -5.8587604761123657e-01 3.5356688499450684e-01</leafValues></_>
        <_>
          <internalNodes>
            0 -1 75 1063672286 860797863 -526274549 -272792566
            -937574208 810158088 -1073695988 -788031488</internalNodes>
          <leafValues>
            -6.9060778617858887e-01 2.9119065403938293e-01</leafValues></_>
        <_>
          <internalNodes>
            0 -1 34 1370223491 -1566503584 1359089770 -1171744727
            -2121366838 12288009 -766990286 -89329499</internalNodes>
          <leafValues>
            -5.2730441093444824e-01 4.6400851011276245e-01</leafValues></_></weakClassifiers></_>
    <!-- stage 18 -->
    <_>
      <maxWeakCount>6</maxWeakCount>
      <stageThreshold>-3.7019878625869751e-01</stageThreshold>
      <weakClassifiers>
        <_>
          <internalNodes>
            0 -1 72 -54070881 117747926 671618369 -1628786095
            -1391882105 680267904 -1275015037 133722379</internalNodes>
          <leafValues>
            -6.0205829143524170e-01 5.5895739793777466e-01</leafValues></_>
        <_>
          <internalNodes>
            0 -1 73 297957117 1893732434 269497239 168039699 -1590576484
            446578689 -1190088466 -642895069</internalNodes>
          <leafValues>
            -5.4301321506500244e-01 4.3536439538002014e-01</leafValues></_>
        <_>
          <internalNodes>
            0 -1 59 -2147237495 -652213233 285227780 218730642
            -1577058296 511744013 -1970738100 -335814198</internalNodes>
          <leafValues>
            -4.7769850492477417e-01 4.7321653366088867e-01</leafValues></_>
        <_>
          <internalNodes>
            0 -1 17 1437721255 -782186302 -2147353345 353472977
            -1039357170 -1551783808 1914762099 199257777</internalNodes>
          <leafValues>
            -5.5313408374786377e-01 3.9630058407783508e-01</leafValues></_>
        <_>
          <internalNodes>
            0 -1 52 1975092415 1560256767 -1912655873 -574741769
            -575631553 -1 -575619269 -22367433</internalNodes>
          <leafValues>
            -4.0778771042823792e-01 5.8039253950119019e-01</leafValues></_>
        <_>
          <internalNodes>
            0 -1 70 1356482602 279875644 1880099724 -4272636 -865875035
            -1475837936 1116261280 -532637466</internalNodes>
          <leafValues>
            -6.7503690719604492e-01 3.4932017326354980e-01</leafValues></_></weakClassifiers></_>
    <!-- stage 19 -->
    <_>
      <maxWeakCount>7</maxWeakCount>
      <stageThreshold>-6.7288351058959961e-01</stageThreshold>
      <weakClassifiers>
        <_>
          <internalNodes>
            0 -1 26 4387541 -1826795505 270922319 537382930 503413568
            -1370733769 1008036424 772166226</internalNodes>
          <leafValues>
            -6.3288718461990356e-01 5.3734356164932251e-01</leafValues></_>
        <_>
          <internalNodes>
            0 -1 79 1398444403 -762707791 1245209 -361233683 -1853649755
            -1144614328 -1348223746 -21710090</internalNodes>
          <leafValues>
            -5.2913248538970947e-01 4.2090657353401184e-01</leafValues></_>
        <_>
          <internalNodes>
            0 -1 0 1219627215 -333205537 546375740 -397352673 318849523
            323023120 -533676010 -177079777</internalNodes>
          <leafValues>
            -6.0439991950988770e-01 3.8236185908317566e-01</leafValues></_>
        <_>
          <internalNodes>
            0 -1 51 -570444333 -33867784 -1073785089 -1143325729
            -337867015 2144853752 -1342358808 -73734214</internalNodes>
          <leafValues>
            -4.1267707943916321e-01 5.7989025115966797e-01</leafValues></_>
        <_>
          <internalNodes>
            0 -1 82 -1432744821 -258080626 1144017151 -354765800
            -1601650533 9478314 -536811128 567005393</internalNodes>
          <leafValues>
            -6.2861710786819458e-01 3.4257388114929199e-01</leafValues></_>
        <_>
          <internalNodes>
            0 -1 71 -1055274038 303130543 1409392665 -1482440689
            -124921635 -837844667 -976891827 -783817525</internalNodes>
          <leafValues>
            -5.3493845462799072e-01 4.2034754157066345e-01</leafValues></_>
        <_>
          <internalNodes>
            0 -1 68 -767037165 1712780007 -184845061 1665184190
            -50430857 939491199 -1124340554 -1298944209</internalNodes>
          <leafValues>
            -4.0578708052635193e-01 5.5635458230972290e-01</leafValues></_></weakClassifiers></_></stages>
  <features>
    <_>
      <rect>
        0 2 4 3</rect></_>
    <_>
      <rect>
        0 8 2 2</rect></_>
    <_>
      <rect>
        0 13 4 1</rect></_>
    <_>
      <rect>
        1 0 5 2</rect></_>
    <_>
      <rect>
        1 0 5 5</rect></_>
    <_>
      <rect>
        1 2 3 4</rect></_>
    <_>
      <rect>
        1 2 4 3</rect></_>
    <_>
      <rect>
        1 3 5 4</rect></_>
    <_>
      <rect>
        1 4 3 3</rect></_>
    <_>
      <rect>
        1 7 3 2</rect></_>
    <_>
      <rect>
        3 2 2 4</rect></_>
    <_>
      <rect>
        3 3 2 3</rect></_>
    <_>
      <rect>
        3 3 3 4</rect></_>
    <_>
      <rect>
        3 4 2 2</rect></_>
    <_>
      <rect>
        3 5 2 2</rect></_>
    <_>
      <rect>
        3 5 2 3</rect></_>
    <_>
      <rect>
        3 6 3 3</rect></_>
    <_>
      <rect>
        3 7 2 1</rect></_>
    <_>
      <rect>
        3 9 1 1</rect></_>
    <_>
      <rect>
        4 1 3 4</rect></_>
    <_>
      <rect>
        4 1 3 5</rect></_>
    <_>
      <rect>
        4 2 2 3</rect></_>
    <_>
      <rect>
        4 2 3 3</rect></_>
    <_>
      <rect>
        4 2 4 4</rect></_>
    <_>
      <rect>
        4 3 2 4</rect></_>
    <_>
      <rect>
        4 3 3 3</rect></_>
    <_>
      <rect>
        4 4 2 2</rect></_>
    <_>
      <rect>
        4 4 2 3</rect></_>
    <_>
      <rect>
        4 4 3 3</rect></_>
    <_>
      <rect>
        4 5 3 2</rect></_>
    <_>
      <rect>
        4 7 2 2</rect></_>
    <_>
      <rect>
        4 10 1 1</rect></_>
    <_>
      <rect>
        4 11 1 1</rect></_>
    <_>
      <rect>
        4 12 1 1</rect></_>
    <_>
      <rect>
        5 1 3 5</rect></_>
    <_>
      <rect>
        5 3 2 3</rect></_>
    <_>
      <rect>
        5 3 2 4</rect></_>
    <_>
      <rect>
        5 3 3 2</rect></_>
    <_>
      <rect>
        5 4 2 2</rect></_>
    <_>
      <rect>
        5 4 2 3</rect></_>
    <_>
      <rect>
        5 5 1 1</rect></_>
    <_>
      <rect>
        5 5 2 2</rect></_>
    <_>
      <rect>
        5 6 2 1</rect></_>
    <_>
      <rect>
        5 6 3 3</rect></_>
    <_>
      <rect>
        5 7 1 2</rect></_>
    <_>
      <rect>
        5 8 1 1</rect></_>
    <_>
      <rect>
        5 8 2 1</rect></_>
    <_>
      <rect>
        5 8 3 2</rect></_>
    <_>
      <rect>
        5 9 1 1</rect></_>
    <_>
      <rect>
        5 10 1 1</rect></_>
    <_>
      <rect>
        5 12 1 1</rect></_>
    <_>
      <rect>
        5 13 1 1</rect></_>
    <_>
      <rect>
        6 1 1 4</rect></_>
    <_>
      <rect>
        6 2 2 4</rect></_>
    <_>
      <rect>
        6 3 1 2</rect></_>
    <_>
      <rect>
        6 4 1 2</rect></_>
    <_>
      <rect>
        6 5 1 1</rect></_>
    <_>
      <rect>
        6 5 1 2</rect></_>
    <_>
      <rect>
        6 5 2 2</rect></_>
    <_>
      <rect>
        6 6 1 1</rect></_>
    <_>
      <rect>
        6 7 1 1</rect></_>
    <_>
      <rect>
        6 7 2 2</rect></_>
    <_>
      <rect>
        6 8 1 1</rect></_>
    <_>
      <rect>
        6 8 1 2</rect></_>
    <_>
      <rect>
        6 9 1 1</rect></_>
    <_>
      <rect>
        6 10 1 1</rect></_>
    <_>
      <rect>
        6 11 1 1</rect></_>
    <_>
      <rect>
        6 12 1 1</rect></_>
    <_>
      <rect>
        7 1 2 3</rect></_>
    <_>
      <rect>
        7 2 1 2</rect></_>
    <_>
      <rect>
        7 4 1 1</rect></_>
    <_>
      <rect>
        7 4 2 3</rect></_>
    <_>
      <rect>
        7 5 1 2</rect></_>
    <_>
      <rect>
        7 6 1 1</rect></_>
    <_>
      <rect>
        7 7 1 1</rect></_>
    <_>
      <rect>
        7 7 1 2</rect></_>
    <_>
      <rect>
        7 7 2 2</rect></_>
    <_>
      <rect>
        7 9 1 1</rect></_>
    <_>
      <rect>
        7 10 1 1</rect></_>
    <_>
      <rect>
        7 11 1 1</rect></_>
    <_>
      <rect>
        7 11 2 1</rect></_>
    <_>
      <rect>
        7 12 1 1</rect></_>
    <_>
      <rect>
        8 7 1 1</rect></_>
    <_>
      <rect>
        8 10 1 1</rect></_>
    <_>
      <rect>
        8 11 1 1</rect></_>
    <_>
      <rect>
        8 12 1 1</rect></_>
    <_>
      <rect>
        9 3 1 1</rect></_>
    <_>
      <rect>
        9 10 1 1</rect></_>
    <_>
      <rect>
        10 5 2 2</rect></_>
    <_>
      <rect>
        10 9 1 1</rect></_>
    <_>
      <rect>
        11 9 1 1</rect></_></features></cascade>
</opencv_storage>
