<?xml version="1.0"?>
<opencv_storage>
<cascade>
  <stageType>BOOST</stageType>
  <featureType>HAAR</featureType>
  <height>16</height>
  <width>16</width>
  <stageParams>
    <boostType>GAB</boostType>
    <minHitRate>9.9900001287460327e-01</minHitRate>
    <maxFalseAlarm>5.0000000000000000e-01</maxFalseAlarm>
    <weightTrimRate>9.4999998807907104e-01</weightTrimRate>
    <maxDepth>1</maxDepth>
    <maxWeakCount>100</maxWeakCount></stageParams>
  <featureParams>
    <maxCatCount>0</maxCatCount>
    <featSize>1</featSize>
    <mode>ALL</mode></featureParams>
  <stageNum>20</stageNum>
  <stages>
    <!-- stage 0 -->
    <_>
      <maxWeakCount>10</maxWeakCount>
      <stageThreshold>-1.1905299425125122e+00</stageThreshold>
      <weakClassifiers>
        <_>
          <internalNodes>
            0 -1 297 9.4476826488971710e-03</internalNodes>
          <leafValues>
            5.0955414772033691e-03 8.7230318784713745e-01</leafValues></_>
        <_>
          <internalNodes>
            0 -1 490 -8.3236758655402809e-05</internalNodes>
          <leafValues>
            6.0272383689880371e-01 -3.7062689661979675e-01</leafValues></_>
        <_>
          <internalNodes>
            0 -1 349 -1.3554116711020470e-02</internalNodes>
          <leafValues>
            4.6147176623344421e-01 -5.3738516569137573e-01</leafValues></_>
        <_>
          <internalNodes>
            0 -1 289 5.2679283544421196e-03</internalNodes>
          <leafValues>
            -4.0101641416549683e-01 4.9766632914543152e-01</leafValues></_>
        <_>
          <internalNodes>
            0 -1 579 6.3467800617218018e-02</internalNodes>
          <leafValues>
            -2.8126540780067444e-01 6.4811426401138306e-01</leafValues></_>
        <_>
          <internalNodes>
            0 -1 447 -1.9587962888181210e-03</internalNodes>
          <leafValues>
            4.9793004989624023e-01 -3.9695465564727783e-01</leafValues></_>
        <_>
          <internalNodes>
            0 -1 656 -2.2253723000176251e-04</internalNodes>
          <leafValues>
            3.7538400292396545e-01 -3.7299033999443054e-01</leafValues></_>
        <_>
          <internalNodes>
            0 -1 458 1.4607880730181932e-03</internalNodes>
          <leafValues>
            -3.0269184708595276e-01 4.5638221502304077e-01</leafValues></_>
        <_>
          <internalNodes>
            0 -1 205 -1.6064439713954926e-01</internalNodes>
          <leafValues>
            -6.1238896846771240e-01 2.2360002994537354e-01</leafValues></_>
        <_>
          <internalNodes>
            0 -1 642 1.8525798805058002e-03</internalNodes>
          <leafValues>
            -3.0288740992546082e-01 4.8463121056556702e-01</leafValues></_></weakClassifiers></_>
    <!-- stage 1 -->
    <_>
      <maxWeakCount>14</maxWeakCount>
      <stageThreshold>-9.7692632675170898e-01</stageThreshold>
      <weakClassifiers>
        <_>
          <internalNodes>
            0 -1 154 7.0298820734024048e-02</internalNodes>
          <leafValues>
            -6.3385531306266785e-02 8.4312653541564941e-01</leafValues></_>
        <_>
          <internalNodes>
            0 -1 307 1.3276688754558563e-02</internalNodes>
          <leafValues>
            -3.1859061121940613e-01 6.3220393657684326e-01</leafValues></_>
        <_>
          <internalNodes>
            0 -1 465 9.9118915386497974e-04</internalNodes>
          <leafValues>
            -4.0586879849433899e-01 4.0575107932090759e-01</leafValues></_>
        <_>
          <internalNodes>
            0 -1 467 4.7706827521324158e-02</internalNodes>
          <leafValues>
            -2.4319170415401459e-01 6.9030028581619263e-01</leafValues></_>
        <_>
          <internalNodes>
            0 -1 194 4.7578845173120499e-02</internalNodes>
          <leafValues>
            -2.5462111830711365e-01 6.2481766939163208e-01</leafValues></_>
        <_>
          <internalNodes>
            0 -1 226 2.7106218039989471e-02</internalNodes>
          <leafValues>
            -2.5311994552612305e-01 5.5938267707824707e-01</leafValues></_>
        <_>
          <internalNodes>
            0 -1 39 1.5856921672821045e-02</internalNodes>
          <leafValues>
            -2.0495328307151794e-01 5.5826258659362793e-01</leafValues></_>
        <_>
          <internalNodes>
            0 -1 548 -8.5524676251225173e-05</internalNodes>
          <leafValues>
            2.9734590649604797e-01 -3.9216214418411255e-01</leafValues></_>
        <_>
          <internalNodes>
            0 -1 271 -4.9442507326602936e-02</internalNodes>
          <leafValues>
            6.9786047935485840e-01 -1.6622063517570496e-01</leafValues></_>
        <_>
          <internalNodes>
            0 -1 428 -5.3589288145303726e-03</internalNodes>
          <leafValues>
            5.4566293954849243e-01 -2.5930833816528320e-01</leafValues></_>
        <_>
          <internalNodes>
            0 -1 86 1.8632851541042328e-02</internalNodes>
          <leafValues>
            -2.0159845054149628e-01 6.4565634727478027e-01</leafValues></_>
        <_>
          <internalNodes>
            0 -1 80 -1.3015699386596680e-01</internalNodes>
          <leafValues>
            7.0656603574752808e-01 -1.6428434848785400e-01</leafValues></_>
        <_>
          <internalNodes>
            0 -1 593 2.8567865956574678e-04</internalNodes>
          <leafValues>
            -3.4868222475051880e-01 3.4431502223014832e-01</leafValues></_>
        <_>
          <internalNodes>
            0 -1 237 -5.4107315838336945e-02</internalNodes>
          <leafValues>
            7.7839243412017822e-01 -1.6478508710861206e-01</leafValues></_></weakClassifiers></_>
    <!-- stage 2 -->
    <_>
      <maxWeakCount>22</maxWeakCount>
      <stageThreshold>-1.1452631950378418e+00</stageThreshold>
      <weakClassifiers>
        <_>
          <internalNodes>
            0 -1 154 1.1775274574756622e-01</internalNodes>
          <leafValues>
            1.5177477896213531e-01 8.1758761405944824e-01</leafValues></_>
        <_>
          <internalNodes>
            0 -1 27 2.1476000547409058e-01</internalNodes>
          <leafValues>
            -1.3268832862377167e-01 7.3605221509933472e-01</leafValues></_>
        <_>
          <internalNodes>
            0 -1 469 8.2956765254493803e-05</internalNodes>
          <leafValues>
            -4.1488116979598999e-01 3.3029004931449890e-01</leafValues></_>
        <_>
          <internalNodes>
            0 -1 607 -1.5273917233571410e-04</internalNodes>
          <leafValues>
            3.1266495585441589e-01 -3.8191905617713928e-01</leafValues></_>
        <_>
          <internalNodes>
            0 -1 305 2.1299095824360847e-03</internalNodes>
          <leafValues>
            -3.6591508984565735e-01 3.0308234691619873e-01</leafValues></_>
        <_>
          <internalNodes>
            0 -1 204 -1.1611901968717575e-01</internalNodes>
          <leafValues>
            5.6741857528686523e-01 -2.5355082750320435e-01</leafValues></_>
        <_>
          <internalNodes>
            0 -1 439 -4.3981331400573254e-03</internalNodes>
          <leafValues>
            3.8660803437232971e-01 -2.8879460692405701e-01</leafValues></_>
        <_>
          <internalNodes>
            0 -1 537 -4.2353466153144836e-02</internalNodes>
          <leafValues>
            6.0179841518402100e-01 -1.7516618967056274e-01</leafValues></_>
        <_>
          <internalNodes>
            0 -1 687 -8.4679952124133706e-05</internalNodes>
          <leafValues>
            3.3514359593391418e-01 -3.5726431012153625e-01</leafValues></_>
        <_>
          <internalNodes>
            0 -1 145 -2.1488296985626221e-01</internalNodes>
          <leafValues>
            -6.7388087511062622e-01 1.5428404510021210e-01</leafValues></_>
        <_>
          <internalNodes>
            0 -1 191 -6.3453044276684523e-05</internalNodes>
          <leafValues>
            2.6661545038223267e-01 -3.4095451235771179e-01</leafValues></_>
        <_>
          <internalNodes>
            0 -1 466 2.3294840008020401e-02</internalNodes>
          <leafValues>
            -2.0412528514862061e-01 4.3141201138496399e-01</leafValues></_>
        <_>
          <internalNodes>
            0 -1 402 -2.4417985230684280e-02</internalNodes>
          <leafValues>
            6.5699589252471924e-01 -1.2673640251159668e-01</leafValues></_>
        <_>
          <internalNodes>
            0 -1 242 2.7120438971905969e-05</internalNodes>
          <leafValues>
            -3.0351468920707703e-01 2.6983830332756042e-01</leafValues></_>
        <_>
          <internalNodes>
            0 -1 581 -5.6294829118996859e-04</internalNodes>
          <leafValues>
            4.1710266470909119e-01 -2.2752797603607178e-01</leafValues></_>
        <_>
          <internalNodes>
            0 -1 192 2.7512698579812422e-05</internalNodes>
          <leafValues>
            -3.1510850787162781e-01 3.0709928274154663e-01</leafValues></_>
        <_>
          <internalNodes>
            0 -1 211 6.7272715270519257e-02</internalNodes>
          <leafValues>
            -2.3471313714981079e-01 3.5575985908508301e-01</leafValues></_>
        <_>
          <internalNodes>
            0 -1 261 2.5753162801265717e-02</internalNodes>
          <leafValues>
            -1.2759153544902802e-01 6.3142395019531250e-01</leafValues></_>
        <_>
          <internalNodes>
            0 -1 455 3.3362684771418571e-03</internalNodes>
          <leafValues>
            -1.7651790380477905e-01 4.3607604503631592e-01</leafValues></_>
        <_>
          <internalNodes>
            0 -1 416 -2.6264190673828125e-02</internalNodes>
          <leafValues>
            6.5885883569717407e-01 -1.1516688019037247e-01</leafValues></_>
        <_>
          <internalNodes>
            0 -1 464 4.7965748235583305e-03</internalNodes>
          <leafValues>
            -2.3667122423648834e-01 3.3135831356048584e-01</leafValues></_>
        <_>
          <internalNodes>
            0 -1 685 -9.4779403298161924e-05</internalNodes>
          <leafValues>
            2.6894062757492065e-01 -3.3119171857833862e-01</leafValues></_></weakClassifiers></_>
    <!-- stage 3 -->
    <_>
      <maxWeakCount>21</maxWeakCount>
      <stageThreshold>-9.2830765247344971e-01</stageThreshold>
      <weakClassifiers>
        <_>
          <internalNodes>
            0 -1 406 -8.6727537564001977e-05</internalNodes>
          <leafValues>
            7.7884346246719360e-01 1.6426116228103638e-01</leafValues></_>
        <_>
          <internalNodes>
            0 -1 209 1.5713119506835938e-01</internalNodes>
          <leafValues>
            -1.1609640717506409e-01 7.3799651861190796e-01</leafValues></_>
        <_>
          <internalNodes>
            0 -1 381 2.7583080736803822e-05</internalNodes>
          <leafValues>
            -4.1178375482559204e-01 2.8682824969291687e-01</leafValues></_>
        <_>
          <internalNodes>
            0 -1 93 1.0403783991932869e-02</internalNodes>
          <leafValues>
            -3.1392806768417358e-01 3.1004080176353455e-01</leafValues></_>
        <_>
          <internalNodes>
            0 -1 648 7.9818107187747955e-03</internalNodes>
          <leafValues>
            -2.4123498797416687e-01 4.3087455630302429e-01</leafValues></_>
        <_>
          <internalNodes>
            0 -1 441 -2.5030996766872704e-04</internalNodes>
          <leafValues>
            3.0852723121643066e-01 -3.1080806255340576e-01</leafValues></_>
        <_>
          <internalNodes>
            0 -1 376 2.9113123673596419e-05</internalNodes>
          <leafValues>
            -3.9512827992439270e-01 2.3230196535587311e-01</leafValues></_>
        <_>
          <internalNodes>
            0 -1 657 -7.0138186856638640e-05</internalNodes>
          <leafValues>
            2.7564641833305359e-01 -3.4624871611595154e-01</leafValues></_>
        <_>
          <internalNodes>
            0 -1 74 -3.8592886924743652e-01</internalNodes>
          <leafValues>
            6.7786478996276855e-01 -1.4119468629360199e-01</leafValues></_>
        <_>
          <internalNodes>
            0 -1 390 6.1531405663117766e-05</internalNodes>
          <leafValues>
            -2.9605561494827271e-01 3.0704182386398315e-01</leafValues></_>
        <_>
          <internalNodes>
            0 -1 695 1.9514271616935730e-01</internalNodes>
          <leafValues>
            1.1497425287961960e-01 -7.2975784540176392e-01</leafValues></_>
        <_>
          <internalNodes>
            0 -1 613 -1.4018067717552185e-01</internalNodes>
          <leafValues>
            -7.8472357988357544e-01 9.8572969436645508e-02</leafValues></_>
        <_>
          <internalNodes>
            0 -1 539 3.2484484108863398e-05</internalNodes>
          <leafValues>
            -3.8467052578926086e-01 1.9927157461643219e-01</leafValues></_>
        <_>
          <internalNodes>
            0 -1 70 -2.2303662262856960e-03</internalNodes>
          <leafValues>
            -4.7087684273719788e-01 1.8510274589061737e-01</leafValues></_>
        <_>
          <internalNodes>
            0 -1 601 3.0402074116864242e-05</internalNodes>
          <leafValues>
            -2.9660618305206299e-01 2.5886395573616028e-01</leafValues></_>
        <_>
          <internalNodes>
            0 -1 713 7.4867270886898041e-03</internalNodes>
          <leafValues>
            -1.5575210750102997e-01 5.3401464223861694e-01</leafValues></_>
        <_>
          <internalNodes>
            0 -1 190 3.3302367228316143e-05</internalNodes>
          <leafValues>
            -3.2004669308662415e-01 2.3356088995933533e-01</leafValues></_>
        <_>
          <internalNodes>
            0 -1 131 3.0402074116864242e-05</internalNodes>
          <leafValues>
            -2.7690032124519348e-01 2.7006381750106812e-01</leafValues></_>
        <_>
          <internalNodes>
            0 -1 523 2.6317872107028961e-03</internalNodes>
          <leafValues>
            -2.9536706209182739e-01 2.5733929872512817e-01</leafValues></_>
        <_>
          <internalNodes>
            0 -1 575 2.6418119668960571e-02</internalNodes>
          <leafValues>
            -1.9427731633186340e-01 4.0072306990623474e-01</leafValues></_>
        <_>
          <internalNodes>
            0 -1 397 6.5643442212603986e-05</internalNodes>
          <leafValues>
            -2.8068521618843079e-01 2.5165143609046936e-01</leafValues></_></weakClassifiers></_>
    <!-- stage 4 -->
    <_>
      <maxWeakCount>31</maxWeakCount>
      <stageThreshold>-9.7325783967971802e-01</stageThreshold>
      <weakClassifiers>
        <_>
          <internalNodes>
            0 -1 328 -8.2257902249693871e-05</internalNodes>
          <leafValues>
            7.4604874849319458e-01 1.6969218850135803e-01</leafValues></_>
        <_>
          <internalNodes>
            0 -1 147 1.5154054760932922e-01</internalNodes>
          <leafValues>
            -1.2217354029417038e-01 6.6599303483963013e-01</leafValues></_>
        <_>
          <internalNodes>
            0 -1 705 -2.1532298997044563e-02</internalNodes>
          <leafValues>
            3.8225999474525452e-01 -2.1949896216392517e-01</leafValues></_>
        <_>
          <internalNodes>
            0 -1 512 -2.0532927010208368e-04</internalNodes>
          <leafValues>
            3.1073871254920959e-01 -2.7105918526649475e-01</leafValues></_>
        <_>
          <internalNodes>
            0 -1 356 3.0711226165294647e-02</internalNodes>
          <leafValues>
            -2.2229020297527313e-01 4.5928788185119629e-01</leafValues></_>
        <_>
          <internalNodes>
            0 -1 447 -3.8366131484508514e-03</internalNodes>
          <leafValues>
            3.7803274393081665e-01 -2.4015974998474121e-01</leafValues></_>
        <_>
          <internalNodes>
            0 -1 32 -2.0901130139827728e-01</internalNodes>
          <leafValues>
            6.3721317052841187e-01 -1.1891219019889832e-01</leafValues></_>
        <_>
          <internalNodes>
            0 -1 593 3.6133310641162097e-04</internalNodes>
          <leafValues>
            -3.2186543941497803e-01 2.6714527606964111e-01</leafValues></_>
        <_>
          <internalNodes>
            0 -1 257 5.9682304708985612e-05</internalNodes>
          <leafValues>
            -3.1848558783531189e-01 2.3363041877746582e-01</leafValues></_>
        <_>
          <internalNodes>
            0 -1 583 -2.3344807326793671e-02</internalNodes>
          <leafValues>
            -8.8827568292617798e-01 6.8480201065540314e-02</leafValues></_>
        <_>
          <internalNodes>
            0 -1 220 9.8878135904669762e-03</internalNodes>
          <leafValues>
            -3.8844081759452820e-01 1.4777149260044098e-01</leafValues></_>
        <_>
          <internalNodes>
            0 -1 414 7.2054125368595123e-02</internalNodes>
          <leafValues>
            -1.5544508397579193e-01 4.8268258571624756e-01</leafValues></_>
        <_>
          <internalNodes>
            0 -1 42 3.9842003025114536e-03</internalNodes>
          <leafValues>
            1.6320091485977173e-01 -4.1787520051002502e-01</leafValues></_>
        <_>
          <internalNodes>
            0 -1 580 -2.6007121428847313e-02</internalNodes>
          <leafValues>
            5.2914679050445557e-01 -1.1343457549810410e-01</leafValues></_>
        <_>
          <internalNodes>
            0 -1 404 4.6779535710811615e-02</internalNodes>
          <leafValues>
            -1.4789378643035889e-01 4.9745866656303406e-01</leafValues></_>
        <_>
          <internalNodes>
            0 -1 519 7.7457576990127563e-02</internalNodes>
          <leafValues>
            -1.6361555457115173e-01 3.9004516601562500e-01</leafValues></_>
        <_>
          <internalNodes>
            0 -1 301 6.1086419736966491e-04</internalNodes>
          <leafValues>
            -2.9127547144889832e-01 2.1462517976760864e-01</leafValues></_>
        <_>
          <internalNodes>
            0 -1 202 3.0006688833236694e-01</internalNodes>
          <leafValues>
            6.6839553415775299e-02 -7.9554963111877441e-01</leafValues></_>
        <_>
          <internalNodes>
            0 -1 363 -2.4209097027778625e-03</internalNodes>
          <leafValues>
            2.6392954587936401e-01 -2.0422041416168213e-01</leafValues></_>
        <_>
          <internalNodes>
            0 -1 172 -5.1322788000106812e-02</internalNodes>
          <leafValues>
            -7.3267316818237305e-01 1.0475415736436844e-01</leafValues></_>
        <_>
          <internalNodes>
            0 -1 87 2.9849981889128685e-02</internalNodes>
          <leafValues>
            -2.0706963539123535e-01 3.6166176199913025e-01</leafValues></_>
        <_>
          <internalNodes>
            0 -1 522 -1.0798183502629399e-03</internalNodes>
          <leafValues>
            3.4261435270309448e-01 -1.8376564979553223e-01</leafValues></_>
        <_>
          <internalNodes>
            0 -1 415 1.6862139105796814e-02</internalNodes>
          <leafValues>
            -2.6985666155815125e-01 2.3246195912361145e-01</leafValues></_>
        <_>
          <internalNodes>
            0 -1 359 -5.9478869661688805e-04</internalNodes>
          <leafValues>
            2.4917724728584290e-01 -2.2415308654308319e-01</leafValues></_>
        <_>
          <internalNodes>
            0 -1 150 -4.6905227005481720e-02</internalNodes>
          <leafValues>
            4.9085620045661926e-01 -1.4102391898632050e-01</leafValues></_>
        <_>
          <internalNodes>
            0 -1 423 -5.9589274227619171e-02</internalNodes>
          <leafValues>
            -8.5774421691894531e-01 8.8502213358879089e-02</leafValues></_>
        <_>
          <internalNodes>
            0 -1 548 -1.0802927135955542e-04</internalNodes>
          <leafValues>
            1.5696567296981812e-01 -3.4619447588920593e-01</leafValues></_>
        <_>
          <internalNodes>
            0 -1 780 -9.9086144473403692e-04</internalNodes>
          <leafValues>
            -3.1386706233024597e-01 1.8395663797855377e-01</leafValues></_>
        <_>
          <internalNodes>
            0 -1 486 6.4230800489895046e-05</internalNodes>
          <leafValues>
            -2.6686364412307739e-01 2.2212329506874084e-01</leafValues></_>
        <_>
          <internalNodes>
            0 -1 252 -9.1003641486167908e-02</internalNodes>
          <leafValues>
            6.7719846963882446e-01 -8.3551086485385895e-02</leafValues></_>
        <_>
          <internalNodes>
            0 -1 534 3.9638398448005319e-04</internalNodes>
          <leafValues>
            -2.7408489584922791e-01 2.0130337774753571e-01</leafValues></_></weakClassifiers></_>
    <!-- stage 5 -->
    <_>
      <maxWeakCount>35</maxWeakCount>
      <stageThreshold>-9.0274518728256226e-01</stageThreshold>
      <weakClassifiers>
        <_>
          <internalNodes>
            0 -1 309 2.7120438971905969e-05</internalNodes>
          <leafValues>
            1.7246834933757782e-01 7.4464666843414307e-01</leafValues></_>
        <_>
          <internalNodes>
            0 -1 21 2.7346330881118774e-01</internalNodes>
          <leafValues>
            -8.3660908043384552e-02 6.0819762945175171e-01</leafValues></_>
        <_>
          <internalNodes>
            0 -1 711 2.0583162084221840e-02</internalNodes>
          <leafValues>
            -2.0436079800128937e-01 4.2512911558151245e-01</leafValues></_>
        <_>
          <internalNodes>
            0 -1 398 -8.7973894551396370e-05</internalNodes>
          <leafValues>
            2.1911807358264923e-01 -3.7735316157341003e-01</leafValues></_>
        <_>
          <internalNodes>
            0 -1 337 7.9948193160817027e-05</internalNodes>
          <leafValues>
            -3.0562749505043030e-01 2.3344555497169495e-01</leafValues></_>
        <_>
          <internalNodes>
            0 -1 49 1.3916298747062683e-02</internalNodes>
          <leafValues>
            -2.2924533486366272e-01 3.0570462346076965e-01</leafValues></_>
        <_>
          <internalNodes>
            0 -1 7 4.3297093361616135e-03</internalNodes>
          <leafValues>
            1.2674829363822937e-01 -5.6651610136032104e-01</leafValues></_>
        <_>
          <internalNodes>
            0 -1 1 -3.4058280289173126e-03</internalNodes>
          <leafValues>
            -5.1520764827728271e-01 1.1163444817066193e-01</leafValues></_>
        <_>
          <internalNodes>
            0 -1 22 -3.2097679376602173e-01</internalNodes>
          <leafValues>
            5.7926493883132935e-01 -1.1516468971967697e-01</leafValues></_>
        <_>
          <internalNodes>
            0 -1 462 8.3240709500387311e-05</internalNodes>
          <leafValues>
            -3.6878311634063721e-01 2.1252386271953583e-01</leafValues></_>
        <_>
          <internalNodes>
            0 -1 455 2.1742619574069977e-03</internalNodes>
          <leafValues>
            -1.9302116334438324e-01 2.9127708077430725e-01</leafValues></_>
        <_>
          <internalNodes>
            0 -1 610 1.0466846823692322e-01</internalNodes>
          <leafValues>
            -1.6459435224533081e-01 3.5239395499229431e-01</leafValues></_>
        <_>
          <internalNodes>
            0 -1 609 5.4301660507917404e-02</internalNodes>
          <leafValues>
            -1.0186111181974411e-01 5.5455541610717773e-01</leafValues></_>
        <_>
          <internalNodes>
            0 -1 411 1.9481264054775238e-02</internalNodes>
          <leafValues>
            -1.1336538940668106e-01 4.6522197127342224e-01</leafValues></_>
        <_>
          <internalNodes>
            0 -1 741 -2.3893808946013451e-02</internalNodes>
          <leafValues>
            6.2366390228271484e-01 -8.7483309209346771e-02</leafValues></_>
        <_>
          <internalNodes>
            0 -1 189 -1.0236620903015137e-01</internalNodes>
          <leafValues>
            5.3961813449859619e-01 -9.1490134596824646e-02</leafValues></_>
        <_>
          <internalNodes>
            0 -1 386 2.1982178092002869e-02</internalNodes>
          <leafValues>
            -1.6018509864807129e-01 3.6136493086814880e-01</leafValues></_>
        <_>
          <internalNodes>
            0 -1 399 5.9884339862037450e-05</internalNodes>
          <leafValues>
            -2.5008261203765869e-01 2.3647794127464294e-01</leafValues></_>
        <_>
          <internalNodes>
            0 -1 476 -7.9360652307514101e-05</internalNodes>
          <leafValues>
            1.9288121163845062e-01 -3.0617117881774902e-01</leafValues></_>
        <_>
          <internalNodes>
            0 -1 540 1.9065640866756439e-02</internalNodes>
          <leafValues>
            -1.8649683892726898e-01 3.0124211311340332e-01</leafValues></_>
        <_>
          <internalNodes>
            0 -1 448 -1.8570169806480408e-02</internalNodes>
          <leafValues>
            -4.9595856666564941e-01 1.1691083759069443e-01</leafValues></_>
        <_>
          <internalNodes>
            0 -1 731 2.5923885405063629e-02</internalNodes>
          <leafValues>
            -1.5610316395759583e-01 3.7924095988273621e-01</leafValues></_>
        <_>
          <internalNodes>
            0 -1 526 8.3469538367353380e-05</internalNodes>
          <leafValues>
            -2.7549019455909729e-01 2.2268840670585632e-01</leafValues></_>
        <_>
          <internalNodes>
            0 -1 464 3.4510495606809855e-03</internalNodes>
          <leafValues>
            -2.7362501621246338e-01 2.3490573465824127e-01</leafValues></_>
        <_>
          <internalNodes>
            0 -1 395 2.7583080736803822e-05</internalNodes>
          <leafValues>
            -2.8875315189361572e-01 2.0081359148025513e-01</leafValues></_>
        <_>
          <internalNodes>
            0 -1 562 3.7616468966007233e-02</internalNodes>
          <leafValues>
            8.4263771772384644e-02 -6.1241501569747925e-01</leafValues></_>
        <_>
          <internalNodes>
            0 -1 277 -5.0130739808082581e-02</internalNodes>
          <leafValues>
            -8.2845634222030640e-01 5.5632844567298889e-02</leafValues></_>
        <_>
          <internalNodes>
            0 -1 524 -1.7671692185103893e-03</internalNodes>
          <leafValues>
            3.0016678571701050e-01 -1.8138405680656433e-01</leafValues></_>
        <_>
          <internalNodes>
            0 -1 348 -8.1487558782100677e-02</internalNodes>
          <leafValues>
            6.1876255273818970e-01 -9.6165455877780914e-02</leafValues></_>
        <_>
          <internalNodes>
            0 -1 512 -8.5812629549764097e-05</internalNodes>
          <leafValues>
            2.3433403670787811e-01 -2.5279173254966736e-01</leafValues></_>
        <_>
          <internalNodes>
            0 -1 428 1.7858695238828659e-02</internalNodes>
          <leafValues>
            -1.5111936628818512e-01 4.2610216140747070e-01</leafValues></_>
        <_>
          <internalNodes>
            0 -1 272 -7.3195129632949829e-02</internalNodes>
          <leafValues>
            4.9197003245353699e-01 -1.0794790834188461e-01</leafValues></_>
        <_>
          <internalNodes>
            0 -1 752 -1.1369150597602129e-03</internalNodes>
          <leafValues>
            -4.6233439445495605e-01 1.3561362028121948e-01</leafValues></_>
        <_>
          <internalNodes>
            0 -1 506 -1.0298215056536719e-04</internalNodes>
          <leafValues>
            2.4451699852943420e-01 -2.3968987166881561e-01</leafValues></_>
        <_>
          <internalNodes>
            0 -1 225 -3.9892263710498810e-02</internalNodes>
          <leafValues>
            -7.8523546457290649e-01 6.6027276217937469e-02</leafValues></_></weakClassifiers></_>
    <!-- stage 6 -->
    <_>
      <maxWeakCount>40</maxWeakCount>
      <stageThreshold>-9.1322052478790283e-01</stageThreshold>
      <weakClassifiers>
        <_>
          <internalNodes>
            0 -1 656 -7.3087474447675049e-05</internalNodes>
          <leafValues>
            7.1811026334762573e-01 2.2184874117374420e-01</leafValues></_>
        <_>
          <internalNodes>
            0 -1 31 9.0756058692932129e-02</internalNodes>
          <leafValues>
            -1.3968281447887421e-01 4.6939662098884583e-01</leafValues></_>
        <_>
          <internalNodes>
            0 -1 41 3.6899143457412720e-01</internalNodes>
          <leafValues>
            1.1476069688796997e-01 -7.0099633932113647e-01</leafValues></_>
        <_>
          <internalNodes>
            0 -1 243 -2.8868735171272419e-05</internalNodes>
          <leafValues>
            1.6601753234863281e-01 -3.2591894268989563e-01</leafValues></_>
        <_>
          <internalNodes>
            0 -1 640 2.5886422023177147e-02</internalNodes>
          <leafValues>
            -1.8983912467956543e-01 3.1166869401931763e-01</leafValues></_>
        <_>
          <internalNodes>
            0 -1 103 -3.5427328944206238e-01</internalNodes>
          <leafValues>
            6.9151639938354492e-01 -1.1501185595989227e-01</leafValues></_>
        <_>
          <internalNodes>
            0 -1 750 -1.9456967711448669e-03</internalNodes>
          <leafValues>
            -4.0172049403190613e-01 1.3750572502613068e-01</leafValues></_>
        <_>
          <internalNodes>
            0 -1 516 -1.0971757583320141e-03</internalNodes>
          <leafValues>
            2.5926744937896729e-01 -2.2990500926971436e-01</leafValues></_>
        <_>
          <internalNodes>
            0 -1 500 3.1677447259426117e-02</internalNodes>
          <leafValues>
            9.5409512519836426e-02 -6.9629579782485962e-01</leafValues></_>
        <_>
          <internalNodes>
            0 -1 253 7.0615307777188718e-05</internalNodes>
          <leafValues>
            -2.8232312202453613e-01 1.7516586184501648e-01</leafValues></_>
        <_>
          <internalNodes>
            0 -1 683 6.3883671537041664e-03</internalNodes>
          <leafValues>
            -1.9263313710689545e-01 2.5821951031684875e-01</leafValues></_>
        <_>
          <internalNodes>
            0 -1 372 -8.0216571688652039e-02</internalNodes>
          <leafValues>
            7.4662566184997559e-01 -8.2216568291187286e-02</leafValues></_>
        <_>
          <internalNodes>
            0 -1 381 1.0360476153437048e-04</internalNodes>
          <leafValues>
            -3.3819219470024109e-01 1.9208842515945435e-01</leafValues></_>
        <_>
          <internalNodes>
            0 -1 607 -1.7889903392642736e-04</internalNodes>
          <leafValues>
            1.8623898923397064e-01 -3.2122296094894409e-01</leafValues></_>
        <_>
          <internalNodes>
            0 -1 760 5.5616116151213646e-03</internalNodes>
          <leafValues>
            -1.4460630714893341e-01 3.7696459889411926e-01</leafValues></_>
        <_>
          <internalNodes>
            0 -1 160 -1.6946399211883545e-01</internalNodes>
          <leafValues>
            -6.6613864898681641e-01 8.0806650221347809e-02</leafValues></_>
        <_>
          <internalNodes>
            0 -1 446 -1.9535778556019068e-03</internalNodes>
          <leafValues>
            3.5101172327995300e-01 -1.9576509296894073e-01</leafValues></_>
        <_>
          <internalNodes>
            0 -1 558 -4.2002409696578979e-02</internalNodes>
          <leafValues>
            5.2336013317108154e-01 -1.1181617528200150e-01</leafValues></_>
        <_>
          <internalNodes>
            0 -1 620 -7.1161579398903996e-05</internalNodes>
          <leafValues>
            2.4866184592247009e-01 -1.9081240892410278e-01</leafValues></_>
        <_>
          <internalNodes>
            0 -1 665 -7.0652037858963013e-02</internalNodes>
          <leafValues>
            3.9050346612930298e-01 -1.3052085041999817e-01</leafValues></_>
        <_>
          <internalNodes>
            0 -1 616 2.8954731300473213e-02</internalNodes>
          <leafValues>
            6.4606666564941406e-02 -8.4804868698120117e-01</leafValues></_>
        <_>
          <internalNodes>
            0 -1 340 -1.0867252945899963e-02</internalNodes>
          <leafValues>
            3.7507510185241699e-01 -1.4601331949234009e-01</leafValues></_>
        <_>
          <internalNodes>
            0 -1 764 1.3218051753938198e-03</internalNodes>
          <leafValues>
            1.3610707223415375e-01 -3.6644467711448669e-01</leafValues></_>
        <_>
          <internalNodes>
            0 -1 718 -2.8545681852847338e-03</internalNodes>
          <leafValues>
            -3.9713925123214722e-01 1.2524859607219696e-01</leafValues></_>
        <_>
          <internalNodes>
            0 -1 125 3.2869982533156872e-05</internalNodes>
          <leafValues>
            -2.4568250775337219e-01 1.9168332219123840e-01</leafValues></_>
        <_>
          <internalNodes>
            0 -1 471 1.5713657485321164e-03</internalNodes>
          <leafValues>
            -2.9372325539588928e-01 1.6269811987876892e-01</leafValues></_>
        <_>
          <internalNodes>
            0 -1 531 1.0133901610970497e-02</internalNodes>
          <leafValues>
            -1.2513275444507599e-01 4.0597406029701233e-01</leafValues></_>
        <_>
          <internalNodes>
            0 -1 530 5.9220809489488602e-03</internalNodes>
          <leafValues>
            -2.4952839314937592e-01 2.1463020145893097e-01</leafValues></_>
        <_>
          <internalNodes>
            0 -1 232 7.0593491196632385e-02</internalNodes>
          <leafValues>
            6.1482228338718414e-02 -8.5638678073883057e-01</leafValues></_>
        <_>
          <internalNodes>
            0 -1 240 -5.7252429425716400e-02</internalNodes>
          <leafValues>
            6.7951685190200806e-01 -8.7140440940856934e-02</leafValues></_>
        <_>
          <internalNodes>
            0 -1 479 3.2785517396405339e-04</internalNodes>
          <leafValues>
            -2.4084913730621338e-01 2.3951523005962372e-01</leafValues></_>
        <_>
          <internalNodes>
            0 -1 186 6.0461540706455708e-03</internalNodes>
          <leafValues>
            -2.8546133637428284e-01 1.9980646669864655e-01</leafValues></_>
        <_>
          <internalNodes>
            0 -1 628 -1.8619734793901443e-02</internalNodes>
          <leafValues>
            3.4403720498085022e-01 -1.4637495577335358e-01</leafValues></_>
        <_>
          <internalNodes>
            0 -1 521 2.9878510758862831e-05</internalNodes>
          <leafValues>
            -2.2505298256874084e-01 2.1166682243347168e-01</leafValues></_>
        <_>
          <internalNodes>
            0 -1 449 2.0761340856552124e-02</internalNodes>
          <leafValues>
            6.5600402653217316e-02 -8.1865710020065308e-01</leafValues></_>
        <_>
          <internalNodes>
            0 -1 62 7.6710089342668653e-04</internalNodes>
          <leafValues>
            1.3501049578189850e-01 -3.1504917144775391e-01</leafValues></_>
        <_>
          <internalNodes>
            0 -1 9 -3.6880344152450562e-02</internalNodes>
          <leafValues>
            -3.8073593378067017e-01 1.0835605114698410e-01</leafValues></_>
        <_>
          <internalNodes>
            0 -1 559 -9.6935502369888127e-05</internalNodes>
          <leafValues>
            2.4418978393077850e-01 -1.8588221073150635e-01</leafValues></_>
        <_>
          <internalNodes>
            0 -1 299 1.8016817048192024e-03</internalNodes>
          <leafValues>
            -2.6666828989982605e-01 1.8406642973423004e-01</leafValues></_>
        <_>
          <internalNodes>
            0 -1 578 -2.1920593455433846e-02</internalNodes>
          <leafValues>
            -6.6873776912689209e-01 7.6868601143360138e-02</leafValues></_></weakClassifiers></_>
    <!-- stage 7 -->
    <_>
      <maxWeakCount>31</maxWeakCount>
      <stageThreshold>-8.8885211944580078e-01</stageThreshold>
      <weakClassifiers>
        <_>
          <internalNodes>
            0 -1 206 5.5187654495239258e-01</internalNodes>
          <leafValues>
            6.4465540647506714e-01 -8.0519479513168335e-01</leafValues></_>
        <_>
          <internalNodes>
            0 -1 55 9.3529298901557922e-03</internalNodes>
          <leafValues>
            -1.0838650912046432e-01 5.4522252082824707e-01</leafValues></_>
        <_>
          <internalNodes>
            0 -1 776 -9.2011634260416031e-03</internalNodes>
          <leafValues>
            -4.2738145589828491e-01 2.1701668202877045e-01</leafValues></_>
        <_>
          <internalNodes>
            0 -1 532 4.1203632950782776e-02</internalNodes>
          <leafValues>
            -2.0933449268341064e-01 3.9428374171257019e-01</leafValues></_>
        <_>
          <internalNodes>
            0 -1 130 -7.5945095159113407e-03</internalNodes>
          <leafValues>
            4.1648992896080017e-01 -2.2146397829055786e-01</leafValues></_>
        <_>
          <internalNodes>
            0 -1 443 -4.1138799861073494e-04</internalNodes>
          <leafValues>
            2.8948050737380981e-01 -2.5073739886283875e-01</leafValues></_>
        <_>
          <internalNodes>
            0 -1 667 2.3948393762111664e-02</internalNodes>
          <leafValues>
            -1.5237662196159363e-01 4.7167348861694336e-01</leafValues></_>
        <_>
          <internalNodes>
            0 -1 319 6.2349688960239291e-05</internalNodes>
          <leafValues>
            -3.1503325700759888e-01 2.1920135617256165e-01</leafValues></_>
        <_>
          <internalNodes>
            0 -1 673 3.4915421158075333e-02</internalNodes>
          <leafValues>
            -1.3265913724899292e-01 5.2788501977920532e-01</leafValues></_>
        <_>
          <internalNodes>
            0 -1 481 1.8697338178753853e-02</internalNodes>
          <leafValues>
            -1.7179693281650543e-01 3.5648441314697266e-01</leafValues></_>
        <_>
          <internalNodes>
            0 -1 40 -6.8488746881484985e-02</internalNodes>
          <leafValues>
            -4.6154418587684631e-01 1.3476642966270447e-01</leafValues></_>
        <_>
          <internalNodes>
            0 -1 183 -3.2245756301563233e-05</internalNodes>
          <leafValues>
            2.0835524797439575e-01 -2.6781812310218811e-01</leafValues></_>
        <_>
          <internalNodes>
            0 -1 456 5.7618017308413982e-03</internalNodes>
          <leafValues>
            -3.0683359503746033e-01 2.0572613179683685e-01</leafValues></_>
        <_>
          <internalNodes>
            0 -1 641 -1.1399399489164352e-02</internalNodes>
          <leafValues>
            4.8864883184432983e-01 -1.4031399786472321e-01</leafValues></_>
        <_>
          <internalNodes>
            0 -1 5 1.9853482954204082e-03</internalNodes>
          <leafValues>
            1.5918135643005371e-01 -3.7009814381599426e-01</leafValues></_>
        <_>
          <internalNodes>
            0 -1 149 5.8626914396882057e-03</internalNodes>
          <leafValues>
            -1.4895911514759064e-01 3.9454624056816101e-01</leafValues></_>
        <_>
          <internalNodes>
            0 -1 151 -7.7377436682581902e-03</internalNodes>
          <leafValues>
            5.3334605693817139e-01 -1.2754099071025848e-01</leafValues></_>
        <_>
          <internalNodes>
            0 -1 604 -8.9762979769147933e-05</internalNodes>
          <leafValues>
            1.6873499751091003e-01 -3.6878505349159241e-01</leafValues></_>
        <_>
          <internalNodes>
            0 -1 178 -1.0270784609019756e-02</internalNodes>
          <leafValues>
            5.4199910163879395e-01 -9.7458429634571075e-02</leafValues></_>
        <_>
          <internalNodes>
            0 -1 242 2.7120438971905969e-05</internalNodes>
          <leafValues>
            -3.4550347924232483e-01 2.0965866744518280e-01</leafValues></_>
        <_>
          <internalNodes>
            0 -1 129 2.7583080736803822e-05</internalNodes>
          <leafValues>
            -2.9819318652153015e-01 1.9164450466632843e-01</leafValues></_>
        <_>
          <internalNodes>
            0 -1 691 6.5563045442104340e-02</internalNodes>
          <leafValues>
            7.8235454857349396e-02 -7.2207069396972656e-01</leafValues></_>
        <_>
          <internalNodes>
            0 -1 228 9.2977240681648254e-02</internalNodes>
          <leafValues>
            6.5401650965213776e-02 -6.8853986263275146e-01</leafValues></_>
        <_>
          <internalNodes>
            0 -1 714 -6.7065088078379631e-03</internalNodes>
          <leafValues>
            6.6620343923568726e-01 -8.8907591998577118e-02</leafValues></_>
        <_>
          <internalNodes>
            0 -1 173 1.7457492649555206e-02</internalNodes>
          <leafValues>
            -1.0361925512552261e-01 4.8441219329833984e-01</leafValues></_>
        <_>
          <internalNodes>
            0 -1 304 2.8327811509370804e-02</internalNodes>
          <leafValues>
            -1.5124708414077759e-01 3.6190095543861389e-01</leafValues></_>
        <_>
          <internalNodes>
            0 -1 298 8.9885797933675349e-05</internalNodes>
          <leafValues>
            -3.1606638431549072e-01 1.8901497125625610e-01</leafValues></_>
        <_>
          <internalNodes>
            0 -1 679 7.5707677751779556e-05</internalNodes>
          <leafValues>
            -2.1346923708915710e-01 2.7074643969535828e-01</leafValues></_>
        <_>
          <internalNodes>
            0 -1 720 3.4330433700233698e-03</internalNodes>
          <leafValues>
            1.2414253503084183e-01 -4.4333961606025696e-01</leafValues></_>
        <_>
          <internalNodes>
            0 -1 46 2.8221839666366577e-01</internalNodes>
          <leafValues>
            8.7478607892990112e-02 -5.5791622400283813e-01</leafValues></_>
        <_>
          <internalNodes>
            0 -1 518 1.7875581979751587e-03</internalNodes>
          <leafValues>
            -2.1424677968025208e-01 2.3048795759677887e-01</leafValues></_></weakClassifiers></_>
    <!-- stage 8 -->
    <_>
      <maxWeakCount>41</maxWeakCount>
      <stageThreshold>-9.0533441305160522e-01</stageThreshold>
      <weakClassifiers>
        <_>
          <internalNodes>
            0 -1 274 -3.2297044992446899e-01</internalNodes>
          <leafValues>
            -5.6834530830383301e-01 6.3340878486633301e-01</leafValues></_>
        <_>
          <internalNodes>
            0 -1 148 5.9851367026567459e-02</internalNodes>
          <leafValues>
            -1.0724455863237381e-01 4.4363430142402649e-01</leafValues></_>
        <_>
          <internalNodes>
            0 -1 453 7.8594835940748453e-04</internalNodes>
          <leafValues>
            -1.8472605943679810e-01 3.2364201545715332e-01</leafValues></_>
        <_>
          <internalNodes>
            0 -1 735 1.5604687854647636e-02</internalNodes>
          <leafValues>
            -2.0609067380428314e-01 3.0150890350341797e-01</leafValues></_>
        <_>
          <internalNodes>
            0 -1 612 -2.6905186474323273e-02</internalNodes>
          <leafValues>
            5.2223449945449829e-01 -1.2696661055088043e-01</leafValues></_>
        <_>
          <internalNodes>
            0 -1 611 1.1475451290607452e-02</internalNodes>
          <leafValues>
            -2.0891936123371124e-01 3.6879658699035645e-01</leafValues></_>
        <_>
          <internalNodes>
            0 -1 309 2.7120438971905969e-05</internalNodes>
          <leafValues>
            -3.4579166769981384e-01 1.7490710318088531e-01</leafValues></_>
        <_>
          <internalNodes>
            0 -1 48 -1.0225806385278702e-02</internalNodes>
          <leafValues>
            4.2547738552093506e-01 -1.2992104887962341e-01</leafValues></_>
        <_>
          <internalNodes>
            0 -1 692 -3.3055839594453573e-03</internalNodes>
          <leafValues>
            -4.3939587473869324e-01 1.1774072051048279e-01</leafValues></_>
        <_>
          <internalNodes>
            0 -1 694 4.3727681040763855e-03</internalNodes>
          <leafValues>
            1.3041749596595764e-01 -4.3321222066879272e-01</leafValues></_>
        <_>
          <internalNodes>
            0 -1 587 6.8216118961572647e-05</internalNodes>
          <leafValues>
            -3.1096762418746948e-01 1.7719689011573792e-01</leafValues></_>
        <_>
          <internalNodes>
            0 -1 602 2.1426109597086906e-02</internalNodes>
          <leafValues>
            -1.5306155383586884e-01 4.1243422031402588e-01</leafValues></_>
        <_>
          <internalNodes>
            0 -1 474 -4.7332622110843658e-02</internalNodes>
          <leafValues>
            5.1404821872711182e-01 -1.3057722151279449e-01</leafValues></_>
        <_>
          <internalNodes>
            0 -1 344 -2.8531165793538094e-02</internalNodes>
          <leafValues>
            4.2826765775680542e-01 -1.2712456285953522e-01</leafValues></_>
        <_>
          <internalNodes>
            0 -1 181 1.4634028077125549e-02</internalNodes>
          <leafValues>
            -1.0818351805210114e-01 4.5596238970756531e-01</leafValues></_>
        <_>
          <internalNodes>
            0 -1 248 -1.4213348738849163e-02</internalNodes>
          <leafValues>
            5.0359100103378296e-01 -1.1454773694276810e-01</leafValues></_>
        <_>
          <internalNodes>
            0 -1 317 2.6450590667081997e-05</internalNodes>
          <leafValues>
            -2.6066690683364868e-01 2.1184521913528442e-01</leafValues></_>
        <_>
          <internalNodes>
            0 -1 652 1.1770045384764671e-02</internalNodes>
          <leafValues>
            -1.1947724223136902e-01 4.1875240206718445e-01</leafValues></_>
        <_>
          <internalNodes>
            0 -1 707 -2.1901618689298630e-02</internalNodes>
          <leafValues>
            5.6814414262771606e-01 -7.8195750713348389e-02</leafValues></_>
        <_>
          <internalNodes>
            0 -1 45 2.4082317948341370e-02</internalNodes>
          <leafValues>
            -1.0834553092718124e-01 4.1838589310646057e-01</leafValues></_>
        <_>
          <internalNodes>
            0 -1 324 -2.5859582424163818e-01</internalNodes>
          <leafValues>
            7.1688020229339600e-01 -5.8567516505718231e-02</leafValues></_>
        <_>
          <internalNodes>
            0 -1 12 -6.1210371553897858e-02</internalNodes>
          <leafValues>
            -3.2875218987464905e-01 1.4385467767715454e-01</leafValues></_>
        <_>
          <internalNodes>
            0 -1 417 -3.2682208257028833e-05</internalNodes>
          <leafValues>
            2.5120288133621216e-01 -1.9546808302402496e-01</leafValues></_>
        <_>
          <internalNodes>
            0 -1 427 -2.7582705952227116e-03</internalNodes>
          <leafValues>
            2.4656167626380920e-01 -2.0643576979637146e-01</leafValues></_>
        <_>
          <internalNodes>
            0 -1 352 -7.3121696710586548e-02</internalNodes>
          <leafValues>
            -6.2797951698303223e-01 9.4665043056011200e-02</leafValues></_>
        <_>
          <internalNodes>
            0 -1 97 -5.4251407273113728e-03</internalNodes>
          <leafValues>
            5.8933138847351074e-01 -9.9285177886486053e-02</leafValues></_>
        <_>
          <internalNodes>
            0 -1 73 3.6015952937304974e-03</internalNodes>
          <leafValues>
            1.5582112967967987e-01 -3.4291484951972961e-01</leafValues></_>
        <_>
          <internalNodes>
            0 -1 533 9.9496524780988693e-03</internalNodes>
          <leafValues>
            -1.9948688149452209e-01 2.4847857654094696e-01</leafValues></_>
        <_>
          <internalNodes>
            0 -1 641 -1.2842919677495956e-02</internalNodes>
          <leafValues>
            4.3301525712013245e-01 -1.2990608811378479e-01</leafValues></_>
        <_>
          <internalNodes>
            0 -1 542 -9.0836925664916635e-04</internalNodes>
          <leafValues>
            -3.8493478298187256e-01 1.4835323393344879e-01</leafValues></_>
        <_>
          <internalNodes>
            0 -1 257 7.2342678322456777e-05</internalNodes>
          <leafValues>
            -2.4747739732265472e-01 1.8015719950199127e-01</leafValues></_>
        <_>
          <internalNodes>
            0 -1 152 -5.1480270922183990e-02</internalNodes>
          <leafValues>
            6.4862573146820068e-01 -7.1937538683414459e-02</leafValues></_>
        <_>
          <internalNodes>
            0 -1 660 -1.9509531557559967e-03</internalNodes>
          <leafValues>
            -2.8707402944564819e-01 1.5301564335823059e-01</leafValues></_>
        <_>
          <internalNodes>
            0 -1 734 -9.5091275870800018e-03</internalNodes>
          <leafValues>
            6.0125064849853516e-01 -7.3966637253761292e-02</leafValues></_>
        <_>
          <internalNodes>
            0 -1 368 1.1056763678789139e-01</internalNodes>
          <leafValues>
            6.2581025063991547e-02 -8.3774012327194214e-01</leafValues></_>
        <_>
          <internalNodes>
            0 -1 668 -6.3526138546876609e-05</internalNodes>
          <leafValues>
            2.1808540821075439e-01 -1.9650578498840332e-01</leafValues></_>
        <_>
          <internalNodes>
            0 -1 721 -1.1542303487658501e-02</internalNodes>
          <leafValues>
            -3.4804311394691467e-01 1.3930042088031769e-01</leafValues></_>
        <_>
          <internalNodes>
            0 -1 539 6.1737977375742048e-05</internalNodes>
          <leafValues>
            -3.2209059596061707e-01 1.3055795431137085e-01</leafValues></_>
        <_>
          <internalNodes>
            0 -1 302 -1.1877191066741943e-01</internalNodes>
          <leafValues>
            7.1304947137832642e-01 -6.4542755484580994e-02</leafValues></_>
        <_>
          <internalNodes>
            0 -1 388 -8.5484865121543407e-04</internalNodes>
          <leafValues>
            -4.5657697319984436e-01 1.1276577413082123e-01</leafValues></_>
        <_>
          <internalNodes>
            0 -1 59 4.1147202253341675e-02</internalNodes>
          <leafValues>
            -1.4604775607585907e-01 3.6093175411224365e-01</leafValues></_></weakClassifiers></_>
    <!-- stage 9 -->
    <_>
      <maxWeakCount>46</maxWeakCount>
      <stageThreshold>-9.2524939775466919e-01</stageThreshold>
      <weakClassifiers>
        <_>
          <internalNodes>
            0 -1 36 2.4920520186424255e-01</internalNodes>
          <leafValues>
            6.3723248243331909e-01 -3.5828876495361328e-01</leafValues></_>
        <_>
          <internalNodes>
            0 -1 328 -3.3410906326025724e-05</internalNodes>
          <leafValues>
            2.6885372400283813e-01 -2.8958454728126526e-01</leafValues></_>
        <_>
          <internalNodes>
            0 -1 329 3.0047896871110424e-05</internalNodes>
          <leafValues>
            -2.4296230077743530e-01 2.3879601061344147e-01</leafValues></_>
        <_>
          <internalNodes>
            0 -1 378 3.3491209615021944e-03</internalNodes>
          <leafValues>
            -2.7177438139915466e-01 2.1582859754562378e-01</leafValues></_>
        <_>
          <internalNodes>
            0 -1 768 -1.6763946041464806e-02</internalNodes>
          <leafValues>
            -3.7199649214744568e-01 1.6642178595066071e-01</leafValues></_>
        <_>
          <internalNodes>
            0 -1 285 -6.4705222030170262e-05</internalNodes>
          <leafValues>
            2.6072949171066284e-01 -1.9733871519565582e-01</leafValues></_>
        <_>
          <internalNodes>
            0 -1 526 2.9885441108490340e-05</internalNodes>
          <leafValues>
            -2.8776523470878601e-01 1.7308607697486877e-01</leafValues></_>
        <_>
          <internalNodes>
            0 -1 327 2.7512698579812422e-05</internalNodes>
          <leafValues>
            -2.9111292958259583e-01 1.7518226802349091e-01</leafValues></_>
        <_>
          <internalNodes>
            0 -1 609 2.8691673651337624e-02</internalNodes>
          <leafValues>
            -1.6913188993930817e-01 3.1374970078468323e-01</leafValues></_>
        <_>
          <internalNodes>
            0 -1 66 2.1805940195918083e-03</internalNodes>
          <leafValues>
            1.6568641364574432e-01 -3.3232933282852173e-01</leafValues></_>
        <_>
          <internalNodes>
            0 -1 334 6.6875567426905036e-05</internalNodes>
          <leafValues>
            -2.1802379190921783e-01 2.3831649124622345e-01</leafValues></_>
        <_>
          <internalNodes>
            0 -1 633 3.1451903283596039e-02</internalNodes>
          <leafValues>
            -1.2524969875812531e-01 3.8209751248359680e-01</leafValues></_>
        <_>
          <internalNodes>
            0 -1 469 2.7120438971905969e-05</internalNodes>
          <leafValues>
            -3.5883298516273499e-01 1.5554574131965637e-01</leafValues></_>
        <_>
          <internalNodes>
            0 -1 740 1.2320922687649727e-02</internalNodes>
          <leafValues>
            -1.8199196457862854e-01 2.9315176606178284e-01</leafValues></_>
        <_>
          <internalNodes>
            0 -1 744 9.0490989387035370e-03</internalNodes>
          <leafValues>
            -7.6024852693080902e-02 6.2386560440063477e-01</leafValues></_>
        <_>
          <internalNodes>
            0 -1 452 1.2898491695523262e-03</internalNodes>
          <leafValues>
            -1.9026288390159607e-01 2.6690202951431274e-01</leafValues></_>
        <_>
          <internalNodes>
            0 -1 13 -6.5882414579391479e-01</internalNodes>
          <leafValues>
            7.2519373893737793e-01 -6.5391369163990021e-02</leafValues></_>
        <_>
          <internalNodes>
            0 -1 72 -4.5458208769559860e-03</internalNodes>
          <leafValues>
            -3.1985566020011902e-01 1.5613497793674469e-01</leafValues></_>
        <_>
          <internalNodes>
            0 -1 703 1.9304769113659859e-02</internalNodes>
          <leafValues>
            -1.0379523783922195e-01 4.6534681320190430e-01</leafValues></_>
        <_>
          <internalNodes>
            0 -1 565 -3.5591976484283805e-05</internalNodes>
          <leafValues>
            2.4373210966587067e-01 -2.1661768853664398e-01</leafValues></_>
        <_>
          <internalNodes>
            0 -1 716 1.2601234950125217e-02</internalNodes>
          <leafValues>
            -6.9167017936706543e-02 6.6720432043075562e-01</leafValues></_>
        <_>
          <internalNodes>
            0 -1 709 -8.5936933755874634e-03</internalNodes>
          <leafValues>
            3.7492695450782776e-01 -1.1323358863592148e-01</leafValues></_>
        <_>
          <internalNodes>
            0 -1 569 -3.1999639759305865e-05</internalNodes>
          <leafValues>
            2.1031440794467926e-01 -2.0478053390979767e-01</leafValues></_>
        <_>
          <internalNodes>
            0 -1 354 7.3560699820518494e-02</internalNodes>
          <leafValues>
            -1.4755509793758392e-01 4.0754854679107666e-01</leafValues></_>
        <_>
          <internalNodes>
            0 -1 582 2.8531085699796677e-03</internalNodes>
          <leafValues>
            -2.3072436451911926e-01 2.2938880324363708e-01</leafValues></_>
        <_>
          <internalNodes>
            0 -1 23 3.3677280880510807e-03</internalNodes>
          <leafValues>
            1.1709269881248474e-01 -4.0482485294342041e-01</leafValues></_>
        <_>
          <internalNodes>
            0 -1 190 6.4478008425794542e-05</internalNodes>
          <leafValues>
            -3.1107580661773682e-01 1.5183098614215851e-01</leafValues></_>
        <_>
          <internalNodes>
            0 -1 276 1.3830848038196564e-02</internalNodes>
          <leafValues>
            -1.0031661391258240e-01 4.6417248249053955e-01</leafValues></_>
        <_>
          <internalNodes>
            0 -1 484 7.7262258855625987e-05</internalNodes>
          <leafValues>
            -2.4016255140304565e-01 2.0757211744785309e-01</leafValues></_>
        <_>
          <internalNodes>
            0 -1 197 -6.8417705595493317e-02</internalNodes>
          <leafValues>
            5.2069938182830811e-01 -8.4523350000381470e-02</leafValues></_>
        <_>
          <internalNodes>
            0 -1 393 7.0658826734870672e-04</internalNodes>
          <leafValues>
            -2.7704319357872009e-01 1.8391789495944977e-01</leafValues></_>
        <_>
          <internalNodes>
            0 -1 113 -1.2134494259953499e-02</internalNodes>
          <leafValues>
            4.0254953503608704e-01 -1.1159840971231461e-01</leafValues></_>
        <_>
          <internalNodes>
            0 -1 117 4.1100122034549713e-03</internalNodes>
          <leafValues>
            -1.4886398613452911e-01 3.3745148777961731e-01</leafValues></_>
        <_>
          <internalNodes>
            0 -1 646 3.3879336115205660e-05</internalNodes>
          <leafValues>
            -2.1783180534839630e-01 2.0563285052776337e-01</leafValues></_>
        <_>
          <internalNodes>
            0 -1 387 4.0580637753009796e-02</internalNodes>
          <leafValues>
            -1.2057296931743622e-01 3.8678216934204102e-01</leafValues></_>
        <_>
          <internalNodes>
            0 -1 371 -8.9347958564758301e-02</internalNodes>
          <leafValues>
            7.5429642200469971e-01 -5.1651954650878906e-02</leafValues></_>
        <_>
          <internalNodes>
            0 -1 146 2.9544508457183838e-01</internalNodes>
          <leafValues>
            -1.5081693232059479e-01 2.8794738650321960e-01</leafValues></_>
        <_>
          <internalNodes>
            0 -1 320 7.1738657425157726e-05</internalNodes>
          <leafValues>
            -2.4934165179729462e-01 1.7425160109996796e-01</leafValues></_>
        <_>
          <internalNodes>
            0 -1 244 6.4196901803370565e-05</internalNodes>
          <leafValues>
            -2.2571989893913269e-01 2.1115878224372864e-01</leafValues></_>
        <_>
          <internalNodes>
            0 -1 239 -1.5496734995394945e-03</internalNodes>
          <leafValues>
            -3.1106057763099670e-01 1.6185297071933746e-01</leafValues></_>
        <_>
          <internalNodes>
            0 -1 412 -1.4106674119830132e-02</internalNodes>
          <leafValues>
            2.9838570952415466e-01 -1.4753380417823792e-01</leafValues></_>
        <_>
          <internalNodes>
            0 -1 418 -3.6755472421646118e-02</internalNodes>
          <leafValues>
            5.0412291288375854e-01 -8.6929269134998322e-02</leafValues></_>
        <_>
          <internalNodes>
            0 -1 475 -9.0032943990081549e-04</internalNodes>
          <leafValues>
            -4.4043716788291931e-01 1.2569957971572876e-01</leafValues></_>
        <_>
          <internalNodes>
            0 -1 491 3.6123248719377443e-05</internalNodes>
          <leafValues>
            -2.0049647986888885e-01 2.1263730525970459e-01</leafValues></_>
        <_>
          <internalNodes>
            0 -1 438 -2.4442770518362522e-04</internalNodes>
          <leafValues>
            2.4917994439601898e-01 -1.8695586919784546e-01</leafValues></_>
        <_>
          <internalNodes>
            0 -1 517 2.8801705688238144e-02</internalNodes>
          <leafValues>
            -7.5026422739028931e-02 5.8802998065948486e-01</leafValues></_></weakClassifiers></_>
    <!-- stage 10 -->
    <_>
      <maxWeakCount>43</maxWeakCount>
      <stageThreshold>-6.6499793529510498e-01</stageThreshold>
      <weakClassifiers>
        <_>
          <internalNodes>
            0 -1 483 -2.7583080736803822e-05</internalNodes>
          <leafValues>
            6.9317311048507690e-01 2.6538109779357910e-01</leafValues></_>
        <_>
          <internalNodes>
            0 -1 16 -3.3242022618651390e-03</internalNodes>
          <leafValues>
            -2.7770268917083740e-01 2.8245702385902405e-01</leafValues></_>
        <_>
          <internalNodes>
            0 -1 35 8.2480579614639282e-02</internalNodes>
          <leafValues>
            -1.2744778394699097e-01 4.6514967083930969e-01</leafValues></_>
        <_>
          <internalNodes>
            0 -1 14 2.4634793400764465e-02</internalNodes>
          <leafValues>
            1.2680256366729736e-01 -3.8868650794029236e-01</leafValues></_>
        <_>
          <internalNodes>
            0 -1 679 8.3493599959183484e-05</internalNodes>
          <leafValues>
            -2.9503911733627319e-01 1.8503655493259430e-01</leafValues></_>
        <_>
          <internalNodes>
            0 -1 195 8.0530138802714646e-05</internalNodes>
          <leafValues>
            -2.4573905766010284e-01 2.1081303060054779e-01</leafValues></_>
        <_>
          <internalNodes>
            0 -1 89 6.7493435926735401e-03</internalNodes>
          <leafValues>
            -1.5728923678398132e-01 3.3518797159194946e-01</leafValues></_>
        <_>
          <internalNodes>
            0 -1 67 1.5642098151147366e-03</internalNodes>
          <leafValues>
            1.2950012087821960e-01 -3.7261873483657837e-01</leafValues></_>
        <_>
          <internalNodes>
            0 -1 697 -1.2308657169342041e-02</internalNodes>
          <leafValues>
            3.3413556218147278e-01 -1.3557280600070953e-01</leafValues></_>
        <_>
          <internalNodes>
            0 -1 670 -9.0445246314629912e-05</internalNodes>
          <leafValues>
            2.9232028126716614e-01 -2.2958599030971527e-01</leafValues></_>
        <_>
          <internalNodes>
            0 -1 118 -4.1947439312934875e-03</internalNodes>
          <leafValues>
            5.2555024623870850e-01 -7.6952606439590454e-02</leafValues></_>
        <_>
          <internalNodes>
            0 -1 119 6.9649084471166134e-03</internalNodes>
          <leafValues>
            -1.6407817602157593e-01 3.0531945824623108e-01</leafValues></_>
        <_>
          <internalNodes>
            0 -1 511 2.9211752116680145e-02</internalNodes>
          <leafValues>
            6.3758179545402527e-02 -7.5537794828414917e-01</leafValues></_>
        <_>
          <internalNodes>
            0 -1 360 5.7669389992952347e-02</internalNodes>
          <leafValues>
            7.9978018999099731e-02 -5.1033180952072144e-01</leafValues></_>
        <_>
          <internalNodes>
            0 -1 182 8.3212522440589964e-05</internalNodes>
          <leafValues>
            -2.6017269492149353e-01 1.6326275467872620e-01</leafValues></_>
        <_>
          <internalNodes>
            0 -1 264 -1.7631806433200836e-02</internalNodes>
          <leafValues>
            -4.1006672382354736e-01 1.1439795792102814e-01</leafValues></_>
        <_>
          <internalNodes>
            0 -1 265 1.0102854110300541e-02</internalNodes>
          <leafValues>
            -1.0998779535293579e-01 4.0798547863960266e-01</leafValues></_>
        <_>
          <internalNodes>
            0 -1 742 -2.4784004315733910e-02</internalNodes>
          <leafValues>
            6.0308665037155151e-01 -6.2604464590549469e-02</leafValues></_>
        <_>
          <internalNodes>
            0 -1 597 1.8443411216139793e-02</internalNodes>
          <leafValues>
            -1.9699949026107788e-01 2.4727413058280945e-01</leafValues></_>
        <_>
          <internalNodes>
            0 -1 650 -3.5794579162029549e-05</internalNodes>
          <leafValues>
            2.0962975919246674e-01 -2.7748203277587891e-01</leafValues></_>
        <_>
          <internalNodes>
            0 -1 586 -1.9700219854712486e-02</internalNodes>
          <leafValues>
            5.1140910387039185e-01 -8.5458882153034210e-02</leafValues></_>
        <_>
          <internalNodes>
            0 -1 534 6.3518258684780449e-05</internalNodes>
          <leafValues>
            -3.6024391651153564e-01 1.6350473463535309e-01</leafValues></_>
        <_>
          <internalNodes>
            0 -1 453 2.4117043358273804e-04</internalNodes>
          <leafValues>
            -2.2218225896358490e-01 2.0388136804103851e-01</leafValues></_>
        <_>
          <internalNodes>
            0 -1 17 3.5539271775633097e-03</internalNodes>
          <leafValues>
            1.1258272081613541e-01 -3.8856339454650879e-01</leafValues></_>
        <_>
          <internalNodes>
            0 -1 26 1.6047058627009392e-02</internalNodes>
          <leafValues>
            -9.6774294972419739e-02 4.4307157397270203e-01</leafValues></_>
        <_>
          <internalNodes>
            0 -1 238 2.2167965653352439e-04</internalNodes>
          <leafValues>
            -2.4519862234592438e-01 1.7691078782081604e-01</leafValues></_>
        <_>
          <internalNodes>
            0 -1 463 -2.7120438971905969e-05</internalNodes>
          <leafValues>
            2.1654300391674042e-01 -2.0792736113071442e-01</leafValues></_>
        <_>
          <internalNodes>
            0 -1 430 3.7798419594764709e-02</internalNodes>
          <leafValues>
            -1.1005143076181412e-01 5.0590944290161133e-01</leafValues></_>
        <_>
          <internalNodes>
            0 -1 490 -3.1958858016878366e-05</internalNodes>
          <leafValues>
            1.4834499359130859e-01 -2.9536300897598267e-01</leafValues></_>
        <_>
          <internalNodes>
            0 -1 488 -4.0024854242801666e-03</internalNodes>
          <leafValues>
            2.6136842370033264e-01 -1.6065974533557892e-01</leafValues></_>
        <_>
          <internalNodes>
            0 -1 376 6.5222411649301648e-05</internalNodes>
          <leafValues>
            -2.8778544068336487e-01 1.4793202280998230e-01</leafValues></_>
        <_>
          <internalNodes>
            0 -1 455 4.3273996561765671e-03</internalNodes>
          <leafValues>
            -1.3394671678543091e-01 3.0598428845405579e-01</leafValues></_>
        <_>
          <internalNodes>
            0 -1 380 8.1461257650516927e-05</internalNodes>
          <leafValues>
            -2.4429889023303986e-01 1.8892970681190491e-01</leafValues></_>
        <_>
          <internalNodes>
            0 -1 666 -1.1618119478225708e-01</internalNodes>
          <leafValues>
            -8.1481319665908813e-01 5.1278952509164810e-02</leafValues></_>
        <_>
          <internalNodes>
            0 -1 712 4.8767002299427986e-03</internalNodes>
          <leafValues>
            -1.0095711052417755e-01 4.1019707918167114e-01</leafValues></_>
        <_>
          <internalNodes>
            0 -1 142 -7.7150687575340271e-02</internalNodes>
          <leafValues>
            3.0535757541656494e-01 -1.1942873895168304e-01</leafValues></_>
        <_>
          <internalNodes>
            0 -1 111 -6.5094262361526489e-02</internalNodes>
          <leafValues>
            4.9605399370193481e-01 -9.9082559347152710e-02</leafValues></_>
        <_>
          <internalNodes>
            0 -1 730 2.2825308144092560e-02</internalNodes>
          <leafValues>
            -1.4171975851058960e-01 2.9269078373908997e-01</leafValues></_>
        <_>
          <internalNodes>
            0 -1 213 -3.0793834477663040e-02</internalNodes>
          <leafValues>
            5.5898964405059814e-01 -7.0107772946357727e-02</leafValues></_>
        <_>
          <internalNodes>
            0 -1 242 2.7120438971905969e-05</internalNodes>
          <leafValues>
            -2.9907554388046265e-01 1.6090321540832520e-01</leafValues></_>
        <_>
          <internalNodes>
            0 -1 92 3.0122926546027884e-05</internalNodes>
          <leafValues>
            -2.0058852434158325e-01 1.8958091735839844e-01</leafValues></_>
        <_>
          <internalNodes>
            0 -1 603 2.0314058288931847e-02</internalNodes>
          <leafValues>
            -1.3185176253318787e-01 2.9566070437431335e-01</leafValues></_>
        <_>
          <internalNodes>
            0 -1 359 -7.1124947862699628e-04</internalNodes>
          <leafValues>
            1.8774616718292236e-01 -2.0798385143280029e-01</leafValues></_></weakClassifiers></_>
    <!-- stage 11 -->
    <_>
      <maxWeakCount>45</maxWeakCount>
      <stageThreshold>-9.1718667745590210e-01</stageThreshold>
      <weakClassifiers>
        <_>
          <internalNodes>
            0 -1 554 -6.9792011345271021e-05</internalNodes>
          <leafValues>
            7.2181475162506104e-01 2.6004549860954285e-01</leafValues></_>
        <_>
          <internalNodes>
            0 -1 143 4.4288747012615204e-02</internalNodes>
          <leafValues>
            -1.3795804977416992e-01 4.0260559320449829e-01</leafValues></_>
        <_>
          <internalNodes>
            0 -1 390 3.1832078093430027e-05</internalNodes>
          <leafValues>
            -2.9401090741157532e-01 2.0617717504501343e-01</leafValues></_>
        <_>
          <internalNodes>
            0 -1 661 -4.8915818333625793e-03</internalNodes>
          <leafValues>
            -5.0547963380813599e-01 1.1806742101907730e-01</leafValues></_>
        <_>
          <internalNodes>
            0 -1 124 -6.9094086939003319e-05</internalNodes>
          <leafValues>
            2.2873388230800629e-01 -2.3929105699062347e-01</leafValues></_>
        <_>
          <internalNodes>
            0 -1 498 -8.1271922681480646e-05</internalNodes>
          <leafValues>
            2.2306044399738312e-01 -2.4160739779472351e-01</leafValues></_>
        <_>
          <internalNodes>
            0 -1 465 8.3244731649756432e-04</internalNodes>
          <leafValues>
            -3.5390859842300415e-01 1.4872056245803833e-01</leafValues></_>
        <_>
          <internalNodes>
            0 -1 690 2.5421937461942434e-03</internalNodes>
          <leafValues>
            1.0908926278352737e-01 -5.4038071632385254e-01</leafValues></_>
        <_>
          <internalNodes>
            0 -1 180 -1.4241119846701622e-02</internalNodes>
          <leafValues>
            5.1483774185180664e-01 -1.1408988386392593e-01</leafValues></_>
        <_>
          <internalNodes>
            0 -1 631 -5.0099693238735199e-02</internalNodes>
          <leafValues>
            2.7222287654876709e-01 -1.8353721499443054e-01</leafValues></_>
        <_>
          <internalNodes>
            0 -1 408 7.0149850216694176e-05</internalNodes>
          <leafValues>
            -2.1144165098667145e-01 2.2673694789409637e-01</leafValues></_>
        <_>
          <internalNodes>
            0 -1 126 3.2839976483955979e-05</internalNodes>
          <leafValues>
            -2.5934237241744995e-01 1.7668074369430542e-01</leafValues></_>
        <_>
          <internalNodes>
            0 -1 548 -1.2329389574006200e-04</internalNodes>
          <leafValues>
            1.4588980376720428e-01 -3.2169762253761292e-01</leafValues></_>
        <_>
          <internalNodes>
            0 -1 342 1.0035589337348938e-01</internalNodes>
          <leafValues>
            -6.8291507661342621e-02 7.4061638116836548e-01</leafValues></_>
        <_>
          <internalNodes>
            0 -1 229 1.1550955474376678e-01</internalNodes>
          <leafValues>
            7.6367959380149841e-02 -7.5924801826477051e-01</leafValues></_>
        <_>
          <internalNodes>
            0 -1 528 1.0706484317779541e-03</internalNodes>
          <leafValues>
            -2.4435138702392578e-01 1.9428023695945740e-01</leafValues></_>
        <_>
          <internalNodes>
            0 -1 539 7.8233133535832167e-05</internalNodes>
          <leafValues>
            -3.6429005861282349e-01 1.4996333420276642e-01</leafValues></_>
        <_>
          <internalNodes>
            0 -1 483 -3.1350052449852228e-03</internalNodes>
          <leafValues>
            -3.9057970046997070e-01 1.2433036416769028e-01</leafValues></_>
        <_>
          <internalNodes>
            0 -1 632 -2.7800112962722778e-01</internalNodes>
          <leafValues>
            -8.7877148389816284e-01 4.8648238182067871e-02</leafValues></_>
        <_>
          <internalNodes>
            0 -1 134 1.5137721784412861e-03</internalNodes>
          <leafValues>
            1.3225527107715607e-01 -3.2455161213874817e-01</leafValues></_>
        <_>
          <internalNodes>
            0 -1 10 7.4221747927367687e-03</internalNodes>
          <leafValues>
            1.1284606158733368e-01 -4.3857556581497192e-01</leafValues></_>
        <_>
          <internalNodes>
            0 -1 230 7.8447558917105198e-04</internalNodes>
          <leafValues>
            -2.1465843915939331e-01 2.0126891136169434e-01</leafValues></_>
        <_>
          <internalNodes>
            0 -1 88 2.5258767604827881e-01</internalNodes>
          <leafValues>
            6.6198706626892090e-02 -7.7216172218322754e-01</leafValues></_>
        <_>
          <internalNodes>
            0 -1 57 -2.1149176172912121e-03</internalNodes>
          <leafValues>
            -3.2766708731651306e-01 1.2240453064441681e-01</leafValues></_>
        <_>
          <internalNodes>
            0 -1 651 8.3036124124191701e-05</internalNodes>
          <leafValues>
            -2.1194529533386230e-01 1.7378614842891693e-01</leafValues></_>
        <_>
          <internalNodes>
            0 -1 638 -1.1529213935136795e-01</internalNodes>
          <leafValues>
            6.8218499422073364e-01 -6.2898844480514526e-02</leafValues></_>
        <_>
          <internalNodes>
            0 -1 529 -2.1590034011751413e-03</internalNodes>
          <leafValues>
            1.8985217809677124e-01 -2.2083312273025513e-01</leafValues></_>
        <_>
          <internalNodes>
            0 -1 545 7.0936584961600602e-05</internalNodes>
          <leafValues>
            -2.4797983467578888e-01 1.9063277542591095e-01</leafValues></_>
        <_>
          <internalNodes>
            0 -1 741 1.9731663167476654e-02</internalNodes>
          <leafValues>
            -1.2442842870950699e-01 3.9767405390739441e-01</leafValues></_>
        <_>
          <internalNodes>
            0 -1 296 4.4097498059272766e-02</internalNodes>
          <leafValues>
            6.5760880708694458e-02 -7.2670209407806396e-01</leafValues></_>
        <_>
          <internalNodes>
            0 -1 596 3.0304297804832458e-02</internalNodes>
          <leafValues>
            -8.9941650629043579e-02 5.3357505798339844e-01</leafValues></_>
        <_>
          <internalNodes>
            0 -1 606 3.8888199924258515e-05</internalNodes>
          <leafValues>
            -2.0506235957145691e-01 2.4014237523078918e-01</leafValues></_>
        <_>
          <internalNodes>
            0 -1 544 2.3154095106292516e-04</internalNodes>
          <leafValues>
            -2.2493718564510345e-01 2.0655380189418793e-01</leafValues></_>
        <_>
          <internalNodes>
            0 -1 639 3.9489138871431351e-03</internalNodes>
          <leafValues>
            -1.1191361397504807e-01 4.0999707579612732e-01</leafValues></_>
        <_>
          <internalNodes>
            0 -1 592 2.9122973501216620e-05</internalNodes>
          <leafValues>
            -1.9944429397583008e-01 1.9855904579162598e-01</leafValues></_>
        <_>
          <internalNodes>
            0 -1 231 9.4503425061702728e-03</internalNodes>
          <leafValues>
            -1.5677629411220551e-01 2.6172628998756409e-01</leafValues></_>
        <_>
          <internalNodes>
            0 -1 247 7.7856020652689040e-05</internalNodes>
          <leafValues>
            -2.8532746434211731e-01 1.7526122927665710e-01</leafValues></_>
        <_>
          <internalNodes>
            0 -1 306 1.7023254185914993e-02</internalNodes>
          <leafValues>
            -1.2155912071466446e-01 4.1352766752243042e-01</leafValues></_>
        <_>
          <internalNodes>
            0 -1 624 1.2037318199872971e-02</internalNodes>
          <leafValues>
            1.0612829029560089e-01 -4.3425479531288147e-01</leafValues></_>
        <_>
          <internalNodes>
            0 -1 753 5.8500827290117741e-03</internalNodes>
          <leafValues>
            7.6734773814678192e-02 -5.1774168014526367e-01</leafValues></_>
        <_>
          <internalNodes>
            0 -1 698 5.8248769491910934e-03</internalNodes>
          <leafValues>
            -1.4342395961284637e-01 2.9121837019920349e-01</leafValues></_>
        <_>
          <internalNodes>
            0 -1 373 1.6246633604168892e-02</internalNodes>
          <leafValues>
            6.3242264091968536e-02 -6.6793406009674072e-01</leafValues></_>
        <_>
          <internalNodes>
            0 -1 163 -5.9413043782114983e-03</internalNodes>
          <leafValues>
            2.7581721544265747e-01 -1.5223945677280426e-01</leafValues></_>
        <_>
          <internalNodes>
            0 -1 515 1.9057330791838467e-04</internalNodes>
          <leafValues>
            -2.4771110713481903e-01 2.5148868560791016e-01</leafValues></_>
        <_>
          <internalNodes>
            0 -1 451 1.4762575738132000e-03</internalNodes>
          <leafValues>
            -1.7125096917152405e-01 3.1555277109146118e-01</leafValues></_></weakClassifiers></_>
    <!-- stage 12 -->
    <_>
      <maxWeakCount>51</maxWeakCount>
      <stageThreshold>-7.6704949140548706e-01</stageThreshold>
      <weakClassifiers>
        <_>
          <internalNodes>
            0 -1 461 -4.5859981328248978e-03</internalNodes>
          <leafValues>
            -8.2608693838119507e-01 6.2673187255859375e-01</leafValues></_>
        <_>
          <internalNodes>
            0 -1 83 8.6205258965492249e-02</internalNodes>
          <leafValues>
            -4.9822635948657990e-02 5.2501958608627319e-01</leafValues></_>
        <_>
          <internalNodes>
            0 -1 381 5.8420835557626560e-05</internalNodes>
          <leafValues>
            -3.6373186111450195e-01 1.5077473223209381e-01</leafValues></_>
        <_>
          <internalNodes>
            0 -1 392 3.3357689972035587e-05</internalNodes>
          <leafValues>
            -3.0010700225830078e-01 2.2259455919265747e-01</leafValues></_>
        <_>
          <internalNodes>
            0 -1 634 6.1243772506713867e-05</internalNodes>
          <leafValues>
            -1.9609503448009491e-01 2.1823266148567200e-01</leafValues></_>
        <_>
          <internalNodes>
            0 -1 535 3.1958858016878366e-05</internalNodes>
          <leafValues>
            -2.3502911627292633e-01 1.6219122707843781e-01</leafValues></_>
        <_>
          <internalNodes>
            0 -1 502 2.2117478772997856e-02</internalNodes>
          <leafValues>
            7.4708402156829834e-02 -4.9830976128578186e-01</leafValues></_>
        <_>
          <internalNodes>
            0 -1 221 1.1861193180084229e-01</internalNodes>
          <leafValues>
            6.3017755746841431e-02 -7.3078644275665283e-01</leafValues></_>
        <_>
          <internalNodes>
            0 -1 766 -2.0588599145412445e-03</internalNodes>
          <leafValues>
            -3.2544925808906555e-01 1.0939357429742813e-01</leafValues></_>
        <_>
          <internalNodes>
            0 -1 751 -1.7296876758337021e-03</internalNodes>
          <leafValues>
            -3.3137634396553040e-01 1.3730795681476593e-01</leafValues></_>
        <_>
          <internalNodes>
            0 -1 93 8.4580201655626297e-03</internalNodes>
          <leafValues>
            -2.4235397577285767e-01 1.5726824104785919e-01</leafValues></_>
        <_>
          <internalNodes>
            0 -1 637 8.0808089114725590e-04</internalNodes>
          <leafValues>
            -1.4492152631282806e-01 2.6344457268714905e-01</leafValues></_>
        <_>
          <internalNodes>
            0 -1 583 -2.3224879056215286e-02</internalNodes>
          <leafValues>
            -8.4125608205795288e-01 4.6248171478509903e-02</leafValues></_>
        <_>
          <internalNodes>
            0 -1 407 3.3313350286334753e-05</internalNodes>
          <leafValues>
            -1.9314607977867126e-01 2.0089265704154968e-01</leafValues></_>
        <_>
          <internalNodes>
            0 -1 71 2.0474130287766457e-03</internalNodes>
          <leafValues>
            1.1656573414802551e-01 -3.2155045866966248e-01</leafValues></_>
        <_>
          <internalNodes>
            0 -1 443 -1.0354411788284779e-03</internalNodes>
          <leafValues>
            1.9183848798274994e-01 -1.9926582276821136e-01</leafValues></_>
        <_>
          <internalNodes>
            0 -1 570 -1.0305639356374741e-02</internalNodes>
          <leafValues>
            -5.1230293512344360e-01 8.4651157259941101e-02</leafValues></_>
        <_>
          <internalNodes>
            0 -1 672 5.5726459249854088e-03</internalNodes>
          <leafValues>
            -1.9061517715454102e-01 2.4370171129703522e-01</leafValues></_>
        <_>
          <internalNodes>
            0 -1 680 -8.3952665328979492e-02</internalNodes>
          <leafValues>
            4.8522540926933289e-01 -8.4345743060112000e-02</leafValues></_>
        <_>
          <internalNodes>
            0 -1 424 -2.4365738034248352e-02</internalNodes>
          <leafValues>
            -6.0352230072021484e-01 7.2728194296360016e-02</leafValues></_>
        <_>
          <internalNodes>
            0 -1 737 1.2221961515024304e-04</internalNodes>
          <leafValues>
            -1.6950796544551849e-01 2.1950028836727142e-01</leafValues></_>
        <_>
          <internalNodes>
            0 -1 779 -3.1752958893775940e-03</internalNodes>
          <leafValues>
            -3.4132584929466248e-01 1.1615867912769318e-01</leafValues></_>
        <_>
          <internalNodes>
            0 -1 309 2.7120438971905969e-05</internalNodes>
          <leafValues>
            -3.1455624103546143e-01 1.1754065752029419e-01</leafValues></_>
        <_>
          <internalNodes>
            0 -1 405 6.9930218160152435e-05</internalNodes>
          <leafValues>
            -2.0141622424125671e-01 1.8262110650539398e-01</leafValues></_>
        <_>
          <internalNodes>
            0 -1 64 2.4756535887718201e-02</internalNodes>
          <leafValues>
            -1.4963629841804504e-01 2.9575371742248535e-01</leafValues></_>
        <_>
          <internalNodes>
            0 -1 168 7.7321434218902141e-05</internalNodes>
          <leafValues>
            -2.1546275913715363e-01 1.8310143053531647e-01</leafValues></_>
        <_>
          <internalNodes>
            0 -1 684 1.3227461022324860e-04</internalNodes>
          <leafValues>
            -2.3384164273738861e-01 1.5961018204689026e-01</leafValues></_>
        <_>
          <internalNodes>
            0 -1 478 7.8193625085987151e-05</internalNodes>
          <leafValues>
            -2.3182585835456848e-01 1.7118956148624420e-01</leafValues></_>
        <_>
          <internalNodes>
            0 -1 325 -2.2400751709938049e-02</internalNodes>
          <leafValues>
            3.8099828362464905e-01 -1.2088292837142944e-01</leafValues></_>
        <_>
          <internalNodes>
            0 -1 489 -7.2905234992504120e-04</internalNodes>
          <leafValues>
            -3.4417253732681274e-01 1.2952686846256256e-01</leafValues></_>
        <_>
          <internalNodes>
            0 -1 496 2.7798527851700783e-02</internalNodes>
          <leafValues>
            -9.8775088787078857e-02 3.7130591273307800e-01</leafValues></_>
        <_>
          <internalNodes>
            0 -1 137 3.5593390464782715e-02</internalNodes>
          <leafValues>
            -8.4700912237167358e-02 4.3793860077857971e-01</leafValues></_>
        <_>
          <internalNodes>
            0 -1 647 2.6681110262870789e-02</internalNodes>
          <leafValues>
            -1.1472507566213608e-01 3.3321774005889893e-01</leafValues></_>
        <_>
          <internalNodes>
            0 -1 29 -1.1241973843425512e-03</internalNodes>
          <leafValues>
            -3.3006435632705688e-01 1.2132490426301956e-01</leafValues></_>
        <_>
          <internalNodes>
            0 -1 378 4.0281834080815315e-03</internalNodes>
          <leafValues>
            -2.1991950273513794e-01 1.5839558839797974e-01</leafValues></_>
        <_>
          <internalNodes>
            0 -1 52 -2.8638918593060225e-05</internalNodes>
          <leafValues>
            2.5284603238105774e-01 -1.4549119770526886e-01</leafValues></_>
        <_>
          <internalNodes>
            0 -1 102 -9.2149227857589722e-03</internalNodes>
          <leafValues>
            -4.3033000826835632e-01 9.2225827276706696e-02</leafValues></_>
        <_>
          <internalNodes>
            0 -1 159 1.0669972107280046e-04</internalNodes>
          <leafValues>
            -1.9087857007980347e-01 2.0000763237476349e-01</leafValues></_>
        <_>
          <internalNodes>
            0 -1 233 2.9122973501216620e-05</internalNodes>
          <leafValues>
            -1.9357611238956451e-01 1.8660233914852142e-01</leafValues></_>
        <_>
          <internalNodes>
            0 -1 153 -5.7404477149248123e-02</internalNodes>
          <leafValues>
            3.6839973926544189e-01 -1.0291627049446106e-01</leafValues></_>
        <_>
          <internalNodes>
            0 -1 114 2.0880776643753052e-01</internalNodes>
          <leafValues>
            7.0968955755233765e-02 -5.1073509454727173e-01</leafValues></_>
        <_>
          <internalNodes>
            0 -1 550 3.0400778996408917e-05</internalNodes>
          <leafValues>
            -2.3164349794387817e-01 1.4991156756877899e-01</leafValues></_>
        <_>
          <internalNodes>
            0 -1 335 3.3716230973368511e-05</internalNodes>
          <leafValues>
            -2.2343900799751282e-01 1.7150093615055084e-01</leafValues></_>
        <_>
          <internalNodes>
            0 -1 571 4.3594777584075928e-02</internalNodes>
          <leafValues>
            -6.8692363798618317e-02 5.2796608209609985e-01</leafValues></_>
        <_>
          <internalNodes>
            0 -1 563 2.1148517727851868e-01</internalNodes>
          <leafValues>
            5.5850185453891754e-02 -7.3060530424118042e-01</leafValues></_>
        <_>
          <internalNodes>
            0 -1 110 -3.7830891087651253e-03</internalNodes>
          <leafValues>
            -3.9568889141082764e-01 8.5533857345581055e-02</leafValues></_>
        <_>
          <internalNodes>
            0 -1 294 2.7923402376472950e-04</internalNodes>
          <leafValues>
            -1.9128599762916565e-01 1.8877793848514557e-01</leafValues></_>
        <_>
          <internalNodes>
            0 -1 293 -3.1717121601104736e-05</internalNodes>
          <leafValues>
            2.3365995287895203e-01 -1.8545170128345490e-01</leafValues></_>
        <_>
          <internalNodes>
            0 -1 505 3.9120718836784363e-02</internalNodes>
          <leafValues>
            -1.6562072932720184e-01 2.2605431079864502e-01</leafValues></_>
        <_>
          <internalNodes>
            0 -1 520 -2.1305577829480171e-03</internalNodes>
          <leafValues>
            2.3058249056339264e-01 -1.6438606381416321e-01</leafValues></_>
        <_>
          <internalNodes>
            0 -1 664 2.0456228405237198e-02</internalNodes>
          <leafValues>
            -7.7196180820465088e-02 4.5838385820388794e-01</leafValues></_></weakClassifiers></_>
    <!-- stage 13 -->
    <_>
      <maxWeakCount>43</maxWeakCount>
      <stageThreshold>-7.6811629533767700e-01</stageThreshold>
      <weakClassifiers>
        <_>
          <internalNodes>
            0 -1 604 -2.6692032406572253e-05</internalNodes>
          <leafValues>
            7.1568375825881958e-01 1.9785138964653015e-01</leafValues></_>
        <_>
          <internalNodes>
            0 -1 68 -1.4294261345639825e-03</internalNodes>
          <leafValues>
            -3.0967250466346741e-01 2.9659733176231384e-01</leafValues></_>
        <_>
          <internalNodes>
            0 -1 37 1.4902961254119873e-01</internalNodes>
          <leafValues>
            -2.5071990489959717e-01 2.7663138508796692e-01</leafValues></_>
        <_>
          <internalNodes>
            0 -1 759 1.3724598102271557e-03</internalNodes>
          <leafValues>
            1.5995493531227112e-01 -3.8167968392372131e-01</leafValues></_>
        <_>
          <internalNodes>
            0 -1 759 -1.0722521692514420e-03</internalNodes>
          <leafValues>
            -4.2973837256431580e-01 1.5487137436866760e-01</leafValues></_>
        <_>
          <internalNodes>
            0 -1 319 2.6450590667081997e-05</internalNodes>
          <leafValues>
            -2.8438329696655273e-01 1.8920177221298218e-01</leafValues></_>
        <_>
          <internalNodes>
            0 -1 604 -2.4407769087702036e-03</internalNodes>
          <leafValues>
            -3.0573397874832153e-01 1.5786032378673553e-01</leafValues></_>
        <_>
          <internalNodes>
            0 -1 298 2.7512698579812422e-05</internalNodes>
          <leafValues>
            -3.3036237955093384e-01 1.3314986228942871e-01</leafValues></_>
        <_>
          <internalNodes>
            0 -1 328 -1.8832879140973091e-03</internalNodes>
          <leafValues>
            -3.0688148736953735e-01 1.3712251186370850e-01</leafValues></_>
        <_>
          <internalNodes>
            0 -1 600 -3.2772641134215519e-05</internalNodes>
          <leafValues>
            1.6344600915908813e-01 -3.2071760296821594e-01</leafValues></_>
        <_>
          <internalNodes>
            0 -1 15 -1.9580572843551636e-03</internalNodes>
          <leafValues>
            -4.8367655277252197e-01 9.6625395119190216e-02</leafValues></_>
        <_>
          <internalNodes>
            0 -1 287 5.6013062596321106e-02</internalNodes>
          <leafValues>
            1.0168147087097168e-01 -3.7708351016044617e-01</leafValues></_>
        <_>
          <internalNodes>
            0 -1 311 3.7241599784465507e-05</internalNodes>
          <leafValues>
            -3.7426489591598511e-01 1.2403494119644165e-01</leafValues></_>
        <_>
          <internalNodes>
            0 -1 391 2.8868735171272419e-05</internalNodes>
          <leafValues>
            -2.6793777942657471e-01 1.6051678359508514e-01</leafValues></_>
        <_>
          <internalNodes>
            0 -1 0 2.8873244300484657e-03</internalNodes>
          <leafValues>
            8.4349982440471649e-02 -4.7713583707809448e-01</leafValues></_>
        <_>
          <internalNodes>
            0 -1 445 -9.8211574368178844e-04</internalNodes>
          <leafValues>
            1.9748926162719727e-01 -2.1757291257381439e-01</leafValues></_>
        <_>
          <internalNodes>
            0 -1 75 -7.1745634078979492e-01</internalNodes>
          <leafValues>
            8.3644336462020874e-01 -4.9446314573287964e-02</leafValues></_>
        <_>
          <internalNodes>
            0 -1 94 8.4957202489022166e-05</internalNodes>
          <leafValues>
            -1.7721518874168396e-01 2.1890836954116821e-01</leafValues></_>
        <_>
          <internalNodes>
            0 -1 450 3.1892508559394628e-05</internalNodes>
          <leafValues>
            -1.7298069596290588e-01 2.4771468341350555e-01</leafValues></_>
        <_>
          <internalNodes>
            0 -1 625 -8.4449726273305714e-05</internalNodes>
          <leafValues>
            2.2743630409240723e-01 -2.0390567183494568e-01</leafValues></_>
        <_>
          <internalNodes>
            0 -1 777 -2.8887060470879078e-03</internalNodes>
          <leafValues>
            -3.3839288353919983e-01 1.1726606637239456e-01</leafValues></_>
        <_>
          <internalNodes>
            0 -1 588 1.8505770713090897e-02</internalNodes>
          <leafValues>
            -1.3888849318027496e-01 2.9868298768997192e-01</leafValues></_>
        <_>
          <internalNodes>
            0 -1 778 1.1222490575164557e-03</internalNodes>
          <leafValues>
            1.2744511663913727e-01 -3.5688740015029907e-01</leafValues></_>
        <_>
          <internalNodes>
            0 -1 184 9.8177144536748528e-05</internalNodes>
          <leafValues>
            -2.2882090508937836e-01 1.5696921944618225e-01</leafValues></_>
        <_>
          <internalNodes>
            0 -1 614 -2.8935300186276436e-02</internalNodes>
          <leafValues>
            -5.5076777935028076e-01 6.6738165915012360e-02</leafValues></_>
        <_>
          <internalNodes>
            0 -1 442 2.8636243660002947e-03</internalNodes>
          <leafValues>
            -2.0951496064662933e-01 1.7328679561614990e-01</leafValues></_>
        <_>
          <internalNodes>
            0 -1 718 4.0215076878666878e-03</internalNodes>
          <leafValues>
            1.0923891514539719e-01 -3.4138691425323486e-01</leafValues></_>
        <_>
          <internalNodes>
            0 -1 622 -2.6709069497883320e-03</internalNodes>
          <leafValues>
            1.9141961634159088e-01 -1.9546565413475037e-01</leafValues></_>
        <_>
          <internalNodes>
            0 -1 105 -7.3173992335796356e-02</internalNodes>
          <leafValues>
            3.7657508254051208e-01 -1.1636685580015182e-01</leafValues></_>
        <_>
          <internalNodes>
            0 -1 266 4.6108357608318329e-02</internalNodes>
          <leafValues>
            -1.0019155591726303e-01 4.8419553041458130e-01</leafValues></_>
        <_>
          <internalNodes>
            0 -1 427 -2.8863633051514626e-03</internalNodes>
          <leafValues>
            2.0093287527561188e-01 -1.7789676785469055e-01</leafValues></_>
        <_>
          <internalNodes>
            0 -1 353 -1.3692356646060944e-01</internalNodes>
          <leafValues>
            -8.6089235544204712e-01 5.1460552960634232e-02</leafValues></_>
        <_>
          <internalNodes>
            0 -1 259 3.3021264243870974e-05</internalNodes>
          <leafValues>
            -2.2087295353412628e-01 1.6871973872184753e-01</leafValues></_>
        <_>
          <internalNodes>
            0 -1 398 -7.6390082540456206e-05</internalNodes>
          <leafValues>
            1.3133372366428375e-01 -3.0626261234283447e-01</leafValues></_>
        <_>
          <internalNodes>
            0 -1 399 3.5115659557050094e-05</internalNodes>
          <leafValues>
            -2.2051373124122620e-01 2.0926396548748016e-01</leafValues></_>
        <_>
          <internalNodes>
            0 -1 435 5.8435488492250443e-02</internalNodes>
          <leafValues>
            -5.1087614148855209e-02 7.4718838930130005e-01</leafValues></_>
        <_>
          <internalNodes>
            0 -1 409 -1.6662724316120148e-02</internalNodes>
          <leafValues>
            4.0269556641578674e-01 -8.3516836166381836e-02</leafValues></_>
        <_>
          <internalNodes>
            0 -1 291 -2.5773838162422180e-02</internalNodes>
          <leafValues>
            -7.7970254421234131e-01 5.1863532513380051e-02</leafValues></_>
        <_>
          <internalNodes>
            0 -1 522 -1.0399206075817347e-03</internalNodes>
          <leafValues>
            2.3243796825408936e-01 -1.5657167136669159e-01</leafValues></_>
        <_>
          <internalNodes>
            0 -1 65 1.0523910168558359e-03</internalNodes>
          <leafValues>
            1.3090376555919647e-01 -2.7371659874916077e-01</leafValues></_>
        <_>
          <internalNodes>
            0 -1 351 1.0073233395814896e-02</internalNodes>
          <leafValues>
            -1.3023151457309723e-01 2.7478256821632385e-01</leafValues></_>
        <_>
          <internalNodes>
            0 -1 106 -2.1497756242752075e-02</internalNodes>
          <leafValues>
            2.5116580724716187e-01 -1.4317812025547028e-01</leafValues></_>
        <_>
          <internalNodes>
            0 -1 282 -5.5778820067644119e-02</internalNodes>
          <leafValues>
            -7.8557109832763672e-01 4.9049720168113708e-02</leafValues></_></weakClassifiers></_>
    <!-- stage 14 -->
    <_>
      <maxWeakCount>63</maxWeakCount>
      <stageThreshold>-8.9226067066192627e-01</stageThreshold>
      <weakClassifiers>
        <_>
          <internalNodes>
            0 -1 619 -5.2815571427345276e-02</internalNodes>
          <leafValues>
            7.5726139545440674e-01 3.8425046205520630e-01</leafValues></_>
        <_>
          <internalNodes>
            0 -1 254 -3.1999639759305865e-05</internalNodes>
          <leafValues>
            2.7681508660316467e-01 -2.0562601089477539e-01</leafValues></_>
        <_>
          <internalNodes>
            0 -1 76 -1.9728854298591614e-01</internalNodes>
          <leafValues>
            -4.9044328927993774e-01 1.1787546426057816e-01</leafValues></_>
        <_>
          <internalNodes>
            0 -1 758 1.1805825633928180e-03</internalNodes>
          <leafValues>
            9.8683752119541168e-02 -4.0857800841331482e-01</leafValues></_>
        <_>
          <internalNodes>
            0 -1 701 2.6202823966741562e-02</internalNodes>
          <leafValues>
            -1.4598502218723297e-01 2.8395846486091614e-01</leafValues></_>
        <_>
          <internalNodes>
            0 -1 255 2.6692032406572253e-05</internalNodes>
          <leafValues>
            -2.4253168702125549e-01 1.4432498812675476e-01</leafValues></_>
        <_>
          <internalNodes>
            0 -1 333 6.3588719058316201e-05</internalNodes>
          <leafValues>
            -2.4116168916225433e-01 2.0107941329479218e-01</leafValues></_>
        <_>
          <internalNodes>
            0 -1 140 8.4965064888820052e-04</internalNodes>
          <leafValues>
            9.7865097224712372e-02 -3.4999963641166687e-01</leafValues></_>
        <_>
          <internalNodes>
            0 -1 140 -7.8534986823797226e-04</internalNodes>
          <leafValues>
            -3.9933064579963684e-01 9.1384708881378174e-02</leafValues></_>
        <_>
          <internalNodes>
            0 -1 410 -2.4794798344373703e-02</internalNodes>
          <leafValues>
            4.4448265433311462e-01 -8.6923785507678986e-02</leafValues></_>
        <_>
          <internalNodes>
            0 -1 270 2.3293707519769669e-02</internalNodes>
          <leafValues>
            -1.0407651960849762e-01 3.9328804612159729e-01</leafValues></_>
        <_>
          <internalNodes>
            0 -1 58 -1.2408616021275520e-02</internalNodes>
          <leafValues>
            3.4651887416839600e-01 -1.1130841821432114e-01</leafValues></_>
        <_>
          <internalNodes>
            0 -1 181 1.4107177034020424e-02</internalNodes>
          <leafValues>
            -9.6971333026885986e-02 3.5252565145492554e-01</leafValues></_>
        <_>
          <internalNodes>
            0 -1 677 -6.9221317768096924e-02</internalNodes>
          <leafValues>
            4.9498978257179260e-01 -6.4339026808738708e-02</leafValues></_>
        <_>
          <internalNodes>
            0 -1 598 8.6177270859479904e-03</internalNodes>
          <leafValues>
            -1.5328897535800934e-01 2.3510493338108063e-01</leafValues></_>
        <_>
          <internalNodes>
            0 -1 590 -1.5719242393970490e-02</internalNodes>
          <leafValues>
            5.2869969606399536e-01 -6.6457502543926239e-02</leafValues></_>
        <_>
          <internalNodes>
            0 -1 749 -1.7242799513041973e-03</internalNodes>
          <leafValues>
            -2.6001963019371033e-01 1.2783092260360718e-01</leafValues></_>
        <_>
          <internalNodes>
            0 -1 301 9.1940775746479630e-05</internalNodes>
