<?xml version="1.0"?>
<opencv_storage>
<cascade>
  <stageType>BOOST</stageType>
  <featureType>HAAR</featureType>
  <height>64</height>
  <width>64</width>
  <stageParams>
    <boostType>GAB</boostType>
    <minHitRate>9.9500000476837158e-01</minHitRate>
    <maxFalseAlarm>5.0000000000000000e-01</maxFalseAlarm>
    <weightTrimRate>9.4999999999999996e-01</weightTrimRate>
    <maxDepth>1</maxDepth>
    <maxWeakCount>100</maxWeakCount></stageParams>
  <featureParams>
    <maxCatCount>0</maxCatCount>
    <featSize>1</featSize>
    <mode>BASIC</mode></featureParams>
  <stageNum>4</stageNum>
  <stages>
    <!-- stage 0 -->
    <_>
      <maxWeakCount>2</maxWeakCount>
      <stageThreshold>1.0615417733788490e-02</stageThreshold>
      <weakClassifiers>
        <_>
          <internalNodes>
            0 -1 3 -2.8307948261499405e-02</internalNodes>
          <leafValues>
            9.9078339338302612e-01 -9.6837943792343140e-01</leafValues></_>
        <_>
          <internalNodes>
            0 -1 5 1.0777065157890320e-01</internalNodes>
          <leafValues>
            -9.7336775064468384e-01 9.7899484634399414e-01</leafValues></_></weakClassifiers></_>
    <!-- stage 1 -->
    <_>
      <maxWeakCount>2</maxWeakCount>
      <stageThreshold>-8.7969182059168816e-03</stageThreshold>
      <weakClassifiers>
        <_>
          <internalNodes>
            0 -1 1 -4.1821822524070740e-01</internalNodes>
          <leafValues>
            9.1767555475234985e-01 -8.3301705121994019e-01</leafValues></_>
        <_>
          <internalNodes>
            0 -1 4 1.6901966184377670e-02</internalNodes>
          <leafValues>
            -8.3764827251434326e-01 8.2422018051147461e-01</leafValues></_></weakClassifiers></_>
    <!-- stage 2 -->
    <_>
      <maxWeakCount>2</maxWeakCount>
      <stageThreshold>-7.1467459201812744e-03</stageThreshold>
      <weakClassifiers>
        <_>
          <internalNodes>
            0 -1 2 -1.8454678356647491e-01</internalNodes>
          <leafValues>
            9.1422122716903687e-01 -9.3561369180679321e-01</leafValues></_>
        <_>
          <internalNodes>
            0 -1 6 -2.2769239731132984e-03</internalNodes>
          <leafValues>
            9.2846691608428955e-01 -9.1809976100921631e-01</leafValues></_></weakClassifiers></_>
    <!-- stage 3 -->
    <_>
      <maxWeakCount>1</maxWeakCount>
      <stageThreshold>1.</stageThreshold>
      <weakClassifiers>
        <_>
          <internalNodes>
            0 -1 0 -1.6064507653936744e-03</internalNodes>
          <leafValues>
            -1. 1.</leafValues></_></weakClassifiers></_></stages>
  <features>
    <_>
      <rects>
        <_>
          0 0 9 30 -1.</_>
        <_>
          3 0 3 30 3.</_></rects>
      <tilted>0</tilted></_>
    <_>
      <rects>
        <_>
          4 8 60 56 -1.</_>
        <_>
          24 8 20 56 3.</_></rects>
      <tilted>0</tilted></_>
    <_>
      <rects>
        <_>
          5 0 59 62 -1.</_>
        <_>
          5 31 59 31 2.</_></rects>
      <tilted>0</tilted></_>
    <_>
      <rects>
        <_>
          7 6 12 48 -1.</_>
        <_>
          7 30 12 24 2.</_></rects>
      <tilted>0</tilted></_>
    <_>
      <rects>
        <_>
          23 12 32 20 -1.</_>
        <_>
          23 22 32 10 2.</_></rects>
      <tilted>0</tilted></_>
    <_>
      <rects>
        <_>
          30 5 34 25 -1.</_>
        <_>
          47 5 17 25 2.</_></rects>
      <tilted>0</tilted></_>
    <_>
      <rects>
        <_>
          62 8 1 56 -1.</_>
        <_>
          62 36 1 28 2.</_></rects>
      <tilted>0</tilted></_></features></cascade>
</opencv_storage>
